[-0.47070106],[5.02034239],[0.89545226],[-0.44906456],[-0.24765942],[-1.37104958],[4.90683141],[-0.72049923],[-0.25406876],[-0.60115926],[0.97624802],[0.6735014],[1.12578819],[-0.40982974],[-0.40755212],[1.01562443],[-0.1907116],[0.83497624],[-1.08081736],[-0.56348417],[-0.65977846],[-0.06290211],[0.83562416],[0.],[-0.40982974],[-0.91560514],[1.21463568],[1.55053925],[-0.36280302],[0.],[0.33850782],[-0.57084733],[0.13033002],[-0.46910323],[-1.52308034],[-1.02445543],[-0.51083939],[-0.55443677],[-0.95413009],[-1.16507468],[-0.43880449],[-0.3123246],[0.69252063],[1.21463568],[-1.17783723],[-0.43801679],[-0.67344713],[-0.3123246],[0.18510204],[0.89402274],[-0.46506579],[0.35047493],[-0.58159145],[2.56454404],[-0.31404847],[0.],[-0.41183305],[2.01952214],[-0.25406876],[-0.59861148],[1.67315203],[0.],[-0.3643569],[-1.86514678],[2.51316787],[2.67712266],[-1.1483575],[-1.01243472],[-1.54936377],[0.83497624],[0.],[-0.79499824],[0.1251709],[0.],[-0.90231715],[-1.79377294],[1.17823827],[0.79144041],[-1.79377294],[-0.50484488],[-1.06755689],[-1.67210673],[1.27863004],[1.22523928],[-0.79469955],[0.],[-1.26133655],[1.08706231],[-2.02377314],[0.],[1.84806695],[0.63464586],[-0.23036371],[0.30409999],[-0.71358239],[1.12649825],[0.2964759],[0.22143522],[-0.15477008],[-0.53430389],[1.71245499],[0.59191739],[-1.41547759],[-0.25548215],[-0.63066827],[2.8786079],[0.42396426],[-0.20377628],[0.99469879],[0.],[4.7634038],[-0.33868387],[1.78435923],[-0.46863673],[1.15247408],[-0.52294151],[0.],[0.63766902],[-0.31924437],[-1.36938661],[-0.72579519],[-0.37019911],[3.89827205],[-0.65810092],[1.6390641],[0.0885025],[3.07792863],[2.02257171],[2.4923737],[0.73218894],[-0.26711749],[0.],[1.24216617],[0.81982994],[-0.10120421],[-0.37666238],[1.40658944],[1.38774219],[1.55155007],[0.61219929],[0.93175868],[1.52505451],[-1.0988666],[-0.60994702],[-1.06720772],[1.77229484],[-0.36494564],[-0.45794019],[-1.00982371],[0.],[0.92948303],[-0.35269268],[0.37530998],[0.96834489],[-0.64077319],[2.63523815],[0.68044623],[0.34593442],[0.41031947],[0.],[-0.88039644],[-0.4901063],[0.92251985],[0.77784768],[0.97448521],[2.05530099],[2.53715941],[0.38452051],[0.34065861],[0.6633712],[0.06611615],[-1.05897553],[2.90960841],[2.84262559],[3.53916184],[0.56970401],[2.5317302],[-0.36989369],[0.],[0.4200115],[0.83640167],[-0.37019911],[1.15429201],[1.82568894],[-0.76492024],[1.70102527],[0.66454984],[1.80340951],[0.34697652],[3.54699829],[0.],[-0.38442032],[-0.71982272],[0.22655921],[-0.23263537],[-0.24053443],[-0.94530055],[0.34697652],[-0.48933693],[0.79144041],[3.58420581],[3.15953379],[-0.39597597],[-3.75999829],[-2.65371451],[0.29150612],[1.40770363],[-1.15065293],[1.03658645],[0.98027515],[-0.63227536],[-1.12157183],[-0.64891473],[-1.81996629],[0.292486],[-0.41370718],[1.94393084],[-0.25982407],[1.57360052],[0.27193458],[-0.07763622],[-0.25136172],[0.],[-2.01997967],[-0.73232936],[0.56769338],[1.38640857],[1.84054025],[-1.10956382],[-0.59868234],[0.],[1.35979533],[2.68031437],[-0.67272401],[0.39068739],[2.23522028],[0.68802476],[0.],[1.53292624],[1.28290314],[-2.1671152],[-2.76284253],[0.99527015],[0.],[-0.65977846],[0.81474859],[0.27842531],[-1.73207317],[0.69902023],[0.73933025],[-0.81783306],[-0.51083939],[3.24085149],[0.],[1.01214284],[-0.24053443],[1.07355522],[-1.02100331],[0.65439312],[0.36720995],[-0.38870106],[-2.35000644],[4.2041629],[-2.03935448],[-1.64075015],[-0.09536994],[-0.84637437],[-0.80214546],[0.81474859],[-0.92724632],[-0.46668836],[-1.38235339],[0.],[-0.85698607],[1.27652513],[-2.34651436],[-0.72581405],[-0.80419798],[-0.49883138],[-1.52664665],[-1.90679465],[-1.33427594],[-0.59695021],[0.29790906],[-0.87314216],[0.60438651],[-0.24053443],[-0.37458022],[-0.47380695],[-0.1180815],[-0.8312492],[1.10535282],[2.13317051],[0.87446691],[0.],[1.17635901],[-0.69672251],[1.37415778],[-0.43421458],[-0.90231715],[0.11798773],[1.03291295],[-4.0768045],[-0.29392245],[-3.79175859],[-0.63679973],[-1.8248714],[0.79144041],[-2.02377314],[-1.55500378],[5.83828746],[-5.76377835],[-1.33784949],[-0.26815553],[0.24960302],[0.],[0.9721453],[0.],[-0.40755212],[0.],[-0.14538251],[1.45131891],[1.41474877],[-0.12858807],[-5.50105455],[1.37415778],[-0.11019443],[1.99364114],[-0.26861456],[0.],[-7.75732042],[-2.12384722],[0.40910217],[-0.82321045],[0.30630114],[-0.49485731],[0.],[-0.29992881],[-1.78807823],[-1.93991699],[-0.55398722],[0.3520294],[0.],[0.],[-0.39597597],[0.],[0.28266941],[0.53990114],[-0.21228838],[-0.43713212],[2.15077843],[-1.93769251],[0.94963877],[-0.88707277],[-0.18012786],[0.],[0.],[0.],[0.4500845],[-0.43083746],[-0.01598501],[-1.3616093],[0.78553509],[0.51358802],[-1.09500731],[-0.11675633],[-0.59020541],[1.57645159],[-1.35470541],[1.13109341],[-0.42383374],[0.],[-0.31472085],[0.],[-1.60365097],[0.70026947],[0.83109801],[0.],[0.89689842],[7.59445232],[0.55113455],[0.],[-0.53249296],[0.89630274],[0.68802476],[1.95825565],[-1.05496525],[-0.38707731],[-0.68657429],[0.64641107],[-1.32482807],[-0.62469115],[-0.69266468],[-2.2847722],[-0.18853586],[-0.6303374],[2.56568658],[-0.15110426],[1.21463568],[0.44457352],[0.9684559],[-0.5609712],[4.81578176],[-2.00605079],[-0.92352213],[-0.63227536],[0.],[-0.87738934],[0.27826722],[-0.19358814],[0.32899147],[-2.87987318],[0.40226643],[-0.26711749],[-0.29514129],[-0.82718376],[-0.38442032],[0.33996416],[0.98443777],[-0.29680164],[7.56692957],[0.82900791],[-2.09417977],[-2.48659903],[-1.37302693],[-0.31779374],[-2.01619504],[0.],[-0.21475283],[-0.32348815],[-0.91189959],[0.383423],[-0.16273098],[-0.42145374],[-0.52135845],[0.],[-0.39623127],[-3.14331694],[-0.73807357],[0.87472527],[-0.78609732],[-0.64891473],[0.71816241],[-1.28235472],[2.76173624],[1.12062867],[-2.17508484],[0.40826565],[-0.4745309],[-2.98090995],[-0.19635037],[-1.2924297],[-0.92724632],[-0.38912071],[-2.40844378],[0.],[0.65969827],[-0.95903084],[-0.73746259],[1.03255889],[-1.21643463],[1.36081342],[0.84104868],[-1.63770088],[2.25512101],[0.26017732],[-0.14538251],[-0.48317144],[0.76497894],[-0.21631082],[-0.33066978],[-0.69556339],[-0.41559481],[1.47710042],[0.94105588],[2.33374249],[0.],[0.67777828],[-0.77749556],[1.15609573],[-0.44158247],[0.18379459],[0.12224202],[1.45131891],[-0.11019443],[-1.74318532],[-1.6059346],[-2.0503671],[1.40252446],[0.87472527],[5.31106716],[-1.68505057],[1.17635901],[-0.95575685],[-0.31361294],[-0.35406329],[-1.89132348],[-0.29571049],[0.],[-0.29229725],[0.],[-0.21727325],[-0.90957095],[0.5013905],[-1.08018059],[0.01317568],[0.],[-1.61913351],[-1.46314495],[-0.53641735],[-0.51542015],[-3.31935488],[-0.67039753],[0.],[-0.71170825],[0.40220559],[0.],[0.87599755],[0.33996416],[0.83807803],[3.58630573],[6.14593165],[0.79144041],[-1.96271055],[0.59991736],[0.],[-1.5705673],[-2.02619947],[-0.24438324],[0.51505125],[0.31187457],[-0.2933128],[-0.30281852],[0.72063532],[0.62943418],[-1.48673858],[0.],[0.],[-0.63512312],[0.22316702],[-0.6758178],[-1.24803553],[0.22143522],[-0.69113494],[-0.68394189],[-0.13207052],[0.],[1.14834233],[1.80954493],[-0.48724631],[-0.29623297],[-0.14716896],[3.15047743],[-0.37126493],[0.63965033],[-2.29523877],[-0.94914036],[-1.70724453],[-1.47920941],[-1.03334548],[0.71303245],[0.],[-1.60883672],[0.],[-0.4670736],[1.60756676],[0.],[-1.35985429],[-1.54603973],[-0.53569814],[-1.70386968],[-0.82430188],[-3.87881754],[-0.10658863],[-0.5586839],[0.21816412],[-2.07461486],[-0.55443677],[0.],[0.23493559],[0.38314911],[0.],[-0.26733354],[0.73581169],[0.],[-0.43254955],[0.],[-0.55712318],[0.6713147],[-0.93202778],[0.24959532],[0.],[0.],[-2.36413147],[0.1970409],[0.22655921],[2.4283803],[-0.43102303],[0.30956702],[0.9721453],[0.76497894],[0.15716886],[1.40252446],[0.33996416],[0.57523901],[0.],[-3.42006791],[-1.5442545],[0.85357187],[0.],[-0.36941076],[3.26791238],[-0.16273098],[-1.21275643],[-1.88594507],[1.4618729],[-0.0441263],[-1.67262514],[-0.24907179],[0.60198416],[0.],[-0.97656997],[0.56083163],[-1.61652766],[0.98027515],[3.95689743],[-0.45643857],[0.],[0.8631828],[1.21667207],[0.98767617],[4.11155317],[-0.32134578],[-0.39230768],[-0.80644507],[-0.75814624],[-0.96387163],[4.96306068],[2.12359382],[2.71350006],[0.29790906],[-0.33052302],[0.26293819],[-0.43547986],[-0.30107413],[-2.0839078],[-0.35221682],[-0.3441442],[0.],[-0.50484488],[1.03995245],[2.90960841],[-0.84183308],[1.12649825],[2.81278429],[1.01127503],[-0.40306266],[0.64331323],[1.48117616],[0.28182471],[-0.64073067],[0.16172242],[0.25045742],[-0.98681003],[1.26997614],[-0.64808554],[0.27254479],[-0.32642375],[-1.14722479],[0.25869798],[-0.92488336],[-0.71003892],[0.44188188],[-1.94641267],[-0.40492229],[-1.57928914],[0.91716479],[-0.3643569],[3.70484536],[-0.24050473],[0.75499673],[0.49952926],[0.81697081],[-1.85591748],[-0.76723228],[0.46512103],[-2.00391722],[2.15334996],[1.37951987],[0.84960841],[1.06442248],[0.58303388],[1.03372613],[0.44173616],[-3.90538942],[0.3508846],[-1.6508312],[-1.68203042],[-1.05610626],[4.49379709],[0.38780491],[0.40910217],[1.13109341],[-0.3643569],[-0.55275905],[-0.34528728],[0.],[-0.3227665],[-1.16216508],[0.],[0.93494963],[-0.27600213],[-0.67476645],[-2.67612174],[2.42502066],[-0.32005306],[3.83303801],[-1.8046343],[-0.25204189],[1.25861656],[-2.05286404],[-0.19752454],[-0.32453521],[0.],[-0.64682102],[-1.2924297],[0.79997936],[0.74304518],[0.],[-0.38912071],[0.],[-0.3460967],[0.87612875],[0.73439316],[1.25787438],[3.51548587],[3.62056485],[-0.35209515],[-2.03917843],[0.42656502],[0.],[-0.12158004],[0.61219929],[3.32553295],[0.56987794],[-0.24224753],[0.],[-0.099736],[4.29161704],[2.63523815],[-1.7864378],[2.45369706],[0.74304518],[-1.52448437],[-0.6101403],[0.70711331],[0.51505125],[-1.70477767],[1.48117616],[0.72052068],[0.92948303],[-0.37046244],[0.],[-0.87332998],[0.],[-1.20416954],[0.36011759],[0.3520294],[-0.63961547],[0.],[0.],[0.],[0.],[-0.29238326],[-0.19383101],[-0.39712423],[0.],[0.22067549],[0.24537822],[-0.69672251],[-1.25411017],[-0.41156186],[0.65700655],[0.90418924],[-0.67928692],[0.42633454],[0.],[-2.3177827],[-0.56157181],[-0.68734978],[0.57881746],[2.43686274],[6.25083827],[2.81907373],[1.21463568],[0.27254479],[-0.74329497],[-0.85186287],[0.77878511],[0.23489557],[-0.45643857],[0.2203732],[-0.42145374],[-1.73155077],[0.],[-0.50761155],[-0.50761155],[1.09009132],[1.40252446],[0.],[-0.12261021],[-0.97830347],[1.26965126],[-1.41394806],[-1.18154919],[0.],[-1.28609961],[0.48447033],[-1.4958705],[-0.18853586],[-2.47390244],[0.88730364],[0.25869798],[2.58672828],[-0.45077497],[1.02988663],[-0.46801172],[0.6820877],[-1.5558702],[0.],[-0.99838069],[0.],[-0.87373822],[1.26561982],[-0.56024162],[-0.51526138],[1.73867152],[0.61672233],[0.52612885],[0.],[0.39386529],[1.06284592],[-0.45643857],[-0.37288615],[0.53685587],[-0.44116833],[0.87355056],[0.96446698],[-0.43880449],[0.63492418],[0.71063372],[0.86933662],[0.],[-0.17203653],[-0.88094097],[0.72380885],[1.09893674],[-0.36943754],[0.79471928],[-1.98228575],[0.63826257],[-0.33066978],[0.36940121],[0.37368264],[-1.02990701],[-0.13144867],[0.14484224],[-1.2297344],[-1.33139983],[-0.27550081],[-0.20766117],[-0.27635126],[0.26871191],[0.],[0.50043858],[1.03966738],[0.73439316],[0.20776719],[-0.53823548],[0.98443777],[-2.1084319],[2.15155424],[0.77878511],[-0.25204189],[0.71068743],[1.27863004],[1.14389116],[-1.05472088],[0.15182709],[-0.69203179],[0.56083163],[-1.45699503],[-0.18765032],[-1.5705673],[-0.42956939],[3.74374703],[-0.42956939],[-1.13671905],[-0.15201885],[5.24468227],[1.01182102],[-0.18170912],[-0.92724632],[-0.8939009],[-0.1046719],[-0.14538251],[-1.0212503],[-0.39008464],[-0.23441544],[-1.078251],[-0.29680164],[-2.79407405],[0.61260228],[0.],[-2.77461361],[-1.73086184],[-0.59517232],[-0.19752454],[-0.96954185],[-0.1794145],[0.],[-0.3601819],[-1.97219884],[1.52481299],[0.],[1.5026199],[-1.79817049],[-0.86167493],[-1.36822273],[-0.12291644],[-0.29667206],[0.81416682],[0.],[-0.83118963],[-1.03651204],[-0.99838069],[-0.98372757],[-0.92795874],[2.38396831],[0.],[0.],[-4.64043791],[-0.21291682],[0.63826257],[0.],[0.],[-0.72049923],[0.65700655],[1.84670771],[-0.61110967],[-0.358697],[0.],[-0.18416864],[1.63606159],[1.41577382],[0.49660779],[1.31407326],[0.65070018],[1.13109341],[0.20952821],[0.26293819],[0.],[-0.69891609],[0.32899147],[2.02969562],[0.],[0.65070018],[0.89119416],[1.80954493],[-0.6929613],[0.],[1.25503659],[0.],[0.80067624],[0.3339666],[-1.00547099],[-1.06440993],[-0.35390686],[-0.84000106],[0.],[-0.19635037],[4.31939548],[0.21294598],[-1.61176965],[-0.82801309],[-0.34142524],[0.],[2.01952214],[0.51582724],[-1.37825151],[0.],[0.],[3.43091512],[3.75431216],[0.76497894],[1.17190137],[-0.44160936],[1.09016449],[-0.580422],[0.51881942],[0.60678812],[-2.26333952],[2.30849514],[3.57745228],[0.40910217],[0.52595582],[0.70711331],[0.95183688],[0.49254057],[0.],[-0.26595439],[0.68600461],[1.43178693],[-0.30482548],[1.64091132],[-0.27529449],[1.13109341],[0.40826565],[-1.4632827],[-1.03199303],[0.44135585],[-0.71584579],[-0.12492995],[-0.25204189],[-1.90011075],[0.66643486],[-1.41394806],[1.29780901],[1.49368486],[0.],[1.02744851],[-1.36867487],[0.],[0.],[-0.60618079],[-0.82836212],[-0.09784618],[0.],[-0.4901063],[-1.40856667],[1.48117616],[0.],[-0.23036371],[4.6370762],[1.39906018],[0.],[-0.34142524],[-2.36884496],[0.],[0.],[0.],[0.75177639],[0.97185711],[0.],[0.40826565],[0.71098623],[-0.39694415],[1.3628093],[-0.25136172],[-0.51122139],[-0.8059198],[-0.77749556],[0.34207016],[-1.0794849],[-3.97347296],[-1.27819894],[-2.50531621],[1.89688684],[0.2964759],[0.],[1.59496496],[-0.45748307],[0.6713147],[1.67041671],[-0.11960764],[-1.17057285],[-1.77493234],[0.87047074],[3.21037638],[-1.41394806],[-0.78828169],[0.51358802],[-0.28378549],[-0.43827052],[-0.08020806],[0.],[0.],[-0.55320938],[-0.57388295],[0.29790906],[0.70877465],[0.7586734],[0.33668068],[0.99846492],[-0.58079628],[0.75890396],[2.16305698],[-0.88963813],[3.40004767],[1.57912905],[0.],[1.5280536],[-0.8059198],[4.17007049],[0.95247893],[-0.22988637],[-1.34072759],[-0.42145374],[0.60198416],[1.52726855],[-5.30601153],[0.],[-1.09083929],[-0.62469115],[0.5612698],[-0.56694239],[-4.71397677],[-1.19081887],[-0.95651089],[-0.29043859],[-0.49058418],[0.],[-0.32453521],[-1.24229226],[-1.14869647],[-2.98013943],[-1.41223196],[-0.40988497],[-0.23458021],[0.52836375],[1.04290772],[-1.72017967],[-3.31164105],[-0.38220301],[-1.25581777],[-0.97783863],[-0.41211803],[-5.08122639],[-4.40041849],[-6.76542664],[-0.81061295],[-0.39531973],[-0.67049306],[0.66684386],[-0.44513087],[-0.96670479],[1.83918496],[-0.41421298],[-2.09123841],[-0.40242187],[-0.7478962],[-0.51310863],[-2.07535926],[-1.90309279],[-1.23500798],[-2.97266945],[-2.12219202],[0.27254479],[-0.23036371],[0.],[1.86925008],[-2.4656024],[-0.50335979],[-0.80498529],[-3.45379275],[-0.81723439],[-0.44555873],[-0.21172777],[2.51502881],[-1.06720772],[-0.21350618],[-0.43801679],[1.61074585],[-0.18170912],[-1.2950328],[0.92948303],[0.93586261],[1.27901465],[-0.7112384],[-0.37022105],[1.4648577],[-4.73174399],[0.],[0.76539287],[-0.37855289],[-0.20766117],[-0.83966778],[0.27254479],[-2.33456206],[0.72855774],[-0.21622421],[-2.33157089],[-0.87373822],[-0.6040198],[-0.21172777],[-0.7474348],[-1.33176817],[-0.41713659],[0.],[-1.43794378],[-3.26494018],[1.14819362],[0.57175607],[-0.59695021],[0.3401043],[1.12062867],[0.79144041],[0.30630114],[-0.18853586],[-1.1693613],[0.72480579],[-1.70754742],[-0.42783498],[-0.86434584],[0.13967629],[0.25916553],[-0.2368206],[0.65700655],[0.27254479],[0.86284238],[0.],[0.44173616],[-0.88947613],[0.],[0.],[-0.27919216],[-0.36494564],[-0.35390686],[-1.21028447],[-0.53430389],[-1.06720772],[0.],[-0.16273098],[-0.3761395],[0.],[-1.90630275],[2.99137913],[0.8245701],[-0.86218277],[-2.48733288],[-1.45441023],[0.471083],[-2.13618343],[0.69917101],[0.],[0.],[0.12628259],[0.88789289],[-1.83888588],[-0.70555455],[-0.41750616],[0.],[0.94963877],[0.79066954],[1.25615457],[0.56547503],[0.],[0.51560446],[1.06805606],[-1.81417189],[0.],[0.99846492],[0.33805818],[-2.56719848],[-0.33757927],[-0.9345227],[-0.44389864],[0.59217204],[0.98483842],[0.33802431],[-0.19383048],[-0.59517232],[-1.00577534],[0.52427263],[3.12486915],[0.39761676],[-3.35980472],[-0.91767759],[1.50460335],[1.56354664],[4.81349764],[-3.28773137],[-0.52519876],[-1.55812125],[2.23267602],[-0.67039753],[0.73439316],[-1.986882],[0.],[-1.64409944],[3.85072687],[0.],[0.],[-1.51302567],[1.65232792],[-1.2924297],[-0.45748307],[-0.85655604],[-0.86059778],[-0.42750016],[1.58074241],[0.],[1.45266869],[-0.43037409],[0.],[0.],[0.30630114],[2.88083556],[2.4923737],[-0.14538251],[1.03291295],[0.7502936],[0.],[0.8631828],[0.22655921],[0.],[0.75890396],[-0.02957744],[-2.80454881],[0.],[-0.71123783],[-2.55751749],[0.51505125],[0.43450646],[1.44006488],[1.02423397],[-0.3643569],[-0.21291682],[-0.65810092],[-0.32005306],[0.],[3.21666306],[-1.70530146],[-3.21790634],[0.73581169],[0.27254479],[0.63721862],[0.60155456],[0.69270243],[-0.29875455],[2.37980374],[-1.02100331],[-0.3831591],[-0.88094097],[-2.3289275],[0.14711904],[1.23323674],[-0.80540887],[1.92932923],[1.63768538],[6.06460771],[-0.2037616],[-0.22057685],[0.11325284],[-0.21172777],[3.41188101],[0.],[1.19180852],[-1.14791091],[-0.76998807],[-0.64182811],[-0.16621294],[1.06603039],[-0.37941143],[0.28182471],[0.60198416],[2.05169044],[-0.25568855],[0.99648424],[-0.57840553],[0.98279406],[-0.45643857],[0.72380885],[0.51358802],[0.21143363],[-0.50761155],[-0.56590337],[-1.03349562],[0.70711331],[1.33286972],[0.30573278],[0.],[-0.38870106],[1.25897123],[-2.22322003],[0.],[0.],[0.41973642],[-0.31511789],[-0.28735927],[2.99123637],[1.26561982],[0.5266195],[0.61425975],[3.66185413],[-1.37837875],[-0.89236519],[1.38877923],[1.08706231],[4.384639],[-0.37288615],[-0.34354556],[0.],[0.],[0.45651549],[2.1664431],[8.11557577],[0.87984078],[0.72612249],[-0.93939671],[1.14080564],[-0.34608342],[0.37218795],[0.29789772],[0.69024873],[2.19331751],[-0.82955668],[1.09886336],[-0.28375795],[-0.67769388],[-0.73775908],[-0.25548215],[-0.3643569],[3.21037638],[-0.24053443],[0.33965313],[1.03995245],[-1.11156665],[-0.040659],[-1.10042769],[0.51256229],[-0.932815],[1.55525255],[-2.42390676],[-0.39534389],[-0.36515462],[1.07925656],[1.37801218],[1.2573506],[-2.55298781],[1.95348732],[1.25032528],[2.30138085],[-1.68765854],[2.50349113],[-3.3408137],[-4.45368038],[-0.86349247],[-0.01690279],[2.14832895],[-0.53083277],[-0.78609732],[4.02494071],[0.41057044],[-1.20602034],[3.40921529],[1.74425578],[0.32793782],[-1.14382109],[1.12017274],[4.26437965],[-0.6743583],[-0.90927429],[-0.01678962],[1.73036961],[-1.26310427],[1.9941389],[1.42278273],[-0.66659292],[-0.54812161],[3.83256131],[0.75098415],[-2.30801089],[0.61681327],[-0.59524653],[-2.58168864],[-0.6505637],[0.46806802],[-1.2298521],[-1.18889361],[0.83298765],[-0.24680267],[6.68231037],[0.71085487],[-0.38218997],[-1.30752332],[1.56046792],[2.21253805],[5.61292691],[-0.32609059],[0.85626536],[1.86005415],[-5.01515084],[-1.80647012],[1.17644311],[3.21945965],[1.22191147],[0.44538354],[-1.61094138],[-4.34964976],[0.],[-1.36587945],[-1.70905941],[-0.8758008],[2.68701575],[-0.17806076],[-1.6905586],[-1.75225773],[0.01000707],[-1.34544802],[0.98279406],[-0.06397168],[-1.39154504],[-0.10470296],[-0.48751409],[0.135986],[-6.46544765],[0.28419668],[-2.0574143],[-4.19761962],[0.9026437],[-1.34937862],[1.9963996],[-0.80766044],[2.02323131],[-0.25204189],[0.94894373],[-0.69137788],[0.],[-0.96387163],[-0.25406876],[0.16046152],[1.46978328],[-0.77391973],[0.73933025],[0.41764901],[0.75890396],[0.],[-0.9443749],[-0.81323819],[-1.20416954],[-1.12068648],[0.],[0.76497894],[0.],[0.5906646],[-0.50046533],[-1.21643463],[-1.84627232],[-1.61512673],[-0.23349814],[1.37833704],[-0.94669343],[0.36998241],[0.83425378],[-0.72596098],[-2.22437264],[-0.46316573],[0.34207016],[-1.0454315],[0.],[-0.35028831],[0.],[0.],[-0.74525475],[-0.71170825],[0.89375354],[-2.02316766],[-1.35340685],[0.96834489],[2.0188417],[0.51505125],[1.17828265],[0.82425534],[1.60526272],[4.87096815],[0.],[0.],[0.69736128],[0.],[3.03014078],[1.04617099],[1.70972904],[1.06763903],[0.93175868],[-0.4365892],[4.72457275],[-1.87106266],[0.],[-0.45643857],[-1.42359641],[0.78553509],[-0.41713659],[0.],[-1.48508309],[0.53990114],[1.29859804],[0.70711331],[0.],[-0.31779374],[0.43450646],[0.92212399],[0.60397849],[0.73581169],[0.80410453],[1.37415778],[-0.57286123],[0.],[1.64288736],[1.95012555],[-0.63066827],[0.34697652],[0.79219081],[0.],[-0.88094097],[0.985372],[-0.03910899],[1.91890686],[0.16051519],[-0.36507671],[0.],[-0.14538251],[-0.31361294],[0.2964759],[1.4922718],[-1.16335817],[1.5280536],[2.32207702],[2.67122268],[0.63477047],[-1.16711353],[2.20405106],[0.23886607],[0.98027515],[-0.26072078],[0.6678393],[0.63464586],[0.79066954],[-0.21228838],[0.],[0.68559077],[0.],[-0.34304403],[-1.01183632],[-1.45397202],[-2.85305306],[-0.29456861],[0.],[-2.65653041],[-2.3811052],[9.30200164],[1.20352204],[0.],[-0.21668233],[-0.84637437],[0.69736128],[0.91445021],[1.84597441],[-0.14538251],[0.8245701],[1.32393185],[0.99527015],[-0.82757212],[0.76497894],[-0.63201565],[0.75890396],[0.],[-0.84241213],[1.12578819],[-1.80592298],[1.04617099],[-0.24260204],[-0.31227738],[14.07098469],[-1.66405457],[0.73173729],[-0.23036371],[0.],[-1.28238832],[0.],[0.51881942],[0.7586734],[-0.76780649],[0.],[-0.56348417],[0.40826565],[1.34489768],[0.72380885],[-0.3123246],[-0.82321045],[0.],[-1.10532444],[0.43865944],[0.],[-3.188751],[-0.98259711],[-1.63762199],[-2.26227901],[-1.81023391],[-1.1214541],[1.37905991],[-3.04346495],[2.51731072],[-2.28173947],[3.60920107],[1.69865277],[0.89951557],[-0.75784382],[-0.9832204],[2.13117321],[4.84726988],[1.72623171],[1.76967849],[0.39671801],[-4.61115285],[-2.25666202],[1.46913573],[0.82388537],[0.54038705],[1.34292317],[-2.97728825],[1.98569226],[0.86414069],[0.],[-1.92190334],[-0.05216869],[1.23948922],[-0.30827072],[-1.96295512],[1.60711453],[-0.27666888],[-0.50339281],[0.64848595],[0.1300293],[2.57593146],[-5.25579376],[-0.18105126],[1.52481299],[2.34425986],[3.79735285],[-0.34774438],[2.49885392],[-0.73753086],[2.93940167],[3.36089038],[-1.20398739],[1.22565947],[-0.49377584],[1.96751325],[-2.02865047],[-1.95334579],[0.24875247],[-1.63306442],[0.],[-0.79888932],[-3.22353174],[2.05075614],[0.11265947],[-1.6644621],[-5.00323617],[0.26154343],[-2.08509716],[-1.3054259],[-3.30938028],[1.88950584],[-2.42541414],[-0.38611581],[-1.01893345],[0.79290102],[0.],[2.49156178],[-1.11423683],[-0.73731564],[2.26130805],[-0.42659263],[0.],[-0.97579307],[0.67720173],[0.35935408],[-2.20659757],[0.80468533],[-2.12220903],[0.76054936],[-1.9475409],[-0.7611689],[0.],[-1.59455547],[1.21231501],[-2.20200452],[-0.51668589],[0.77899682],[-1.11845673],[-0.88147059],[1.1191894],[1.13599361],[3.97654024],[1.2784293],[2.29727681],[-0.18651002],[0.56361321],[1.10610923],[-1.39544321],[1.7561958],[-0.6283353],[0.55300032],[-3.51826329],[-1.58706683],[-0.47813329],[-1.7366984],[-0.45434933],[-1.00766474],[-0.38209053],[6.02483863],[-0.60753317],[1.44006488],[-0.47979582],[-1.26062999],[2.35375754],[0.89557571],[-0.45746807],[-2.71803606],[-2.78612618],[1.50256868],[0.86055581],[0.69159993],[2.35048279],[-1.88753551],[3.44559031],[-0.06454273],[0.12781201],[0.68520691],[3.84034097],[0.44188188],[-2.04367749],[-1.08142178],[-1.18154919],[-0.87332998],[0.],[-1.20771608],[-0.88094097],[1.32711578],[5.09318834],[0.25458273],[-0.91287713],[1.42589698],[0.],[0.],[-0.92531118],[-0.47170734],[-0.34774438],[0.29660829],[2.99777496],[4.42254855],[1.08706231],[0.44507437],[-0.58912026],[0.63382966],[-0.3643569],[0.48017979],[1.85991498],[-3.64200807],[0.],[-1.0977535],[1.26965126],[0.6735014],[0.35925669],[-1.73989264],[0.33996416],[0.51358802],[0.80479965],[-0.86462837],[0.7694994],[0.39812287],[0.63156923],[0.63965033],[-1.64796691],[0.22143522],[0.39897718],[2.86729366],[0.39275142],[-0.69523662],[-0.41692939],[0.],[-0.26241615],[0.61120787],[2.27100064],[2.90960841],[-1.42532672],[-1.57167392],[-1.65863159],[-0.39597597],[-0.51671554],[1.65547457],[0.9236424],[-1.4591251],[-0.92795874],[-0.35599586],[0.63156923],[0.61672233],[-0.26711749],[1.80915028],[0.86334104],[3.48643309],[0.22655921],[0.76291915],[0.76291915],[1.13187563],[0.8026272],[-0.29571049],[-0.3643569],[-1.50504137],[-1.53251745],[-2.71593355],[-3.09984142],[0.72664107],[-0.3124195],[-3.31662909],[0.40910217],[0.32656176],[-1.5705673],[0.05688735],[-0.67051099],[2.29638724],[-0.93991635],[0.01180771],[0.],[-0.63764148],[0.27368527],[-1.0260077],[0.35458823],[-1.75011318],[0.69270243],[0.51492705],[1.31452564],[-1.63175807],[-0.72049923],[-0.57388295],[-0.14538251],[-0.39597597],[-0.33561949],[-1.83705316],[0.28997482],[-0.42217787],[0.],[0.2964759],[-2.01109449],[-0.54741749],[0.76497894],[-0.29514129],[-1.3324834],[1.04617099],[0.61048818],[-0.20766117],[-0.99023087],[1.13935529],[-1.99441262],[1.2060884],[-0.26711749],[-3.05077015],[-0.35229701],[1.60526272],[0.],[-0.83118963],[0.],[1.37049888],[-1.4404107],[1.65397226],[0.39355856],[1.85723341],[-0.20766117],[0.3339666],[-0.82096193],[-0.57388295],[-0.19300585],[-0.39530539],[0.02728683],[-0.9903539],[-0.36943754],[-0.37623325],[0.72380885],[0.8909133],[0.33996416],[1.37805934],[2.05963282],[1.84079094],[0.],[-0.18416757],[1.31819377],[-2.29523877],[2.18973073],[1.38617319],[6.34030747],[1.21114906],[-0.06850676],[0.],[1.13406611],[-1.24240997],[1.4618729],[-1.18497084],[1.01214284],[-0.62844554],[-1.62958428],[1.50128591],[2.01952214],[-0.32464764],[0.32899147],[1.20655891],[-0.11655581],[0.26017732],[-0.89737109],[0.42002737],[-2.46005976],[-0.77749556],[-2.04244844],[-1.702684],[0.31250856],[0.57175607],[-1.26106095],[-0.85070004],[1.15592838],[0.],[-0.31638685],[-0.29623297],[-0.72049923],[-0.73828357],[-0.73828357],[0.73581169],[-1.79271804],[-0.07958034],[0.67460856],[3.45332662],[-0.0698046],[0.64487831],[0.1170976],[-2.87130893],[-2.47950078],[0.59900397],[-0.64168778],[0.40900533],[-1.59650114],[-1.08316746],[-0.15184757],[0.],[-0.71982272],[-0.519515],[-1.2688551],[-1.55379418],[1.2888604],[-0.70482842],[-0.11045956],[2.18589338],[-0.34783948],[-2.29523877],[-2.91513957],[0.69902023],[9.6263381],[6.70561252],[2.56569816],[-0.27440175],[-0.53472212],[1.59645759],[0.],[-2.90264127],[-1.1970892],[0.33668068],[0.69736128],[-1.65323879],[0.04054021],[-0.5609712],[-0.09341684],[-0.39142884],[-1.01807937],[-0.42145374],[0.79104292],[-0.40227606],[1.62081745],[0.32569452],[-2.15473513],[-0.11333013],[0.],[0.],[0.],[2.92942655],[-0.26861456],[0.26985655],[-0.99309117],[-1.46037907],[-0.80951005],[0.],[1.42974283],[-1.47143236],[-1.0051016],[-3.92564106],[0.89335303],[-0.37022105],[1.0072477],[1.15441865],[2.01566733],[0.96834489],[-0.4010199],[-0.88707277],[1.3655914],[-0.79032286],[-2.8426655],[-0.19314324],[0.],[-0.39597597],[-0.97353186],[-1.1831897],[-1.2688551],[0.],[0.41764901],[2.04478726],[1.54495548],[1.03424851],[0.],[2.19557663],[-0.42326908],[-0.70050374],[5.41971521],[2.29217806],[0.67300993],[-0.40582147],[0.77662073],[0.99658529],[-1.04633015],[-1.49559462],[0.28467194],[-0.56348417],[0.29590415],[-1.73013742],[-0.22173654],[-0.43455574],[0.40910217],[-0.21622421],[-2.19344828],[-0.28811318],[0.],[-2.06724132],[-0.99838069],[-1.5622509],[-0.72981883],[-0.35873003],[-1.43541405],[-0.35269268],[0.],[0.],[-0.6101403],[-0.50484488],[-0.8059198],[-4.09244786],[-0.95903084],[0.],[1.20352204],[-1.15848669],[-0.58518417],[0.],[1.31407326],[-0.56024162],[-0.67344713],[0.],[-0.58231815],[0.91960964],[1.36615412],[-0.77749556],[1.96456591],[0.23817711],[0.80974572],[-0.66763434],[0.51505125],[0.34697652],[-0.31495316],[-1.36351895],[-0.60891258],[-0.40758796],[-1.65863159],[2.36945832],[-1.00982371],[0.],[-1.01329844],[-0.26861456],[0.91144877],[-1.00385795],[-0.34142524],[-0.29514129],[0.2154637],[0.],[0.],[2.24328454],[-0.96731856],[2.79898696],[-0.29450724],[-0.64808554],[-0.65034573],[0.58151817],[-1.20335174],[0.34207016],[0.],[0.],[-1.76448291],[0.28467194],[0.3520294],[0.44264434],[-0.51226805],[-0.85231154],[0.48221784],[-0.44758745],[-0.3021527],[-0.4086708],[0.59743744],[-1.73155077],[4.29229364],[-0.86961818],[-2.31597266],[-1.94690881],[0.],[1.11969618],[0.],[1.49936681],[-0.39508869],[-0.64216234],[0.92857494],[0.95443082],[0.],[-0.33684802],[0.],[1.64837476],[1.81566117],[-1.42532672],[0.42523914],[0.27826722],[-0.18170912],[0.57523901],[-0.41995584],[-0.53524446],[0.72380885],[2.46952706],[-1.25834633],[-0.79986564],[0.],[-0.42012335],[1.39499173],[0.02230531],[-0.57200611],[-0.38707731],[-0.77749556],[0.],[2.09628551],[-0.92683325],[-1.22941914],[-0.11019443],[0.37368264],[-1.20680506],[0.28182471],[1.39953231],[0.85428945],[0.98316173],[2.35477227],[0.],[0.],[0.75710891],[0.57523901],[-1.08142178],[-1.14774633],[2.72835719],[1.73139748],[-0.42076189],[0.57333356],[-0.50484488],[0.61267821],[-0.28415188],[0.54375778],[-0.23036371],[-0.75814624],[-0.70252005],[-0.73830115],[0.],[-1.04902299],[0.87450891],[-0.12492995],[1.27607082],[0.44507437],[0.91906148],[-0.56024162],[0.],[2.33841522],[3.20654874],[0.43762155],[-0.41221958],[-0.46493607],[0.],[-0.40735425],[0.22655921],[0.],[-0.80498529],[0.],[1.01214284],[-0.45671791],[-1.30031482],[2.40173568],[0.83497624],[2.72659803],[0.7570339],[1.13109341],[-0.40758796],[0.],[-0.3227665],[-1.43376956],[0.27709178],[2.10189413],[3.63817141],[0.],[-0.11019443],[-0.78956369],[-1.66975015],[-0.44663217],[-0.30317374],[-1.2924297],[-0.25479367],[-1.30138624],[0.44188188],[0.78553509],[0.03958236],[-3.00437325],[0.29400047],[0.37530998],[2.99966546],[-1.82827907],[-0.9345227],[8.78172439],[-0.35209515],[0.59958208],[-0.86251259],[0.],[1.59265143],[-4.92302304],[0.33996416],[-1.77279088],[-2.34068753],[-0.07678696],[1.48152735],[-1.14907722],[-1.78215478],[-0.39095062],[-3.89188622],[1.67845255],[-0.69549476],[-0.40436887],[-0.57598902],[1.42974283],[-0.3227665],[0.],[1.09009132],[1.00272218],[-10.97327851],[-0.51300679],[1.60814357],[0.21189808],[-0.6649458],[-0.38365873],[-5.65566965],[-0.70212792],[1.08706231],[0.02833003],[-0.18399099],[1.11501497],[-1.72269161],[1.65963148],[0.71303245],[0.71303245],[1.31125679],[1.49487529],[1.40252446],[-0.19383101],[0.70711331],[0.63001766],[-0.80845653],[0.],[1.36046672],[-0.95903084],[0.84682192],[-0.29106228],[0.74167006],[-0.40964816],[2.24481524],[-1.10463998],[-0.47170734],[-0.55170484],[-0.50046533],[2.60074149],[-0.92261733],[-1.82055124],[-0.4416963],[0.],[-0.21228838],[-2.130962],[0.65070018],[-4.43564968],[-0.14538251],[0.5239824],[0.22655921],[-0.48656898],[0.77784768],[0.],[0.],[-1.49928534],[1.01618807],[-1.55254313],[1.05069061],[-1.69841032],[0.],[-0.20766117],[-4.42472915],[0.43450646],[1.25618625],[0.21497558],[-0.64808554],[-1.63299351],[-1.41394806],[0.],[0.],[0.],[0.],[-2.29523877],[0.65889541],[-2.70451573],[3.40425352],[-2.85888512],[2.68926139],[0.33380662],[0.85357187],[0.75430146],[-0.50046533],[-0.67049306],[-0.72049923],[-0.9410464],[1.37455994],[0.99361711],[0.29300867],[0.],[0.33965313],[-0.28449942],[-0.87494527],[0.],[0.39761676],[0.69902023],[-1.39318692],[1.25861656],[0.],[0.4890949],[0.],[-0.76244674],[0.],[-2.18484719],[-2.24565964],[0.69079937],[-0.78499852],[-1.20059166],[0.8557105],[-0.85655604],[1.53611581],[0.92029555],[0.22428407],[-2.90144791],[-0.5586839],[-0.41995584],[-0.77749556],[-0.08873514],[-0.14538251],[0.92391063],[1.41474877],[2.2195127],[1.83437014],[0.],[-0.99218357],[0.3520294],[1.55705846],[-0.11445215],[-0.6005448],[1.46267081],[0.66643486],[-1.32858217],[3.21043343],[0.74673463],[-1.23963888],[0.42002737],[-0.41249397],[-2.21763798],[1.21463568],[-1.1969256],[-0.88947613],[0.68600461],[-0.97586184],[0.91276451],[2.97714045],[0.22655921],[-0.43254955],[-1.66261306],[-1.00499608],[2.7381018],[0.72612249],[-0.43254955],[0.],[0.],[0.],[0.99472969],[1.87921757],[0.33517264],[-0.39653523],[-0.6210895],[-0.91688417],[1.31203119],[1.16935441],[-1.94442607],[0.73581169],[0.04877595],[0.18819151],[1.99792053],[-1.77048207],[-0.10967105],[0.41360024],[-0.08013633],[-0.78748982],[0.],[0.],[0.6713147],[-1.48033646],[1.02126313],[0.],[-0.84183308],[-1.1970892],[0.],[-0.34528728],[0.03225167],[-2.83085839],[0.],[1.52953308],[0.2154637],[0.80466487],[0.],[0.80479965],[-0.67928692],[0.],[0.],[0.],[0.],[1.88920356],[-0.41934289],[0.65700655],[0.],[2.03567717],[-1.39867868],[1.8866113],[0.],[4.21774338],[1.03372613],[0.],[4.48202695],[2.20504202],[1.07994494],[-0.70130027],[-0.74869481],[0.64450067],[-0.56663891],[0.],[-1.00546433],[-1.24343297],[0.],[-0.29106228],[0.],[1.64009758],[0.],[-0.35221682],[0.],[0.37996752],[0.33095835],[0.],[0.2964759],[-1.38583955],[0.],[1.68239598],[3.92101291],[-0.33868387],[0.68600461],[1.18862219],[0.92391063],[-2.32492221],[0.33889135],[-4.05351162],[-0.78025547],[-0.79603895],[-0.90957095],[0.],[0.],[0.],[0.],[0.],[-2.11651273],[0.27254479],[1.20352204],[-2.01087459],[-0.50957329],[-7.73177419],[1.14332218],[0.12700282],[-1.13391435],[-1.72494237],[0.98316173],[-0.37022105],[-0.40306266],[-0.91189959],[0.],[1.89566246],[-2.24773754],[-1.46140196],[-0.91096782],[-0.44619537],[0.],[-0.5296523],[3.74325874],[-1.43043285],[0.57333356],[1.81214892],[0.91965019],[-0.70804915],[-1.46033065],[5.22964849],[1.30384485],[0.63584463],[-1.14825312],[1.91982761],[0.],[-4.99653279],[-3.62900294],[-1.83558725],[0.2154637],[3.78968025],[-0.25406876],[0.],[1.07070108],[1.87921757],[0.46638816],[1.32240754],[-1.52275957],[0.44457352],[-2.87087907],[1.47650752],[0.94894373],[0.],[-1.07513186],[0.72135869],[-0.52135845],[-7.8513098],[-2.52484184],[0.],[0.95079665],[0.],[-0.43386153],[0.57904806],[0.],[-0.7562751],[1.5220995],[2.79394181],[0.33668068],[0.73218894],[1.28927265],[1.03546005],[-0.44158247],[-2.98668845],[1.77743698],[0.7586734],[-0.30541407],[-0.18060177],[-0.55769025],[-0.38311107],[-2.24773754],[-0.2368206],[0.],[-0.41681326],[1.20279678],[1.12649825],[1.79077203],[0.24096577],[-1.33139983],[0.93325356],[-0.2621862],[0.74304518],[2.50531753],[-2.04428632],[-0.50484488],[-0.21291682],[2.68031437],[-2.10690444],[0.2154637],[-0.21228838],[0.],[-0.18651002],[0.24313748],[-0.20122376],[1.0569747],[-0.88310258],[-1.34858195],[-1.73530781],[-0.50299514],[2.27885486],[1.84358477],[1.34489768],[-0.16718073],[3.0935938],[1.42052063],[-0.70102178],[0.],[-1.34601657],[-0.88310258],[-0.46493607],[-0.21494579],[1.65397226],[-0.44623296],[-3.82055709],[-0.30693076],[0.92572969],[-0.64760052],[-0.76711448],[-1.66888584],[2.09890992],[-0.29238326],[-0.3356207],[-0.39191151],[-0.4074275],[0.87984078],[1.19770428],[0.49227237],[-1.02788752],[0.],[-0.25204189],[-0.52669883],[0.],[-0.58079628],[0.71816241],[-0.3108619],[3.123467],[3.75629374],[-0.75028157],[0.31246766],[0.63156923],[-0.38912071],[3.9364985],[-0.49433319],[0.34065861],[2.64261641],[0.29790906],[0.57900155],[2.64428417],[0.23837812],[0.56987794],[0.],[-0.46863673],[0.57706039],[0.],[0.],[-0.21291682],[1.04664636],[1.48424913],[-0.14538251],[0.39068739],[0.67476258],[0.69902023],[-0.82757212],[-1.51649051],[-0.34783948],[-0.7478962],[-0.61235211],[-0.23063976],[0.],[-0.46794271],[0.],[-0.4365892],[-0.39653523],[1.16935441],[-0.85912446],[-1.14354935],[-0.92857429],[1.30747636],[2.24883076],[-0.04321942],[1.32203309],[0.],[0.69917101],[-1.06275444],[-2.94393068],[-0.85839513],[0.60390467],[-0.30238153],[0.3520294],[0.],[-0.78774123],[1.25497922],[0.],[1.25761974],[-0.42956939],[3.32723455],[-1.42532672],[0.69236127],[-0.95573684],[1.31422399],[0.97624802],[0.21359707],[-0.37022105],[0.6820877],[0.2154637],[1.01573186],[-1.63466468],[0.56015632],[0.33996416],[0.40910217],[-0.21668233],[-0.32453521],[0.],[0.61120787],[-0.73828357],[4.34277767],[1.0937373],[-0.87510623],[-1.74510434],[-1.76057716],[0.],[0.46676774],[-2.9871903],[0.19299359],[-5.55295075],[-0.26145478],[-0.31948076],[-0.17432653],[0.63464586],[-0.43254955],[0.],[2.32953627],[1.37951987],[-1.03908411],[1.62426325],[-1.77220234],[-0.69523662],[-0.41692939],[1.1063297],[0.],[0.90622699],[-0.10004565],[1.40161608],[-0.04035797],[-0.13841855],[-0.81734269],[3.94436152],[-0.18642499],[0.25467809],[-2.99294235],[0.53773408],[1.97775577],[0.88031749],[0.],[1.29654574],[-0.27550081],[-2.22167461],[-0.99461975],[0.],[-2.72671413],[1.11445176],[-1.29867021],[1.63231086],[-0.40758796],[-0.43880449],[-0.98246488],[2.25577678],[6.45316874],[0.],[2.7445195],[0.60438651],[-1.03773582],[0.28802522],[-0.28415188],[-0.7482626],[-0.65810092],[1.53860599],[0.],[0.27254479],[-0.35390686],[-1.51917742],[-0.32464764],[-0.93992374],[-1.58309835],[1.10355992],[-1.84697679],[-0.7478962],[3.03230726],[-1.71796004],[-1.25593897],[0.],[0.],[-0.78499852],[-1.2283378],[0.91906148],[-0.46493607],[0.12481613],[-0.18892949],[1.91751731],[1.29654574],[-0.48031233],[0.],[0.],[0.81453853],[-1.24229226],[0.98666109],[-0.50392828],[0.],[-0.32374874],[0.27254479],[0.17790096],[-2.03637758],[3.22822034],[1.14903336],[1.03258283],[0.],[-0.82430188],[-0.84071438],[0.92948303],[0.93025328],[-1.15848669],[0.29660829],[0.41764901],[1.59898541],[-0.24234138],[0.87472527],[-1.23752154],[-1.14774633],[-0.11019443],[-0.55398722],[1.42051286],[-1.13592804],[-1.39867868],[-0.12291644],[-0.39597597],[1.09009132],[0.],[0.60390467],[0.89375354],[1.61074585],[-0.55387373],[2.10219052],[-1.15848669],[1.56347309],[-1.69728528],[-0.51108863],[-1.45575544],[-0.49448831],[-1.48475226],[-1.46434837],[1.2535032],[-0.37022105],[1.38774219],[1.12649825],[-2.82347828],[-1.05897553],[-3.74251165],[0.],[-2.7837042],[2.27404803],[-1.12015341],[0.35175473],[-1.40407308],[-0.39346433],[0.99472969],[-0.06850676],[-0.59369333],[0.],[0.],[0.],[0.],[0.],[-2.2164942],[0.],[0.4342903],[-3.40588069],[-1.83281037],[3.14299498],[-1.19387136],[1.43736216],[-0.61253058],[0.],[-0.12771959],[-0.18399099],[0.70711331],[-1.58552162],[-0.47954396],[0.51505125],[-0.21631082],[-0.4901063],[-0.41934289],[1.8100899],[-0.40982974],[0.88838256],[0.],[-0.8001936],[1.40838885],[-1.14774633],[-0.25204189],[-0.96387163],[-0.55320938],[4.0348677],[0.59958208],[3.9117714],[1.56701747],[-0.08505428],[-0.63961547],[-0.72876229],[2.29669682],[0.33996416],[-0.18853586],[-0.31667983],[0.71643318],[-1.1569366],[0.],[-0.51108863],[-0.51108863],[-0.9139438],[0.44188188],[-3.05013523],[0.],[2.74751966],[0.86797494],[-0.89882419],[-0.99709814],[-0.4777377],[0.71289447],[0.73218894],[2.61432392],[-0.12492995],[-0.83535732],[-0.21668233],[0.],[-0.48717824],[-0.6162544],[-1.29164604],[-1.8137446],[0.],[0.70711331],[-0.21742076],[0.],[0.],[-0.51168787],[0.],[-2.84030107],[0.69893557],[1.55889455],[0.],[-0.57598902],[-0.37126493],[0.],[0.],[-0.26072078],[1.12062867],[-0.39814471],[0.73581169],[-0.79346897],[0.81385025],[-0.14538251],[0.],[1.76602047],[0.],[2.49031341],[-1.08327433],[-0.45748307],[-0.32453521],[0.5013905],[0.45614111],[-1.56446057],[0.97448521],[0.],[0.73581169],[0.67148809],[3.98581439],[-1.88299447],[-1.38565672],[0.36044678],[-1.66190771],[-0.18764237],[-0.8059198],[-1.47627199],[-1.55115541],[2.77282239],[0.72707881],[0.2154637],[0.49539329],[0.73218894],[-0.31667983],[-0.84000106],[-0.43840753],[1.06805606],[0.87984078],[0.88208368],[0.99527015],[1.51062864],[0.87984078],[0.],[0.36495693],[0.62038333],[5.41971521],[2.14046193],[-0.39653523],[-0.73828357],[0.88645753],[0.34697652],[-1.29260089],[0.40826565],[-0.23893751],[2.4923737],[1.06262631],[-0.6927826],[0.],[1.31407326],[2.16908605],[0.33996416],[1.39804962],[-0.07782736],[0.],[0.],[0.],[-0.05757106],[-0.46511667],[-0.52611566],[-1.47138123],[-0.46493607],[1.03372613],[0.04729975],[0.],[1.48197914],[-1.51024935],[2.02420897],[1.66509053],[-0.66877552],[-1.63222294],[2.96023397],[-0.60738364],[-0.37343831],[0.74304518],[-0.7426314],[3.80002589],[2.05963282],[0.66861369],[-1.25896511],[0.74530244],[-1.15426116],[-0.55814523],[0.60198416],[1.45881267],[-1.02788752],[-1.37906035],[1.08657747],[-1.03510481],[0.28467194],[-0.64808554],[-0.51526138],[0.],[1.55233407],[-0.15675093],[-1.25266433],[0.],[0.],[0.18707536],[-0.84446718],[-0.98076156],[-0.4471113],[-1.65448892],[-1.82945664],[-0.55168896],[1.76295235],[1.71759526],[-1.47491913],[-0.88707277],[4.74818006],[0.79144041],[-0.09341684],[-0.89284764],[-0.73830115],[1.4971367],[0.79104292],[-0.21668233],[-0.22988637],[-3.56780931],[-2.21104594],[0.37226941],[0.75106581],[2.46228722],[0.18198189],[-1.03773582],[0.],[1.50568494],[0.92594913],[-0.67344713],[-0.81344913],[-1.64773428],[-0.30600771],[0.61120787],[0.34276347],[0.74530244],[1.51121467],[0.32895357],[2.32842897],[0.29660829],[0.],[-0.32134578],[-0.79445355],[-0.34142524],[-0.18853586],[0.],[0.],[0.],[1.10785105],[-0.4027106],[2.86959418],[-0.54252645],[-1.77032359],[-0.18170912],[2.37019575],[-1.66049283],[-2.33697616],[-0.94380186],[1.69155797],[-0.36798198],[2.01312525],[-0.69299737],[-0.88310258],[0.94105588],[-2.71238164],[-1.96208657],[-0.69891609],[1.60760327],[0.45651549],[-1.74877553],[-1.49882137],[1.20716572],[1.21890122],[0.62943418],[0.81399041],[3.09913439],[-0.57369368],[-0.40982974],[-1.55212672],[-0.57369368],[-0.25136172],[1.40350378],[2.01300285],[-0.71170825],[1.42219048],[-1.1426839],[0.2964759],[-0.38199142],[2.17382289],[-0.92352213],[-0.67344713],[-0.43608289],[0.45614111],[1.16371371],[0.],[-1.52440552],[-1.41326636],[0.2964759],[0.36011759],[-0.43254955],[0.0314249],[-0.17323134],[2.40799144],[0.],[-0.69672251],[1.05722613],[-0.25548215],[0.],[2.1137559],[-0.63764148],[0.],[0.],[-0.75814624],[1.34489768],[0.2154637],[-0.64808554],[1.87921757],[-1.28442815],[0.83497624],[1.30633333],[0.8245701],[1.34489768],[-2.0337647],[-5.18055682],[-0.64637745],[-0.77749556],[0.67777828],[0.7827343],[-0.87510623],[0.95037655],[0.71562058],[-0.52135845],[-1.64214575],[-0.32875326],[-1.24229226],[-0.08406738],[0.63156923],[0.48462532],[-1.13335228],[-0.24438324],[0.],[0.4342903],[0.],[3.53647642],[-1.93332075],[-0.56423288],[-0.60618079],[0.7271472],[-0.2017651],[3.02960407],[-1.63299351],[0.37226941],[-0.12903565],[-2.41191001],[0.],[1.39193007],[0.83807803],[2.84331478],[-0.58079628],[0.44135585],[0.60390467],[-0.22823297],[-0.61414063],[1.06958312],[1.33331155],[0.22831553],[1.50950084],[-0.24234138],[-0.42518078],[1.18574957],[0.99320322],[0.57926412],[-1.19681469],[2.37019575],[0.],[0.],[-1.06440993],[-0.24224753],[0.33517264],[-4.54705186],[-0.02042887],[1.20716572],[0.95940117],[3.44429589],[0.04431826],[0.56568839],[4.34891319],[-0.6700341],[0.],[1.05462628],[0.36508501],[-0.43880449],[1.1960833],[0.6713147],[0.],[-0.85226401],[-1.67056267],[0.3520294],[0.22143522],[-0.50586745],[1.09886336],[-1.1988276],[0.84104868],[-0.12464251],[-1.4591251],[0.39274303],[-0.26172653],[-1.18205626],[-1.2908984],[-0.83917161],[-1.84717222],[-0.4365892],[0.57523901],[0.],[0.],[-0.54709254],[0.33996416],[-0.29392245],[0.3390583],[0.76539287],[1.00772165],[0.44135585],[1.56464005],[0.],[0.68227366],[0.],[-0.28034992],[-1.24106454],[0.61120787],[-0.43281399],[0.29400047],[-1.40482521],[-0.34807918],[-1.81406168],[-0.65810092],[-1.06772222],[0.51952814],[-0.75964014],[-0.18225322],[-0.74881652],[0.44188188],[0.48462532],[-0.81958327],[-0.52669883],[-1.25593897],[-3.14237277],[-4.64042006],[-2.19312037],[-1.30107511],[2.85931801],[-0.80498529],[0.02265812],[-0.37011257],[-2.23263868],[-1.43273948],[-0.28700995],[0.95037655],[-1.7434373],[-0.5011294],[0.],[-0.21172777],[0.56970401],[0.94894373],[-1.30291705],[-1.39867868],[0.],[0.53748042],[0.40910217],[-0.67638377],[-1.76464131],[-1.31399416],[0.87058754],[0.51505125],[0.33996416],[0.],[1.47295671],[-1.24229226],[-3.97927488],[-0.38410342],[0.78553509],[-0.85698607],[-0.3643569],[-0.80123586],[-0.13692101],[-1.05664213],[-0.62566313],[-0.61253058],[1.79077203],[-0.47546231],[0.61313211],[-0.11804834],[-1.02204438],[-2.24322875],[-0.67175337],[1.01562443],[-0.37022105],[0.80067624],[0.],[0.31840986],[0.80702923],[-0.9402375],[-0.29514129],[-1.01309553],[-0.92724632],[-0.99709814],[-0.64211805],[-0.38604254],[-1.08507469],[-0.23036371],[1.15370258],[1.11026878],[0.60057258],[4.33212685],[0.3339666],[0.83497624],[-0.43608289],[0.44268049],[0.],[1.92439238],[-7.27093349],[-0.11019443],[4.55359819],[0.87092],[0.20957163],[0.43450646],[0.60305352],[-0.58231815],[0.05212576],[0.59958208],[2.32953627],[0.31840986],[2.66524413],[0.],[-1.3512691],[0.],[-0.30911026],[-0.37053506],[-5.56823755],[-0.58851681],[-2.68879549],[-0.99658366],[0.44135585],[0.],[0.],[-0.43254955],[0.34505584],[0.],[0.63156923],[0.65283289],[-0.82091665],[0.],[-0.54191001],[0.],[0.],[0.],[0.],[3.39911669],[2.96514669],[0.83807803],[2.38396831],[-0.86434584],[-2.20049586],[-1.48193596],[0.84104868],[-1.47737856],[0.44507437],[-0.9388516],[-2.16000421],[0.42321916],[-0.19383101],[-0.65977846],[2.38396831],[0.],[0.63270775],[1.02313267],[-0.41932348],[0.20673337],[1.21361208],[-0.32428712],[1.12062867],[0.44135585],[-2.46004349],[1.81487923],[0.22655921],[-1.5705673],[1.69485086],[-0.82056568],[-0.30238153],[0.88792438],[-0.4426617],[-0.18764237],[-0.55712318],[0.89335303],[1.26965126],[-0.95782898],[-1.40399889],[0.],[0.],[-0.43254955],[-1.21158897],[0.34207016],[0.],[0.1048882],[1.1552747],[2.0031045],[-0.4465809],[0.13867762],[0.78553509],[-2.77803077],[-2.37439066],[-0.22916071],[0.],[0.],[-0.48623458],[1.06603039],[0.73439316],[0.],[0.],[0.25869798],[-0.1528796],[-1.89015634],[-1.46296624],[0.],[-0.18629031],[0.],[0.61120787],[-0.76115601],[-0.38139871],[0.88208368],[-0.21291682],[0.79387433],[0.92594913],[0.57523901],[-0.76711448],[-0.85226401],[0.63965033],[-0.67344713],[-0.14538251],[-0.22781996],[-0.74638785],[1.52765185],[-2.58494862],[0.5013905],[-0.21228838],[1.31407326],[-0.54016307],[0.],[-0.31948076],[-1.10628196],[0.63156923],[0.],[-0.8059198],[1.47710042],[-5.02211146],[-2.02377314],[1.77309878],[0.72380885],[-1.00385795],[-1.10052172],[0.60591332],[-0.54692908],[3.44672485],[1.44157791],[-0.7428074],[-1.16134669],[-1.06501885],[2.11114295],[-0.50392828],[1.67315203],[0.72380885],[0.],[1.83580584],[-0.34922654],[0.10771955],[-1.31399416],[1.22494708],[-5.30507177],[-0.25568855],[-1.11157686],[-0.73957717],[2.31096268],[-0.35254483],[-0.88602859],[0.10705926],[-0.97743007],[-1.11477295],[3.8263868],[-0.84081326],[0.],[0.75655319],[-0.11807564],[-0.36052093],[-1.76144086],[-1.86514678],[0.69287936],[0.22655921],[0.96407212],[2.93017616],[1.88078348],[-0.25014118],[-1.23752154],[0.39790196],[0.37502853],[-0.44363459],[1.83715729],[1.63083273],[0.94119173],[1.87199417],[-0.16924236],[0.83497624],[-0.7959455],[0.59613978],[-0.42145374],[-0.16333354],[-0.31779374],[-0.28157436],[0.96141805],[-0.41620239],[-0.33072728],[-1.14907722],[-0.97518276],[0.],[0.37226941],[0.60057258],[-1.85553817],[0.05150566],[0.87344235],[2.50552066],[0.3457638],[-2.36492942],[-0.56157181],[-1.36169425],[1.19775774],[-1.03730743],[1.19668926],[0.],[-0.93277581],[0.88579636],[1.5280536],[-0.42039601],[1.07418881],[0.41273063],[-0.66731239],[0.80460555],[0.93140523],[-0.51786542],[-1.00267793],[-0.25204189],[0.],[1.88617481],[-0.35269268],[-0.3643569],[0.87873187],[-1.06755689],[0.38780491],[0.2817434],[1.12578819],[0.33517264],[-1.79409945],[-0.7966889],[0.76405063],[1.23960738],[0.71098623],[0.3594571],[1.51597314],[0.],[-0.38590548],[0.],[-3.50408773],[-0.38912071],[-1.07195476],[-1.01624516],[0.],[-0.5374728],[-0.50202565],[-0.79320229],[0.71303245],[-2.19176322],[-1.40072102],[0.53990114],[0.],[0.3339666],[-0.91560514],[1.07418881],[0.77878511],[-0.52135845],[-0.15604229],[0.27254479],[-0.37288615],[-0.63961547],[0.35047493],[0.],[0.71816241],[0.84652386],[0.85357187],[-0.46283283],[-0.55170484],[0.29781176],[1.11515644],[1.03291295],[0.53630416],[-2.10608259],[0.88792438],[0.33668068],[2.40173568],[0.94777765],[-0.30740418],[-0.46316573],[2.19240867],[0.43848115],[-0.79454785],[0.],[-1.00385795],[-1.87069758],[0.91886846],[0.],[0.74664649],[-0.51295361],[0.],[1.85991498],[1.17635901],[-0.11804834],[-2.26240862],[3.59500398],[0.],[0.04472248],[0.96620126],[-0.12492995],[0.56083163],[-0.60635623],[0.60438651],[-1.23709388],[-0.76021132],[0.70711331],[0.22143522],[0.],[0.],[-0.2876424],[-0.5194325],[0.76054936],[-1.83659317],[0.18369897],[0.12390649],[2.58176046],[0.34621425],[-0.46178658],[1.11426898],[-0.29106228],[0.68326123],[0.7457025],[2.73430931],[0.],[-1.02100331],[-1.98581667],[-0.21172777],[-3.16589369],[-0.61492605],[-2.7083066],[-1.46314495],[-0.86799298],[-1.4591251],[-2.08491559],[0.],[-0.52667323],[-1.86253724],[0.15158718],[-2.72719457],[0.3771082],[-1.78807823],[0.63965033],[-0.3643569],[-0.39230768],[-0.84183308],[0.95487243],[-2.09471805],[0.71098623],[-1.25406193],[1.32503633],[1.57749728],[0.8044267],[0.33965313],[-1.23752154],[0.87666704],[-0.39653523],[-0.3227665],[1.36061858],[0.33517264],[-3.85509359],[-0.79595695],[-2.39746932],[-1.46037907],[-0.76809207],[-0.74329497],[-1.05496525],[1.31407326],[2.47853436],[-0.21899645],[-1.42659346],[-0.7502249],[0.8191559],[-0.55320938],[-2.77378697],[2.34212795],[0.80437142],[-0.40982974],[-0.80104763],[-0.63961547],[1.14389116],[-1.63629975],[-2.40821923],[-0.99838069],[-1.1970892],[0.],[-0.46506579],[0.59068884],[-2.90029464],[-3.97408852],[-0.90231715],[-0.36943754],[-1.35340952],[-0.31948076],[0.92426809],[-0.70252005],[-1.41956873],[-0.97610964],[-0.30317374],[0.],[1.78387427],[0.79144041],[-0.61514521],[-1.01770851],[1.00090886],[-1.17441057],[-0.34528728],[0.61219929],[0.51779163],[-0.43083746],[0.61219929],[0.71303245],[0.04451272],[0.80466487],[1.08578438],[0.61222219],[0.07552726],[1.0705377],[0.80466487],[1.08477227],[-3.90967654],[0.58679093],[0.70711331],[1.26351146],[0.63826257],[-0.26824243],[4.42999317],[-1.00125719],[-0.00529606],[-0.72049923],[-1.48205333],[1.25861656],[-0.95413009],[-1.03908411],[-0.11807564],[0.],[0.44135585],[0.79470965],[-0.45139985],[0.3339666],[0.87984078],[0.],[0.51358802],[-0.92475531],[-0.31516645],[0.],[-1.42498024],[-1.44730438],[0.],[0.],[-0.98372757],[-0.11019443],[0.],[0.32899147],[0.],[0.],[0.],[0.22143522],[0.74304518],[0.],[0.49668464],[0.60678812],[-1.08081736],[1.83842357],[0.34207016],[1.00272218],[1.55705846],[0.],[-0.29576958],[-0.21622421],[0.21166998],[-0.16829777],[0.76539287],[1.04617099],[0.81453853],[0.53990114],[-0.96731856],[0.],[0.],[0.34697652],[0.],[2.88078678],[-0.67039753],[1.5280536],[0.],[0.],[-0.35306426],[2.10817555],[0.74167006],[0.49539329],[0.63965033],[0.],[2.58945565],[1.31407326],[-0.71982272],[0.28182471],[-2.75036002],[-1.46792906],[-2.33950027],[0.],[-0.41421298],[-0.21172777],[0.34065861],[-0.64182811],[-0.57840553],[-0.54635663],[-0.99519086],[0.],[-0.8338874],[-3.40217421],[-1.63067038],[-1.92601761],[-0.1565567],[-0.50392828],[-2.31315298],[1.46654196],[-0.10013536],[0.50710524],[0.],[-0.61486744],[2.27352889],[1.69036285],[-1.57384017],[1.76185243],[-1.05442564],[-0.60994702],[0.49136411],[-0.41750616],[-1.70263772],[-0.49188989],[-5.05328272],[0.],[-0.46178658],[-0.72459329],[-4.70845123],[-0.14130232],[-0.88947613],[-0.53197937],[3.10251707],[-1.73794072],[-0.58353746],[-1.04196678],[0.],[-0.32453521],[1.10826366],[1.80150582],[1.02423397],[-0.65977846],[-1.13748696],[-0.30238153],[0.97654808],[1.10521159],[-0.84899343],[0.56987794],[-3.69972058],[-3.47696436],[-0.81927457],[0.81636199],[0.33965313],[-1.86180612],[0.70711331],[0.62943418],[-0.92917548],[1.08504855],[-0.93898397],[-1.7585532],[-1.00697678],[0.],[0.65872012],[0.83807803],[-2.40029265],[0.],[6.06645115],[-1.99064452],[-1.10301362],[-1.07990325],[0.15642581],[0.16198516],[-1.73015185],[0.],[0.29447908],[0.76916431],[0.73597517],[0.25866764],[-2.65255706],[0.12116257],[-1.48961777],[-2.31679322],[-0.87738934],[1.81260201],[-0.77749556],[0.99628404],[1.09886336],[0.51970824],[1.67538115],[0.82611857],[-1.38952127],[1.45881267],[-2.67795402],[-0.38707731],[-0.74329497],[0.],[-0.25736442],[0.59958208],[1.93706163],[-0.29238326],[1.28785251],[4.7485522],[0.56970401],[0.33996416],[0.81416682],[2.3676257],[-0.44363459],[-0.50484488],[-0.88619648],[0.],[-1.16497857],[3.00768903],[-0.76711448],[-0.75814624],[-2.81280053],[-1.33139983],[-1.67144707],[2.97158371],[-0.35450287],[-0.96450658],[2.61961762],[-1.67272193],[3.59220714],[-0.61448349],[-1.07990325],[-0.27400616],[-0.37028881],[-0.31511789],[2.57408752],[1.36288291],[0.18891906],[-0.4027106],[7.693485],[2.00505274],[1.22015452],[0.],[-0.3643569],[0.61672233],[-0.90796412],[-1.58915552],[1.08647802],[-3.82854362],[1.20970984],[0.],[-0.77146879],[2.72685402],[8.66965592],[2.2520396],[0.33850782],[-0.4822266],[-0.39694415],[-3.32313784],[-7.53365639],[1.20085655],[-2.61264787],[4.20294956],[0.89335303],[-1.64228809],[-3.79053078],[-2.65652019],[-0.2368206],[0.76539287],[-0.98956904],[0.23473213],[0.],[-0.19383101],[1.9017604],[0.67777828],[0.4881144],[-0.86052797],[-3.1303047],[-0.290211],[-0.56348417],[0.],[-0.56293426],[-0.73264293],[-1.71463768],[-3.5992031],[5.87497514],[-1.59556483],[0.],[0.],[-0.38220301],[-0.10240087],[4.20580998],[1.44554133],[-0.13660817],[0.93175868],[0.16133719],[-1.67401661],[-0.99838069],[-2.72017541],[-0.12291644],[0.],[-0.91496613],[0.],[-0.3643569],[0.99648424],[-2.65041291],[-0.81734269],[-1.12208742]
