[4.2207499],[0.18153981],[-0.20365274],[-0.20505457],[-0.74730368],[1.06718092],[-0.33498977],[-0.01252403],[0.75414976],[-0.16190307],[-0.36272373],[-0.46146092],[-0.39945941],[0.22910094],[0.29582115],[0.42651609],[-0.0819422],[-0.34879732],[1.05173475],[0.92256539],[-0.92661165],[-0.67034389],[0.01623452],[-0.20254364],[-0.48742554],[0.12063506],[0.74013745],[0.46828507],[-0.73048278],[1.5115544],[0.49343146],[0.11429424],[0.58079321],[2.51734885],[0.68386189],[0.29374953],[1.95779002],[0.13579411],[0.83300944],[0.80634448],[0.50243212],[-0.7216373],[-0.19640486],[0.38531034],[0.88096591],[0.67469886],[0.39297075],[-0.39044409],[0.25358436],[0.16076638],[0.11945615],[-0.60767432],[0.49067302],[0.8501381],[1.00917222],[0.13201133],[0.49054563],[-0.15037526],[1.1570262],[2.16538463],[0.90926685],[-0.19454491],[0.],[0.17792215],[0.21902243],[0.5498436],[0.82380493],[0.44623087],[2.15601075],[3.95446812],[-0.35274713],[-0.02737274],[1.24826115],[1.10337551],[-1.64908385],[-1.26884633],[0.10091662],[-1.44780038],[-0.42166701],[-0.41960129],[-0.27390237],[0.51322399],[0.05472834],[-0.73287054],[-0.39280778],[-0.47515376],[0.62321812],[0.96704223],[0.],[1.08183647],[0.93038252],[-0.80762095],[-1.04733885],[-0.84353163],[-0.02330081],[1.96532143],[0.66948276],[0.3239804],[-0.79800945],[1.36207601],[-0.91065304],[-0.61105081],[-0.00152485],[-0.37624497],[-0.31382837],[0.],[0.46785555],[-3.08377652],[-0.4682263],[-0.22209033],[-0.69611372],[-0.59595648],[-0.28936506],[-0.18905142],[-0.24507522],[-0.07099625],[-0.1076549],[-0.30083759],[0.69575603],[0.88142326],[0.52463796],[-0.15887274],[0.02587652],[-1.16246863],[-2.51263099],[-0.25264231],[-1.07103881],[3.29054198],[-3.49197886],[-0.74996253],[-0.18412785],[-3.63167049],[0.53208431],[0.],[-7.54633209],[-0.80798538],[-0.28717312],[-0.0207941],[-0.87320822],[0.05729604],[-0.52922535],[1.20833056],[-0.08680685],[0.],[0.18611336],[0.020769],[-0.89359413],[-0.55830605],[-0.09645164],[-0.39955639],[0.81086793],[-0.81070107],[-0.25920806],[-1.97175166],[-0.70524967],[0.22654224],[0.18720831],[4.23735604],[0.39170094],[-0.33756027],[0.08800953],[1.05369355],[-0.30074505],[0.08270907],[-0.69420068],[-0.33177751],[-1.34643417],[-0.28876225],[1.27151306],[-0.12780668],[0.60608597],[2.08348354],[-0.90018593],[-0.1109454],[-0.49241908],[0.50900776],[6.2365393],[1.24047478],[-0.72207975],[-0.89518169],[-0.82837414],[-1.30834363],[-0.16917744],[0.16788099],[-0.20839711],[-1.5508923],[-0.27425555],[-0.7694752],[1.05030938],[-1.17676179],[-1.71302078],[-1.14070014],[0.15534972],[0.1614242],[0.7448302],[2.20900741],[0.39073473],[0.07168463],[0.13768983],[-0.62471114],[-0.71178586],[-0.99074945],[2.78966959],[-0.86615235],[-0.49732008],[-0.49074065],[0.],[-0.21603841],[-0.02740086],[-0.38358843],[0.07075963],[0.],[-0.88237307],[-0.31743473],[-0.36465947],[-1.13887363],[0.1278811],[0.],[0.48776191],[1.5777293],[3.50040359],[-0.96694682],[0.22378997],[-0.96617604],[0.01837247],[-0.22956361],[-0.59829099],[-0.41310938],[-0.66691321],[-0.2882571],[0.03299731],[0.31330325],[-0.22345577],[-0.00945236],[-0.25999812],[-0.4562926],[-1.04204936],[-0.53153676],[-0.85534146],[-0.23433284],[0.22324756],[0.],[-0.6457424],[-0.69249977],[-0.40691827],[-0.7296711],[-1.55688324],[0.17876827],[-0.64068396],[0.25015721],[-0.17361468],[-0.52024832],[0.19310237],[-1.37910257],[-0.26229255],[1.13660028],[-0.18669222],[-1.50702268],[-0.55100016],[1.45493075],[-0.5472434],[-0.62644892],[0.06976332],[-0.74585698],[0.94382231],[0.61617302],[1.04476808],[1.76194283],[-0.1792812],[2.88178832],[1.16094205],[0.0575202],[-0.72943102],[1.84381857],[0.60482349],[0.00927603],[0.07436212],[-0.5571951],[0.20064907],[-0.05179961],[-0.32909454],[-0.65367262],[-0.52434818],[0.54344584],[2.52621463],[-0.19791675],[-0.56681142],[0.28353081],[-0.46447102],[-0.55800806],[0.10915345],[-0.79770268],[0.71946713],[0.48336597],[-2.51335499],[-0.70417947],[-0.55980961],[-0.64632002],[1.96316001],[0.2189039],[-0.24199049],[-0.48785258],[0.],[0.4063087],[-0.16712247],[-0.3813918],[-1.44517169],[1.24572221],[1.45844948],[-0.6869283],[-1.20877493],[-0.32353487],[0.26120891],[-0.19670589],[0.53029464],[0.62484555],[2.08175924],[1.87118372],[-0.85189887],[0.12157284],[0.06865091],[1.41226705],[-0.09087976],[2.49636624],[-0.83900119],[1.02208703],[-0.80633373],[-0.66110446],[-0.0935879],[-0.32918907],[0.083035],[-0.49665369],[-0.02960053],[0.32173448],[-0.91016504],[-0.16163955],[0.13982801],[1.12330006],[2.81478332],[1.23415023],[-0.85057219],[0.09888363],[0.05779118],[0.],[-0.66448692],[0.18505331],[-0.88559241],[-1.22903448],[0.57577747],[0.69232648],[0.46434588],[-0.67776767],[1.04468718],[0.10210879],[0.13123175],[0.08668346],[0.42976148],[0.48472177],[-0.72223076],[-0.10601527],[-0.29142342],[-0.02065526],[0.10611421],[0.12507866],[0.04696265],[-0.23061543],[-0.6438621],[1.11796931],[0.44893774],[0.1256666],[-0.58890855],[1.18612494],[-0.45636768],[-0.12045419],[3.31614288],[0.53254273],[-0.41753417],[-0.0800316],[-0.45206653],[-0.62720686],[-1.21210688],[0.37776445],[-1.69007014],[-1.00682946],[-0.23261887],[-0.89458124],[0.4091486],[0.68103903],[-0.80990062],[-0.44138061],[-0.43879489],[-0.20104014],[-0.31472358],[-2.68784113],[0.73763646],[-0.23229524],[0.],[-0.02706857],[0.30756451],[0.70729048],[0.29625042],[1.34178003],[0.],[0.54801406],[1.31530898],[0.03395061],[-0.89116957],[-0.3946013],[0.],[-0.8869145],[0.],[0.83754109],[1.62696752],[0.31565423],[-0.34819762],[-1.03886424],[0.72247087],[1.27181645],[0.23351352],[0.44724731],[0.16085206],[-0.01319779],[0.13784674],[-0.24104961],[1.10966624],[-0.14334236],[-0.20809009],[-0.21555742],[0.62669454],[0.96561008],[0.],[0.52874951],[0.],[0.],[-0.42381683],[-0.02351453],[-0.80875829],[2.83252144],[0.],[0.31656364],[0.43112344],[0.],[0.55300732],[-0.47113028],[-1.42871717],[-1.073353],[1.11375051],[0.23976626],[0.68866211],[-0.35179186],[-0.14813434],[-1.15882202],[0.58689854],[0.18253216],[0.],[0.],[0.83137421],[1.9156057],[1.09769428],[0.42363856],[-1.13956579],[0.19868382],[-3.18677716],[0.],[0.24506762],[0.0640836],[-2.04959698],[-0.29822605],[-0.21064863],[-0.28182807],[-0.26576836],[-1.07413781],[-0.694947],[0.36831121],[0.19767668],[0.55723926],[-0.86487947],[-1.17938616],[-0.24605331],[-4.63582794],[-2.8930917],[-2.74370265],[-0.31722925],[0.14228286],[-0.28987521],[0.63165516],[-1.03733886],[-1.06375878],[-0.70092639],[-0.65834071],[-1.07866861],[-0.63629034],[0.78828445],[0.00591543],[0.01087933],[-0.93391094],[0.46737127],[0.66117699],[-0.26922385],[-0.12812263],[-2.5383573],[0.13324634],[-0.48075319],[-2.69224061],[0.84399813],[-1.15687239],[-0.26067482],[-0.42352473],[-0.65817407],[-1.53104171],[-0.28936506],[0.13595545],[-0.51233608],[0.38195672],[-0.90188436],[0.19882309],[0.03087902],[-0.19786426],[-0.51825312],[0.],[-0.19155636],[-0.6171668],[0.95203315],[-0.42074389],[-1.14531147],[-0.62477963],[0.182951],[-0.97948088],[0.],[0.11836036],[0.44972218],[-0.57813672],[0.47041929],[-0.79054352],[0.6399917],[-1.34750782],[-0.25695166],[0.25930628],[0.28799144],[-0.23109553],[0.22125994],[1.2964169],[-0.83837366],[0.10479494],[0.60099432],[-0.11450998],[3.98204397],[-1.82939745],[-0.30585165],[-0.88482526],[-0.8010233],[-0.5104095],[1.50327097],[0.],[-0.71369025],[0.04975239],[0.28191941],[0.74859811],[0.76759169],[-0.23037527],[0.],[0.28580032],[0.48355058],[-0.47760646],[-1.30256646],[-1.11157037],[0.57034067],[0.53233636],[-1.14446936],[0.37507673],[-0.22856886],[2.07414019],[-0.12677043],[-0.99645279],[-0.06827525],[-0.38860909],[1.12162107],[0.84853477],[3.33942171],[-0.22503784],[0.06305449],[1.81446753],[0.53864581],[-0.53892996],[-0.35305289],[-0.11792797],[-0.29037205],[1.07481653],[0.61003396],[0.69338426],[-0.6240092],[0.58472056],[0.08568329],[0.67433717],[-1.98084267],[0.25338262],[-0.89003588],[1.92589871],[0.22142416],[1.55430842],[-0.73217938],[0.59112101],[2.18676424],[7.42022157],[-0.51111799],[0.43648736],[0.02901628],[0.23559287],[0.7844546],[-0.40461719],[-0.19479014],[-0.33942462],[0.02562621],[0.65807984],[-1.39005925],[-0.20481015],[-0.21958587],[0.54448898],[-0.0114932],[0.56804203],[-1.01034779],[0.94943846],[0.58791724],[0.81810613],[-0.19629404],[1.2612048],[-1.4292207],[-2.06838053],[-0.1701101],[0.01848844],[0.9304022],[-0.21627947],[-0.27425555],[2.02120719],[0.07278511],[-0.74226199],[1.59764586],[1.06494289],[1.80803513],[-0.30901001],[0.63214927],[1.35163469],[-0.2235116],[-0.55115707],[-0.03535982],[0.88723895],[-0.58854813],[0.65771282],[0.84194698],[-0.29525074],[-0.57114581],[1.64511859],[0.51385813],[-0.72506788],[0.14452505],[-0.15534715],[-1.0444312],[-0.88406874],[0.1854069],[-0.38745192],[-0.36020875],[0.25932037],[-0.15393174],[5.27490067],[1.31221068],[-0.39307241],[-0.46945949],[1.16216596],[0.82073687],[3.55312934],[-0.18354973],[0.26190165],[0.9250398],[-3.07783391],[-0.76240358],[0.68064752],[2.2839771],[0.35955546],[0.11522867],[-0.90430539],[-1.77721757],[0.],[-0.41682789],[-0.91440831],[-0.51866196],[0.90885773],[-0.08898325],[-0.83890647],[-0.79193749],[0.0848185],[-0.59490502],[0.61003396],[-0.06927481],[-0.39556696],[-0.08400747],[-0.10332662],[-0.05474695],[-4.05408731],[0.112136],[-0.83899197],[-1.19029791],[0.51709198],[-0.65372196],[1.08236512],[-0.12145905],[0.91156214],[-0.37855579],[0.39119008],[0.48971625],[-0.41813319],[0.51408401],[0.23605771],[-1.037468],[-0.73514032],[-0.11296326],[0.46120775],[-0.49153335],[-0.01623149],[-0.22557809],[-0.84326493],[-0.56591683],[-0.16373661],[-0.03798101],[-0.77662327],[-0.60564327],[1.33586934],[0.64430678],[3.4761174],[0.90541065],[0.79235484],[3.07738876],[-0.83041974],[-0.84521921],[0.],[-0.64858685],[0.72528809],[0.35983759],[0.33214741],[0.46212975],[-0.32613215],[0.],[0.80673272],[0.999794],[0.70373852],[-0.85096121],[1.49437491],[-0.60788368],[0.24260851],[0.19396967],[-0.46090459],[0.96267392],[0.89678449],[0.52779317],[-0.65799709],[0.72055237],[0.0658238],[0.53862084],[-0.61369148],[-0.09169308],[-0.60380915],[-1.89951069],[-0.16743605],[-1.08710995],[-0.86105322],[8.67438525],[0.27932394],[-0.07294815],[0.14189031],[-0.05753641],[-0.21309596],[12.35064477],[0.35923195],[-0.5821713],[0.],[-0.42474534],[0.],[-0.50743773],[0.07553158],[-1.00371277],[-0.46124233],[-0.21619478],[-0.7635166],[-2.01474649],[-0.42740616],[0.22184049],[-1.65802594],[1.14997501],[-0.69533679],[1.3628495],[0.73346542],[0.46526906],[-0.37904273],[-0.46157025],[0.51961922],[2.89496251],[0.55110393],[3.17482226],[0.2642268],[-2.14895977],[-0.87398402],[0.63113789],[0.26513095],[0.91209044],[0.37801744],[-0.85461571],[3.01643838],[0.19058561],[0.],[-1.26011005],[-0.04110265],[0.47505078],[-0.21479689],[-0.80386433],[0.75420598],[-0.16529107],[-0.23241127],[0.40282146],[0.15560958],[1.53087138],[-2.82246927],[-0.069203],[0.4091486],[1.97159714],[1.59388555],[-0.01491255],[1.18495245],[0.02039018],[2.54076587],[1.63920971],[-0.48001387],[1.00761878],[-0.52074614],[0.91378344],[-0.97193712],[-0.83286123],[0.041769],[-0.6216028],[0.],[-0.4083704],[-1.16061491],[0.96002427],[-0.018372],[-0.37763113],[-3.2470063],[0.18649863],[-0.82160633],[-1.02510416],[-1.62275111],[0.50631185],[-2.11900711],[0.2516046],[-0.76365292],[0.19680289],[0.],[1.02595391],[-0.49972504],[-0.53191952],[0.88840948],[0.01592775],[0.],[-0.5531105],[0.48359591],[0.1986645],[-1.48645914],[0.36987395],[-0.75142568],[0.34746396],[-0.60528983],[-0.48605941],[0.],[-0.64060287],[1.07437653],[-0.64840363],[-0.52347555],[0.29172002],[-0.58743449],[0.13553196],[0.37269712],[0.71577439],[2.38710953],[0.01487662],[1.20693326],[-0.1213705],[0.09742655],[0.69215181],[-0.36747129],[0.8364777],[-0.10776563],[0.29543746],[-0.93721631],[-0.57884036],[-0.25985286],[-0.77996751],[-0.12301436],[-0.51557334],[-0.24415405],[3.14420544],[-0.13872536],[0.57034067],[-0.2605095],[-0.56962374],[0.70552105],[0.51729055],[0.3495242],[-0.70190046],[-0.17499647],[2.10840435],[0.41054984],[0.29575892],[2.0525988],[-0.81321706],[1.90448852],[-0.06083541],[0.17359704],[0.32350816],[1.61266422],[0.76937008],[3.09454187],[0.21308927],[-0.31705737],[0.95901759],[-0.48944256],[-0.01491255],[1.1925928],[1.79624665],[-0.29612301],[0.19866831],[0.09015181],[-2.54241937],[-1.06902463],[-0.33456632],[0.09222714],[-0.59223863],[0.24107064],[1.52969404],[0.1523168],[-0.14044587],[1.19505426],[-0.80120717],[-0.54880925],[-0.81443821],[0.66562827],[-0.05668937],[0.36544952],[0.28394043],[1.05469477],[-0.81113838],[-0.95681632],[-1.72211632],[-1.05796823],[0.36136443],[-0.14563601],[-1.26204665],[0.139934],[0.64397753],[-0.45034557],[-0.03848083],[-0.34925093],[0.2536438],[-0.48965686],[0.32822828],[-0.7195096],[-0.9607808],[-0.74893924],[-0.16869181],[-0.68473181],[1.02194333],[-0.56157934],[0.5833494],[-1.19425489],[-0.31472358],[0.67425142],[-0.023209],[0.63719827],[-0.25440578],[-0.04980408],[-0.02976874],[-0.30909806],[-0.10061846],[0.82171088],[0.84299197],[-0.22464552],[0.56596394],[0.78046483],[0.30038427],[3.32567436],[0.48418537],[-0.61443105],[-0.19400047],[-0.80063058],[0.58960015],[-0.15219589],[-0.40581382],[-0.95234484],[-1.21683043],[-0.8350262],[0.15855994],[-0.44035073],[-0.1716577],[0.50826135],[-0.22628493],[-0.0025737],[0.48749367],[1.93008677],[0.08979127],[0.10511605],[0.10136107],[-0.4575367],[-1.20695808],[0.1440124],[0.02603349],[-0.35274713],[-0.85526723],[0.82691557],[-0.3505643],[0.04064046],[-1.35191488],[7.17557177],[3.2028633],[1.07514313],[-0.25219082],[0.79274518],[-1.23107192],[-0.54871925],[0.30057931],[-0.66535271],[0.61120929],[0.1362808],[-0.77080399],[0.26569297],[0.10764325],[-0.51699498],[-0.38240218],[-0.5551167],[-2.02428918],[0.86699031],[0.36682898],[0.53519567],[-0.22824667],[0.61633537],[-0.40974624],[-1.16213384],[-0.10090596],[0.64126525],[0.88668082],[1.03855488],[0.],[0.90236673],[-0.27564521],[0.93083163],[0.46184063],[0.573888],[-0.56959022],[-0.73804182],[0.05535267],[-0.65734085],[-0.17123612],[-0.18045144],[-1.38143554],[-0.2152305],[0.],[-1.0457956],[-0.41970748],[-0.58809362],[-0.68391173],[-1.94108406],[0.],[0.57624066],[1.0835959],[0.38217251],[-0.27627436],[0.07128047],[-0.21731862],[-0.54880925],[-0.59490036],[0.53035936],[0.],[0.59610557],[1.12880307],[-0.35656275],[0.31710195],[-0.56942924],[-0.96145484],[0.14224966],[0.2866821],[-1.73912754],[1.1733899],[-0.29667167],[-0.8953252],[0.51596169],[0.],[0.77768026],[0.50719974],[0.66084493],[0.],[0.],[0.50913719],[0.46623384],[-2.00967693],[-0.25437165],[-0.67360896],[0.50413062],[0.46718125],[-0.02919219],[1.08112557],[0.12285513],[-0.43328548],[-0.1482455],[0.41507791],[0.44713183],[1.981757],[1.27424779],[-0.45020683],[-0.26023146],[-0.44255028],[0.50133107],[1.09209646],[1.29100881],[0.36075021],[-0.04081353],[-0.19142311],[-0.24608001],[-0.40591648],[0.89723904],[0.26194981],[-0.49344205],[0.12366931],[0.73504588],[1.02098843],[-0.38977187],[-0.74745976],[-0.15794856],[-0.55216881],[0.1102364],[-1.30789921],[1.54068573],[-1.02851779],[5.48817652],[-0.23655793],[-3.50137839],[-0.70489925],[0.02044003],[0.71283769],[-0.48688973],[-0.07642536],[-2.00486099],[-0.36299209],[-9.76884863],[-0.24058883],[0.02417216],[0.07772483],[-3.4116232],[-0.37142894],[-0.35655021],[0.64285963],[-0.55459539],[0.12397956],[0.63671524],[0.78381459],[0.21032603],[-0.53373753],[0.57125393],[0.24498464],[-0.3296051],[2.16345144],[-1.59505279],[1.13831945],[-0.66466187],[-0.56136992],[-0.7840995],[-1.79072003],[0.37665854],[-0.25967571],[-0.87457979],[0.78356583],[-0.6364471],[-3.22354023],[0.67365181],[0.13999276],[0.37816948],[-2.03844644],[1.16424647],[-1.77879874],[0.35926397],[0.23974109],[0.40616013],[-0.45935892],[0.89100234],[0.10587302],[0.19291592],[-0.54426933],[-0.20632686],[-0.50722865],[0.12694284],[0.],[0.],[-0.71670615],[-0.59020974],[0.54002888],[-0.46972645],[0.53609256],[-1.39491638],[-0.07244428],[1.53339404],[0.87206668],[-0.44755999],[-0.31805887],[0.93534509],[-0.42030626],[0.57090152],[-0.94315692],[-0.38989528],[0.50582014],[0.63774253],[-0.20274481],[-0.22274724],[-0.51414092],[0.53154484],[0.43469236],[-0.05518499],[0.31150858],[0.74362031],[-0.59432699],[-0.2467326],[-0.10234581],[-0.43005265],[-0.78127901],[0.],[0.06401495],[-1.27885868],[0.88526915],[1.17206011],[1.6914495],[0.],[2.47373778],[1.70032971],[0.68162018],[-0.31376017],[-0.27506259],[0.330341],[-0.67643536],[0.],[-0.18792902],[0.],[0.8537052],[0.],[-0.22202033],[0.],[-0.02087425],[0.23424609],[0.],[0.23952193],[-0.71739348],[0.],[2.76379058],[1.77229322],[-0.18027647],[0.49563205],[0.63346084],[0.3105851],[-1.04037594],[0.19732483],[-2.98732847],[-0.11782017],[-0.37017861],[-0.26421394],[0.],[0.],[0.],[0.],[0.],[-0.62346442],[0.21181199],[0.48838495],[-0.86889039],[-0.20954448],[-4.90220832],[0.32656318],[-0.00552007],[-0.76264489],[-0.28196206],[0.30781359],[-0.21495492],[-0.2060564],[-0.3176071],[0.],[1.1413735],[-0.46727853],[-0.78134225],[-0.29471492],[-0.27288398],[0.],[0.64512714],[2.07854655],[-0.7660514],[0.37454343],[1.1223689],[0.32022564],[-0.42888318],[-0.75467573],[3.15061426],[0.56932627],[0.34967164],[-0.49825495],[0.67775621],[0.],[-2.81295225],[-1.46146095],[-0.66886682],[0.15854798],[1.71200419],[-0.11166141],[0.],[0.38762807],[0.55528529],[0.18186018],[0.54412767],[-0.66486824],[0.21992279],[-1.07444536],[0.69886173],[0.35983592],[0.],[-0.47591773],[0.34057657],[-0.22829693],[-4.92050161],[-1.56087737],[0.],[0.54583502],[0.],[-0.25903518],[0.44617564],[0.],[-0.2737037],[0.50288358],[1.50342406],[0.27097091],[0.24453042],[0.5374553],[0.50475903],[-0.26788867],[-1.32401506],[1.10921594],[0.31612618],[-0.20753897],[-0.13091551],[-0.22779642],[-0.17907909],[-0.46727853],[-0.15494289],[0.],[-0.19669852],[0.44539856],[0.379206],[0.46977419],[0.11794551],[-0.39329923],[0.42299159],[-0.2082516],[0.31627394],[-0.81987377],[-0.77660328],[-0.2818478],[-0.13162324],[0.79741823],[-0.84058555],[0.15854798],[-0.13555854],[0.],[-0.1213705],[0.14838047],[-0.17983886],[0.37665575],[-0.29216529],[-0.39122503],[-0.87655561],[-0.31434047],[0.49207763],[0.998145],[0.33768735],[0.03380004],[3.91591279],[1.37364989],[-0.25370695],[0.],[-0.69299865],[-0.29216529],[-0.29320618],[-0.15446398],[0.68575998],[-0.2345071],[-1.65694955],[-0.85132533],[0.0115972],[-0.40411756],[-0.24759297],[-0.65151681],[0.68647413],[-0.18988274],[-0.22180663],[0.01815475],[-0.24139379],[0.4114468],[1.71480973],[0.19558507],[-0.32691383],[0.],[-0.14899243],[-0.24113972],[0.],[-0.2508385],[0.3259417],[-0.17227889],[0.69470872],[1.06023842],[-0.3440215],[0.23917825],[0.23559722],[-0.2250741],[0.63784698],[-0.12864973],[0.22904008],[0.48143907],[0.21676592],[0.16797448],[0.75017669],[0.08662425],[0.30412626],[0.],[-0.20936422],[0.17513312],[0.],[0.],[-0.13162324],[0.85878676],[0.43702074],[-0.10187046],[0.22055977],[0.54769986],[0.45422562],[-0.28872539],[-0.50759437],[-0.22904428],[-0.37033253],[-0.31181625],[-0.33440744],[0.],[-0.19046912],[0.],[-0.22451665],[-0.20676726],[0.59624959],[-0.3065077],[-0.48178506],[0.548511],[0.59577404],[0.74171605],[0.00037273],[0.39940958],[0.],[0.43084864],[-0.52136589],[-1.41061246],[-0.4755889],[0.30876786],[-0.17310118],[0.24532967],[0.],[-0.28714094],[0.72784668],[0.],[0.61629944],[-0.2625851],[1.06425544],[-0.43280426],[0.18022104],[-0.51109769],[0.71910301],[0.35018642],[-0.0179014],[-0.21495492],[0.33039177],[0.15854798],[0.37165273],[-0.88387082],[0.11070389],[0.19704163],[0.21204377],[-0.16185781],[-0.22612966],[0.],[0.28325107],[-0.24361585],[1.81933789],[0.74029028],[-0.3167099],[-0.43667104],[-0.74110025],[0.],[0.58253526],[-1.4727302],[0.6929365],[-1.69197955],[-0.15827236],[-0.23785494],[-0.1491348],[0.38451764],[-0.24314984],[0.],[0.70757072],[0.4382968],[-0.29193358],[0.50429385],[-0.76126513],[-0.32291093],[-0.2135557],[0.57089965],[0.],[0.33137204],[-0.1618667],[0.3194315],[-0.30997698],[0.02714111],[-0.49243103],[1.01916399],[-0.12155546],[0.3670814],[-0.99163007],[0.35218614],[1.00899476],[0.38496365],[0.],[0.57915151],[-0.16123266],[-0.67769941],[-0.17581495],[0.],[-0.80958591],[0.50709399],[-0.62118444],[1.34212893],[-0.24475114],[-0.20707641],[-0.37446109],[1.12855607],[4.67484311],[0.],[0.97926607],[0.05062515],[-0.27275052],[0.70010822],[-0.7719085],[-0.69832241],[1.28232577],[0.],[0.11563248],[0.76866956],[0.01882653],[0.58973186],[0.06310781],[-0.93438516],[0.39869641],[0.36729825],[-0.40917158],[0.39838405],[0.37094334],[0.33510694],[-0.57702182],[0.41890461],[-0.4352407],[-0.86565795],[-0.50072242],[-1.34195489],[-1.96058383],[-1.08120229],[0.98731293],[-0.50967721],[-0.80080768],[-0.27825604],[-0.38717113],[-0.87900391],[-1.52557584],[2.26991386],[-0.0153413],[-0.26772265],[0.],[-0.37418599],[0.47889461],[1.39958955],[1.68469916],[0.90570829],[-0.35208759],[0.75332782],[-0.51248701],[-0.4475489],[-1.20094478],[1.0692603],[0.39969148],[-0.27108149],[0.24661914],[-0.26056135],[-0.43496048],[-0.52219853],[-0.99345029],[0.],[-0.17580344],[0.],[-0.32079959],[-1.31384545],[0.35676301],[1.00904594],[-0.25999812],[0.],[-0.60542388],[0.3997942],[0.92679394],[-0.52537003],[-0.7552442],[1.31890659],[1.23204183],[-0.89368389],[-0.8240516],[0.48164065],[-0.47348916],[-0.76128164],[1.23815788],[0.07620256],[-0.22626212],[0.67769445],[0.4114468],[0.],[0.32869731],[0.34302954],[1.17976649],[1.65976395],[-0.20676726],[-0.24361585],[0.49397202],[0.25810218],[-1.26920402],[0.23045336],[-0.13356321],[0.69950284],[0.61124945],[-0.30960705],[0.],[0.40118293],[0.90213665],[0.19704163],[0.48927346],[-0.07227657],[0.],[0.],[0.],[0.00913722],[-0.28365682],[-0.35245677],[-0.55963361],[-0.29320618],[0.53710497],[0.05225302],[0.],[0.85193037],[-0.34171673],[1.68247372],[1.28964001],[-0.29300189],[-0.81452132],[1.12976816],[-0.45958842],[-0.26029938],[0.31627394],[-0.5637384],[1.44174941],[0.52746331],[0.09914315],[-0.75842065],[0.35743535],[-0.61215273],[-0.13253336],[0.29458112],[0.46835898],[-0.32691383],[-0.39637987],[0.79889054],[-0.50132082],[0.25234755],[-0.27792423],[-0.37840542],[0.],[0.74487887],[0.00451047],[-0.66268553],[0.],[0.],[-0.06167689],[-0.50429377],[-0.62544309],[-0.23933454],[-2.26855416],[-0.50673114],[-0.23826742],[0.77008094],[0.65657643],[-0.47449715],[-0.38648985],[1.72997679],[0.33326566],[-0.07626647],[-0.19344465],[-0.33031428],[0.77504308],[0.40436495],[-0.16185781],[-0.17134394],[-1.1001711],[-0.88765263],[0.25863451],[0.41939669],[0.71659905],[0.06515779],[-0.42133949],[0.],[0.54952342],[0.51383948],[-0.28921174],[-0.32129613],[-0.57972098],[-0.15712291],[0.28325107],[0.28958781],[0.35743535],[0.58532353],[0.25179739],[0.81595395],[0.21043145],[0.],[-0.20030648],[-0.34800017],[-0.20807306],[-0.13508692],[0.],[0.],[0.],[0.7972071],[-0.25236317],[1.15683867],[-0.38007575],[-1.02960427],[-0.12771368],[0.75252685],[-0.39168042],[-1.0704823],[-0.29501338],[0.76461181],[-0.23095201],[0.71241485],[-0.35924121],[-0.29216529],[0.40715041],[-1.21080364],[-1.11481401],[-0.30852699],[0.37315131],[0.25349439],[-0.68698888],[-0.81095606],[0.36492402],[0.64735568],[0.2982692],[0.13540141],[1.40496585],[-0.18462776],[-0.22486689],[-0.4255837],[-0.18462776],[-0.12139565],[0.61849151],[0.71896087],[-0.2718257],[0.65435878],[-0.50615037],[0.23952193],[-0.21474671],[1.01703196],[-0.36436406],[-0.28921174],[-0.25854009],[0.28142269],[0.63935525],[0.],[-0.35058547],[-0.63057063],[0.23952193],[0.27899209],[-0.24314984],[-0.0338202],[0.09302979],[0.78657866],[0.],[-0.27821214],[0.62421004],[-0.18852346],[0.],[0.66519179],[-0.34221856],[0.],[0.],[-0.34857527],[0.33768735],[0.15854798],[-0.27792423],[0.55528529],[-0.43504387],[0.3375857],[0.76066884],[0.43041278],[0.33768735],[-0.62285184],[-3.05307484],[-0.26597615],[-0.40451175],[0.32406881],[0.58965418],[-0.3167099],[0.43100286],[0.3881778],[-0.22829693],[-0.67939919],[-0.22433899],[-0.47470396],[-0.04587824],[0.23559722],[0.29898053],[-0.53445661],[-0.14788302],[0.],[0.30372382],[0.],[1.31855102],[-0.36022256],[-0.3466986],[-0.35259888],[0.39266689],[-0.0899869],[1.75169884],[-0.50630802],[0.19290267],[-1.01717794],[0.],[0.47614582],[0.30961416],[1.32557807],[-0.2508385],[0.17809881],[0.30876786],[0.09354056],[-0.3406787],[0.08246786],[0.47685821],[0.07013804],[0.67009741],[-0.1294715],[-0.23442561],[0.60341244],[0.53955201],[0.29465772],[-0.7328006],[0.75252685],[0.],[0.],[-0.36086374],[-0.1598402],[0.22423431],[-0.66525825],[0.07809228],[0.36492402],[0.43631104],[2.87478683],[0.12527721],[0.3381307],[0.7615638],[-0.42828795],[0.],[0.40956317],[0.26220534],[-0.20707641],[0.69320508],[0.35809778],[0.],[-0.51051842],[-0.74202289],[0.24532967],[0.19128157],[-0.33719617],[0.42201883],[-0.18778925],[0.42151428],[-0.11088857],[-0.55041076],[0.0561378],[-0.20016295],[-0.50672236],[-0.62679077],[-0.29806859],[-0.75953051],[-0.22451665],[0.25539424],[0.],[0.],[-0.29040518],[0.19704163],[-0.20830366],[0.27265873],[0.34568487],[0.53855742],[0.17809881],[0.19880878],[0.],[0.25205479],[0.],[-0.16513751],[-0.88565049],[0.28325107],[-0.30166061],[0.26648085],[-0.69586164],[0.14293389],[-0.42760986],[-0.29738016],[-0.55142751],[0.0897282],[-0.44054133],[-0.08639024],[-0.33110004],[0.26675118],[0.29898053],[-0.68372232],[-0.24113972],[-0.5369752],[-1.63652586],[-0.91935708],[-0.81212381],[-0.38526305],[0.93077279],[-0.45343342],[-0.10985719],[-0.03502925],[-1.21698909],[-0.38805286],[-0.22741798],[0.43100286],[-0.64488894],[-0.17120555],[0.],[-0.12134122],[0.36731595],[0.35983592],[-0.38401242],[-0.44248179],[0.],[0.31749707],[0.21204377],[-0.36782232],[-0.75736992],[-0.4272553],[0.48539176],[0.23513843],[0.19704163],[0.],[0.78098006],[-0.47470396],[-1.06169842],[-0.2542812],[0.33623277],[-0.41418024],[-0.20708417],[-0.47718293],[-0.09197205],[-0.34854027],[-0.32277639],[-0.26909227],[0.46977419],[-0.57789758],[0.51201354],[-0.0939914],[0.10726478],[-0.83234394],[-0.23040165],[0.43458297],[-0.21495492],[0.3657963],[0.],[0.22504858],[0.29263239],[-0.36767022],[-0.17385023],[-0.43688574],[-0.32589715],[-0.41983512],[-0.2705031],[-0.20089284],[-0.24696461],[-0.14912138],[0.61024078],[0.43117188],[0.37351526],[0.8882673],[0.25502752],[0.3375857],[-0.25854009],[0.35086074],[0.],[0.50347492],[-3.5554268],[-0.0842541],[2.08879823],[0.32432259],[0.18930375],[0.23051339],[0.35553408],[-0.22840639],[-0.02272355],[0.36945517],[0.70757072],[0.22504858],[1.3593898],[0.],[-0.36775268],[0.],[-0.19645728],[-0.23465361],[-2.39241385],[-0.29966246],[-1.59705174],[-0.36692688],[0.17809881],[0.],[0.],[-0.24314984],[0.08761372],[0.],[0.23559722],[0.37715261],[-0.3607004],[0.],[-0.23584831],[0.],[0.],[0.],[0.],[1.51023692],[1.34793123],[0.30961416],[0.58636326],[-0.41203108],[-0.43952823],[-0.35547696],[0.42151428],[-0.58132415],[0.22921925],[-0.52403502],[-0.85115869],[0.34634068],[-0.11375927],[-0.31061902],[0.58636326],[0.],[0.29880796],[0.45386968],[-0.1743196],[0.24621973],[0.54676388],[-0.21612904],[0.50721872],[0.17809881],[-1.10848289],[0.70727664],[0.14265178],[-0.61076498],[0.40152941],[-0.55747929],[-0.17310118],[0.39988152],[-0.21112645],[-0.15446608],[-0.43426784],[0.27533452],[0.45565225],[-0.53340207],[-0.6436333],[0.],[0.],[-0.24314984],[-0.8904204],[0.25114465],[0.],[-0.06711833],[0.48283755],[0.93090982],[-0.27534221],[0.15849719],[-1.52001897],[-0.65518139],[0.],[-0.29100936],[-0.97004752],[-0.90821721],[-0.14725158],[-0.36956777],[-0.20059595],[0.06606351],[-0.01969782],[-0.64723072],[-0.13853831],[0.],[-0.46251694],[-4.32543649],[0.98520486],[-0.50388466],[-0.22601371],[1.7226847],[0.77357704],[-1.09414863],[-0.41586013],[-1.07316726],[0.82065514],[0.89728655],[-0.20892682],[0.0832896],[0.41426498],[-3.17076179],[-1.9334716],[1.75528945],[-0.56282069],[-0.32657699],[-0.13157361],[-0.69884449],[-0.39997985],[1.71127658],[-0.38997759],[-0.20544085],[-0.14979505],[0.32164943],[0.91344632],[1.41231383],[1.18848853],[0.00830484],[0.17533348],[0.76993713],[0.86806857],[1.18122637],[-0.1050905],[-0.44320656],[0.38745157],[0.10124172],[0.3929499],[-1.76223567],[0.08541968],[0.91619094],[-1.40556175],[-0.62048802],[0.65237417],[-0.26040416],[0.21896092],[-0.29184399],[0.36750222],[0.32470072],[-0.10824661],[0.85888572],[0.29362798],[0.2189039],[0.19988542],[-1.21107596],[-0.57439723],[0.43993902],[0.14090178],[0.43043296],[-1.33186584],[-0.034063],[-0.73040851],[0.],[-0.16848569],[0.04690445],[-0.75681211],[0.],[0.04843982],[-1.20864079],[0.45619457],[-0.20223493],[1.15122333],[-0.14564475],[0.],[-0.41098994],[0.62190082],[0.31617631],[-1.01689603],[1.57346087],[0.44204676],[-0.31240026],[-0.49527161],[0.35490788],[0.],[0.],[-0.20448369],[-0.28730222],[0.34746396],[-0.58156353],[-0.09083856],[0.09631466],[1.66424629],[0.19496512],[-0.22196851],[0.62068647],[-0.18792902],[0.74534426],[0.37585002],[1.20371175],[0.],[-0.40059993],[-0.74386721],[-0.12134122],[-0.71971437],[-0.19372596],[-0.88621221],[-0.57450046],[-0.49580767],[-0.55041076],[-0.76773898],[0.],[-0.21202541],[-0.85888271],[0.1448276],[-0.99028916],[0.26999926],[-0.37309848],[0.26892216],[-0.20708417],[-0.2540618],[-0.37311772],[0.51409896],[-0.55969048],[0.34455629],[-0.40354917],[0.74652566],[0.78601381],[0.32365547],[0.18637128],[-0.46822714],[0.57718975],[-0.20676726],[-0.17639393],[0.6410861],[0.22423431],[-1.61976258],[-0.33403101],[-0.90075034],[-0.63565136],[-0.25478557],[-0.34488705],[-0.33974316],[0.40118293],[0.62550857],[-0.16965747],[-0.87645911],[-0.33000824],[0.38650962],[-0.34023764],[-1.28752309],[0.61817274],[0.32664756],[-0.22486689],[-0.32597033],[-0.40934368],[0.40117831],[-0.3853289],[-0.67494428],[-0.38238786],[-0.67464653],[0.],[-0.20513855],[0.16653377],[-0.82911939],[-1.86981888],[-0.34346415],[-0.20944223],[-0.51297132],[-0.23785494],[0.18142632],[-0.3072418],[-0.63375709],[-0.35266624],[-0.20012403],[0.],[1.01104633],[0.33326566],[-0.3838647],[-0.30516914],[0.66862936],[-0.37694418],[-0.17798139],[0.33383238],[0.54211513],[-0.2206903],[0.33383238],[0.37456157],[-0.6911293],[0.36543954],[0.47640581],[0.289612],[0.77353995],[0.40225211],[0.36543954],[0.45011159],[-2.20362021],[0.30640976],[0.35490788],[0.71101826],[0.23392778],[0.16943032],[1.07841266],[-0.57038411],[-0.08025931],[-0.36286054],[-0.52628627],[0.53221162],[-0.33516293],[-0.29193358],[-0.09473692],[0.],[0.17809881],[0.93766024],[-0.30685473],[0.25502752],[0.4114468],[0.],[0.31661876],[-1.23271141],[-0.22100816],[0.],[-0.63686069],[-0.62424244],[0.],[0.],[-0.39013258],[-0.0842541],[0.],[0.24638534],[0.],[0.],[0.],[0.19128157],[0.31627394],[0.],[0.29965043],[0.30618079],[-0.33991194],[1.80442874],[0.25114465],[0.49471571],[0.54851543],[0.],[-0.11227709],[-0.134294],[0.42306652],[-0.14497182],[0.34568487],[0.38793667],[0.48037962],[0.376839],[-0.30045525],[0.],[0.],[0.25810218],[0.],[0.54505046],[-0.26597182],[0.57389028],[0.],[0.],[-0.11218529],[0.337461],[0.37604407],[0.38444792],[0.26892216],[0.],[0.67258522],[0.40118293],[-0.35274713],[0.19487602],[-1.29010822],[-0.45795816],[-0.89417704],[0.],[-0.24646865],[-0.12134122],[0.22904008],[-0.35681259],[-0.28831179],[-0.34894353],[-0.41279364],[0.],[-0.64651356],[-1.90615591],[-0.90519271],[-0.95517916],[-0.13033436],[-0.23008556],[-1.03274225],[0.49243038],[-0.0959532],[0.36537297],[0.],[-0.74169786],[1.06168362],[0.52357249],[-0.69384653],[0.82684789],[-0.57945381],[-0.24914143],[0.39628879],[-0.19425496],[-0.86040393],[-0.27613516],[-4.72584271],[0.],[-0.22196851],[-1.33228666],[-3.48975427],[-0.89248294],[-0.48123443],[-0.30759891],[1.2362372],[-0.67352151],[-0.58503228],[-0.56174791],[0.],[-0.22612966],[0.56482308],[0.8533489],[0.53233636],[-0.31061902],[-0.78236105],[-0.17310118],[0.69704722],[0.54929207],[-0.18874015],[0.30412626],[-2.96931552],[-1.46749171],[-0.39025673],[0.9121421],[0.18637128],[-0.16090659],[0.35490788],[0.2982692],[-0.41762605],[0.33031872],[-0.39462864],[-0.81418267],[-0.31396058],[0.],[-0.17118168],[0.30961416],[-0.75168357],[0.],[4.94928642],[-0.97502225],[-1.42966506],[-0.40706753],[-0.99370499],[-0.35409439],[-1.0454997],[0.],[0.57948875],[0.35363857],[0.22795434],[-0.09291367],[-1.13620202],[-0.69417458],[-0.62506317],[-0.64465878],[-0.31058796],[0.87710847],[-0.40451175],[0.92309167],[0.42201883],[0.32585746],[0.56875923],[0.58176542],[-0.49876443],[0.46835898],[-1.04933216],[-0.21625776],[-0.34488705],[0.],[-0.04086095],[0.36945517],[0.94141682],[-0.18988274],[0.55516647],[1.68021077],[0.36731595],[0.19704163],[0.28989895],[1.16026725],[-0.25510548],[-0.2818478],[-0.44154199],[0.],[-0.49885278],[0.69178126],[-0.24759297],[-0.34857527],[-0.83030519],[-0.39329923],[-0.35554778],[0.80045571],[-0.25370243],[-0.36819524],[2.39019961],[-0.61893494],[1.57382073],[-0.29449449],[-0.40706753],[-0.0701032],[-0.29000702],[-0.22423947],[0.40698219],[0.44768916],[0.24227717],[-0.25236317],[4.2975713],[0.89671002],[0.40299472],[0.],[-0.20708417],[0.30077789],[-0.58743786],[-1.35943583],[0.45916439],[-2.69273382],[1.16251044],[0.],[-0.27533432],[1.1497663],[7.11520926],[0.88637866],[0.27458696],[-0.24316102],[-0.15139244],[-1.79357888],[-4.70956666],[1.17530612],[-1.20094313],[1.84672038],[0.27533452],[-0.92285262],[-1.90258263],[-0.62806166],[-0.15494289],[0.34568487],[-0.36393723],[0.1917724],[0.],[-0.11375927],[0.75284029],[0.32406881],[0.1078794],[-0.10066537],[-1.41359645],[-0.17409881],[-0.2677924],[0.],[-0.2654965],[-0.2688174],[-0.83579938],[-1.33931155],[2.98347794],[-0.37297848],[0.],[0.],[-0.25789654],[0.03509076],[1.85442238],[0.51546349],[0.04589932],[0.34566869],[-1.06324277],[-0.723054],[-0.38238786],[-0.49349275],[-0.10154047],[0.],[-0.37994425],[0.],[-0.20708417],[0.45203159],[-1.32970918],[-0.3375297]
