[8.14459207],[0.27061101],[-3.55243524],[-2.55585227],[-6.78566308],[1.8178753],[-3.05572889],[-5.30005213],[6.55892116],[13.60205062],[-0.00942078],[0.45766448],[7.08200198],[4.69740146],[-1.67760383],[-3.98777536],[-3.27101081],[5.68229848],[4.20453954],[-6.40215766],[4.2848478],[-4.67091438],[1.34173557],[-3.35317137],[-1.80695868],[14.51134508],[2.53526541],[0.86759084],[0.86759084],[1.43411392],[6.85234589],[8.95562759],[2.38216098],[4.17428341],[12.33123499],[-0.72538421],[0.89802599],[15.97420116],[0.8875151],[4.44785465],[-0.08080183],[9.4553952],[-12.40654214],[0.24485004],[9.11131797],[-6.02600583],[-6.01341788],[-2.54671267],[-14.53397565],[-2.80387466],[-3.19107918],[4.51114921],[7.23275232],[-5.66028003],[-6.75439907],[1.11205995],[0.11360617],[10.77661674],[-0.37999082],[-9.16822626],[3.15903407],[-15.32919619],[-20.63293339],[-9.37970028],[-2.1276414],[5.5626583],[3.89867396],[-21.16883784],[-12.60940381],[-0.58371303],[7.79853842],[-9.65853096],[8.01669326],[10.11361283],[8.41962918],[-0.49717714],[-4.53434148],[-3.25485908],[0.4636322],[-0.49098851],[-20.18690779],[-2.26920561],[-11.7073072],[-9.90972433],[20.33407972],[-12.68200234],[-1.44688836],[-11.00652938],[7.88317584],[-3.01166131],[0.20981698],[-1.95817033],[-6.79317718],[5.53881752],[-2.96757594],[-8.38748761],[22.2832565],[-0.05660549],[2.67145503],[-4.57910183],[-2.37664973],[-5.94809123],[4.26828855],[15.02899868],[3.3071749],[10.25971729],[-8.07025838],[-4.02932284],[2.23765178],[-8.58507763],[-7.23871273],[-8.28543016],[0.39201276],[8.54527494],[-15.59974665],[7.20892431],[-12.40792272],[-13.53603679],[-0.85983129],[19.443167],[-6.6839501],[-1.52191837],[-3.91500446],[-8.51163392],[-12.17458368],[3.7374513],[0.84432395],[-8.27659807],[-3.38329362],[1.36358212],[-4.70955455],[6.87955752],[4.77951451],[0.79562744],[-2.09925504],[-0.49671991],[-5.56329396],[-5.35617382],[-4.74496375],[2.06306167],[-3.09611289],[-5.17663],[5.1311416],[11.57729169],[3.85998043],[0.59688909],[5.66311812],[-6.2710789],[-0.44326521],[-1.82762262],[-0.95586607],[4.99797358],[-11.78970659],[0.56344902],[-6.99491835],[-0.64048425],[12.91582434],[13.104947],[-0.09459926],[7.89151194],[3.86439322],[-5.8849483],[-0.03149259],[-6.69794841],[6.40661791],[-1.89189816],[-12.0253891],[12.39736372],[1.11064001],[-8.07159005],[4.22334893],[4.3168893],[0.68241384],[6.76163183],[-5.30702975],[11.15487355],[-6.65980943],[-9.4102882],[1.73380704],[-12.65386761],[4.49234159],[-7.55155171],[0.82978181],[-3.79743598],[-18.00036713],[2.00270499],[-2.6414438],[-2.70012166],[-0.92826435],[-0.61955177],[-5.60206847],[11.79717566],[0.],[7.85352285],[-2.62325535],[9.28467491],[-5.3351873],[0.],[14.64600713],[0.24569968],[9.77609087],[-7.90898905],[-21.16393952],[-4.20520979],[-1.33281925],[-21.99824523],[-2.71979109],[-15.93127061],[-3.68274326],[-18.05193651],[-1.79753388],[-5.57632006],[-14.33068251],[-5.51410957],[-8.50786026],[10.96339811],[-5.119821],[-5.01776829],[-8.68377403],[-3.94982106],[-0.66518183],[-7.60313727],[6.89039227],[-5.97421277],[3.59286118],[-0.75367962],[-9.81418737],[-8.35477282],[2.17136485],[0.47267342],[2.3413074],[11.55692715],[-2.22624264],[3.89070015],[-9.84085918],[5.7220293],[16.28382282],[5.12611786],[-9.44827654],[-10.9917709],[2.16899863],[8.04789982],[0.7108917],[3.68427412],[-0.47107288],[9.5836458],[-3.13518348],[0.66520954],[5.96562373],[-7.61006252],[7.02184599],[-5.50757005],[-0.53319695],[8.25823764],[7.24464899],[-5.23253755],[-3.00477642],[-3.3921489],[6.0990007],[-8.00711796],[7.27637946],[-12.69248731],[4.44750749],[-15.36392541],[-9.86245854],[15.19456228],[-1.87758087],[7.65166957],[-7.84885317],[6.65089714],[-1.23058382],[-8.80131379],[-6.57220976],[-2.09818597],[10.33156474],[11.57494152],[1.13423527],[3.49256422],[1.76348621],[6.22348821],[-14.07948818],[-2.18530994],[-11.61423541],[2.29244981],[-8.27927082],[-11.0221478],[-1.48950761],[-1.01740503],[-3.24892091],[3.36298864],[-8.43179562],[3.49146552],[-10.2998483],[-6.4594279],[-8.34299049],[-4.92876273],[-15.06361247],[0.33571991],[-8.29508046],[-1.33178747],[1.1366385],[1.33881682],[-1.78323825],[-9.22770099],[-14.28404318],[5.72969472],[6.68730009],[10.58377495],[-3.52467455],[2.64712279],[6.38107552],[4.72994182],[-8.21067031],[-2.25311995],[17.78420948],[9.11209835],[0.9890825],[-11.07586409],[2.93132336],[25.41711164],[0.80162111],[-0.16508708],[0.13377175],[26.94679816],[-1.57142687],[0.],[1.83676235],[0.],[-4.81427982],[-13.14353828],[1.78732079],[3.10932205],[-7.01212844],[8.07816183],[-8.10186173],[-5.11459785],[17.61035044],[-6.88335618],[9.75254524],[3.86085296],[-4.82609025],[-14.82173675],[3.36708116],[12.814206],[-9.43234558],[5.09317166],[-3.09730459],[3.55567744],[-0.99600741],[3.14064943],[-4.66430142],[-6.33526039],[11.29757883],[5.86130285],[1.14227614],[-14.35416069],[-0.5333003],[1.38908322],[-1.4387477],[8.70916371],[-2.30524479],[15.07868836],[0.43913641],[3.40342842],[7.4147293],[-17.28095996],[-5.88039345],[-2.84748949],[-12.84427728],[7.51979111],[-12.89309337],[-0.19404796],[-0.73774879],[14.52088242],[0.],[8.69804505],[-12.42817542],[-17.11935437],[-7.3299807],[1.82288764],[9.07440623],[-14.83956416],[3.96449569],[-2.08063283],[-3.71971622],[-7.00237869],[-4.06879946],[-2.28529696],[-2.40242508],[5.87438233],[16.76247802],[3.6740139],[-8.69506758],[-11.4067648],[10.40817286],[4.96704422],[8.47901416],[10.12972584],[0.02796821],[0.79586467],[-10.97828282],[8.17873435],[-2.31860375],[-10.46702161],[-3.13320145],[8.64716967],[0.23082373],[3.7506536],[-4.59955326],[-0.79790455],[2.66693894],[5.07669534],[2.67777906],[4.42003309],[-1.40996956],[-3.88449545],[-0.86373847],[3.28812339],[1.65294782],[-4.87438777],[3.67642953],[-8.39188699],[-0.46211249],[-5.77339927],[-3.92033841],[-11.87575973],[8.93847607],[-5.6807494],[-5.49719294],[-5.73294342],[-9.15825075],[-8.7138923],[-3.13845555],[-0.34218532],[-2.60239402],[12.68091134],[8.45690887],[0.32957113],[-5.24808502],[1.03403855],[0.65025351],[-7.0517763],[9.88741633],[1.17117004],[1.29607653],[13.7352073],[-11.13195502],[-3.08187905],[-4.84865445],[1.99148089],[0.67107521],[-7.42929882],[-1.7268249],[-4.90381971],[8.03598657],[-12.24714243],[-1.12706612],[1.77738168],[3.18648204],[3.77694372],[-6.62510926],[-5.13885741],[-3.31103451],[-18.88760773],[-0.37141529],[-7.83888984],[-2.59851654],[-2.8885955],[-7.80400381],[1.44990428],[-4.95532753],[-9.6245721],[10.4571978],[30.86094837],[9.57877881],[8.77819374],[3.67094747],[-8.75998012],[-3.12892099],[2.20055394],[-9.21277941],[3.93197297],[3.09442083],[-16.07713247],[0.17789053],[-2.68840794],[-0.79796469],[2.08104995],[-0.4120764],[-7.6240508],[-6.08937535],[-16.39083423],[-5.63487897],[-4.56908669],[-5.43858832],[-0.92979552],[-1.11482672],[1.94398859],[3.74769406],[1.26960745],[-1.70840298],[5.83918938],[-5.82773238],[4.30051503],[-6.49169202],[2.36468832],[4.32414031],[3.13093237],[3.15865059],[-9.27854254],[-5.43526797],[10.52984378],[-0.1806308],[3.27381149],[-3.30371265],[10.69865739],[1.28214],[-1.0178344],[-8.35962906],[-1.11923986],[1.96886116],[-5.70046041],[9.56234589],[-3.56199205],[27.01980967],[-3.1351722],[-6.80053545],[-12.10447312],[-14.87347831],[-0.4698147],[-8.62443572],[-14.16663509],[13.81431349],[-16.66066953],[-20.39020704],[4.67445104],[-6.66898098],[-6.15834848],[-6.82114665],[18.26014929],[-15.16986474],[-2.85647442],[-19.22871],[-6.45736287],[5.02756461],[7.86982289],[-10.42374926],[-8.83962328],[-1.69974714],[10.6414629],[-0.65713752],[6.10007714],[-1.03016918],[-5.06984594],[1.92358202],[-10.04796441],[-7.00974819],[7.86302794],[-7.49037851],[-10.88062762],[2.5268953],[4.74339711],[2.55473606],[-4.27333073],[20.94921949],[-4.39233362],[-0.89883051],[-2.36912167],[-8.96483749],[6.62850889],[-8.20672219],[-4.67899938],[6.68448618],[0.91180211],[5.21022449],[-0.941388],[-0.1435683],[2.99539769],[-2.40617008],[-4.79586507],[3.5407854],[-4.10646666],[-0.81800778],[-6.06153055],[3.44666472],[3.25845617],[1.90989564],[6.49381712],[-15.44498404],[-4.08474868],[-13.62961264],[0.5742346],[23.69817299],[11.5662014],[-1.3847817],[5.70491742],[-2.65228336],[5.57524956],[-2.41352022],[8.34461374],[-4.04940112],[-8.6219997],[-13.76133443],[-8.51714504],[-7.45218291],[-0.94203687],[-4.89808138],[-2.12857459],[-3.80107089],[14.05702882],[13.63009716],[-7.69630388],[6.07318668],[-13.50768435],[-0.8597031],[-21.89105174],[-9.05698055],[13.44600103],[-4.15385732],[2.25280206],[5.38668841],[2.83756821],[-15.00634105],[-1.91256369],[5.08056853],[-8.87160598],[-1.31036588],[4.07330312],[-1.06688516],[-0.42654535],[5.52553604],[-18.62985911],[4.48465628],[1.38528088],[8.79116307],[3.56825908],[13.29942848],[-16.70191324],[-4.70949225],[4.49720608],[-9.9234002],[-1.76887332],[-2.88867397],[3.36955509],[17.50875484],[-4.42349932],[-8.33918587],[1.47624143],[4.79840844],[10.87670326],[4.17934502],[8.37735634],[-0.55399614],[-11.96830691],[-14.3391561],[0.28018771],[-15.16179628],[3.22941153],[11.47421832],[11.54491393],[-10.65738],[7.21823986],[1.70032654],[-6.43331506],[-6.81561435],[0.],[-5.58055947],[3.77717625],[-5.65648629],[7.56589752],[-1.57443309],[-1.47747196],[1.16074942],[6.42573612],[-10.42121378],[5.85782131],[0.70555426],[3.1269653],[-3.21499132],[-1.57003833],[4.09813065],[-5.4556345],[2.03900677],[-1.0960461],[3.81201851],[-2.84023808],[6.96229491],[-1.29208547],[-0.18969919],[1.32531531],[0.],[-4.72711104],[13.42112629],[-3.6079707],[-1.5331082],[3.80613504],[15.38766079],[-0.93394848],[9.48245409],[2.34680762],[-2.64538471],[6.09851667],[-1.67440364],[23.03252159],[3.01039406],[7.93542716],[-0.36035997],[6.38234443],[-14.14228844],[-0.70920561],[-2.34373235],[-9.46581474],[23.96961236],[3.20834254],[-5.67105848],[-4.21070171],[-8.23052735],[-2.65299772],[5.74382901],[-1.87575322],[0.46347744],[10.5523208],[5.18832031],[6.20961601],[-1.25478139],[0.6679077],[-14.16286513],[3.08951392],[-4.3353425],[3.49296386],[-7.02174055],[-6.24821724],[-0.14691733],[-4.60285145],[-24.59110419],[6.35070925],[-2.40852369],[-11.73781157],[8.73743301],[-5.00648884],[-17.46103716],[7.02751738],[-6.95556295],[0.],[7.66606188],[3.48047588],[-15.8522018],[-4.3792942],[1.89442799],[-14.64933775],[-3.23982537],[3.55434631],[3.09005854],[-3.25757412],[-2.31611977],[2.32029572],[7.26543219],[-1.82290238],[-13.56682916],[-13.54356937],[-10.48162177],[-4.33810478],[-5.65711299],[-7.11682039],[5.45227727],[-6.96617006],[5.73105402],[22.20091695],[-1.66333604],[-1.82098554],[1.94078369],[7.47478416],[-1.8045512],[-6.586074],[-6.84797078],[-1.11251259],[-2.01379652],[2.71861622],[0.92961107],[-3.86902739],[5.67447429],[16.52888965],[-7.74325368],[7.7709819],[0.14086408],[4.14577675],[0.48378024],[-2.28321051],[-0.54652728],[8.01790181],[14.92974802],[0.41321887],[-7.78284608],[-6.73426835],[-6.86466694],[2.2771943],[5.63154023],[-0.06444446],[2.57617933],[-2.86795527],[3.63176877],[2.58704393],[-4.42211972],[-14.94721492],[0.24752788],[-0.13095869],[-9.36615477],[-3.20375676],[3.40676674],[-9.90451748],[-2.42933142],[3.31863867],[2.87275884],[-4.35067059],[-0.98500749],[-0.08268172],[-2.95903175],[-3.19274556],[-7.43538443],[12.91430417],[0.21435337],[-10.35137798],[8.98079746],[10.01804012],[-13.4968877],[-16.46138911],[2.41804837],[-4.421692],[-3.67089975],[5.94509621],[2.10980094],[-4.09445841],[1.55205919],[12.51521991],[4.59938441],[-1.20656027],[2.15347492],[0.46302307],[6.6323111],[-0.34947034],[-11.57951723],[-4.54944061],[1.69565876],[-6.27209658],[10.49587804],[0.76618318],[5.0661341],[11.58117661],[0.44164653],[0.61922992],[0.18506876],[12.54190739],[11.07709674],[-4.86765917],[3.74369314],[1.49217546],[1.15075215],[-13.51311239],[2.76051018],[2.1988179],[-1.21315412],[0.64849957],[-5.55474875],[-5.12198503],[5.5126804],[2.34356204],[-2.84696104],[1.9149808],[0.19003253],[-8.65343272],[-1.41440096],[-0.37578756],[7.72266123],[3.92632269],[5.42172282],[0.80135552],[1.76014035],[-14.76984659],[-4.11939988],[-9.63764645],[6.76941982],[-4.31461292],[-1.43731749],[9.48483897],[-15.45121202],[11.14697604],[3.55865941],[-2.51243937],[9.5237077],[11.42400236],[-4.31424775],[0.93758153],[-4.8418688],[-6.59556846],[-5.06686947],[3.19831508],[-6.28012279],[6.97977531],[2.49818156],[-0.60901669],[5.40930721],[-8.00517916],[1.471462],[5.63448944],[1.0424215],[0.],[8.79367747],[3.32874435],[-0.62033226],[-12.67475313],[-4.34744429],[10.23212833],[-3.16574985],[0.68688401],[-1.00996225],[-11.85711494],[-4.89096834],[-0.6217091],[-7.6417124],[4.13131271],[2.42077172],[-7.73980096],[-6.75265669],[2.71959206],[-12.3282309],[-11.20360083],[3.60506559],[14.56573386],[-2.64156944],[-12.41024818],[-1.78623698],[-9.95636777],[-0.27815738],[-3.413512],[-9.28868628],[0.38163483],[-3.78272226],[3.71105565],[8.91966131],[3.02467662],[2.72693223],[1.18385139],[0.36407282],[-9.94278103],[4.97553605],[0.83153559],[-0.81761208],[-4.85676515],[-14.90390478],[7.85075831],[5.54605367],[-0.55117608],[6.12893721],[1.5184367],[1.84811111],[-6.75776],[6.97010402],[13.09278783],[8.55881328],[-12.82853815],[6.31703946],[-4.6844307],[-7.01420903],[2.50787539],[-5.12996425],[9.71478064],[-7.53839553],[3.27820733],[5.11043381],[-1.4166524],[28.314273],[1.18065866],[-10.69867768],[8.69052048],[5.90775845],[16.43495955],[7.1772021],[6.14422223],[-8.24981543],[-17.29579405],[-2.27465653],[-7.03598148],[-2.80361338],[-6.12150329],[11.19301473],[-9.00275388],[1.97822769],[-11.05706849],[14.92454009],[-3.05354499],[15.58052385],[0.51639531],[-7.73484239],[2.42509303],[7.92699627],[-4.37395718],[-0.10974484],[2.2961306],[-5.32381226],[-7.48767029],[-0.83824888]
