[4.12135827],[6.34559513],[-1.53385821],[-4.10578225],[-7.38319958],[6.42620886],[-4.98422986],[-1.56189976],[4.86072451],[9.59204721],[3.2584846],[-0.86174924],[7.27674987],[5.89821364],[-4.50454261],[-6.05260892],[-3.49523696],[-5.34800588],[5.20184299],[5.51504413],[-3.37240813],[-1.18333092],[-3.22422434],[4.43654894],[-1.80551635],[-4.59663242],[6.02011953],[15.55064025],[4.96542015],[5.3381388],[5.3381388],[1.03020367],[2.84784851],[8.58179814],[6.65045867],[6.06963452],[3.34607988],[4.53047501],[11.55196071],[-2.06777543],[2.11519964],[1.58200251],[15.8393507],[2.76238128],[1.88259021],[-0.32798095],[11.89716604],[-8.74412477],[2.07111769],[6.85473883],[-5.40354235],[-6.82188374],[-3.70548067],[-8.48521],[-2.61236358],[-2.09927063],[5.15336592],[10.79457737],[6.13008013],[-0.30912758],[-10.84605134],[-1.6687935],[-1.4722033],[6.83357988],[-1.19868942],[-8.69098733],[1.4051962],[-12.29909739],[-10.13582097],[-19.65892771],[-7.66857474],[-7.07732593],[9.1334425],[5.95748621],[3.99604338],[-15.04995294],[-11.57480097],[1.09827777],[4.82890985],[7.88649335],[-11.55451429],[5.46227227],[14.21430934],[7.58124412],[11.72273799],[-0.54446268],[-5.07295296],[-1.14280091],[0.47334221],[-0.623133],[-13.46632375],[-2.51075199],[-13.85638199],[-7.69590384],[-5.5504746],[19.0819576],[-13.28999638],[-1.54768778],[-13.01007929],[-4.24367049],[6.29467716],[-1.56532145],[-1.82804013],[-1.47731467],[-0.03179574],[2.0415045],[-5.81432454],[0.85899796],[-2.32662377],[6.09925985],[4.18000743],[-0.23164276],[6.89589346],[16.62098073],[3.65700042],[-1.47381117],[-8.00996716],[-0.71698816],[-3.85113707],[-0.83741476],[-4.60047009],[6.39497673],[5.6112439],[0.36766718],[11.9254371],[0.87693112],[10.18158621],[-7.16321663],[-6.65481657],[1.38700957],[-5.87185556],[-5.93865064],[-7.86785315],[4.54766363],[8.23025119],[2.38982043],[2.46534431],[-8.84138516],[6.66953839],[-7.19854217],[-11.65748097],[3.30254561],[-13.49944571],[-1.17432854],[14.85244045],[-1.22370673],[-5.48471337],[-0.16856899],[-5.37489825],[-6.21828714],[-7.6197575],[-1.64761691],[4.51062901],[17.8565022],[-4.27126925],[-2.29648837],[-7.95871557],[-1.10844805],[-8.34052794],[1.87953671],[-2.5882975],[-0.94658097],[1.36777322],[-6.20452519],[-1.07648785],[-3.72666146],[8.01541375],[-3.08028989],[2.13637398],[1.8497388],[-11.58448436],[1.22351354],[-4.80817693],[5.74822286],[9.41223719],[-9.66830335],[6.7285032],[5.29019792],[0.90231708],[-6.17860085],[-0.47084816],[-2.773368],[0.72910102],[4.6120434],[-11.4271679],[-1.04356647],[-9.88807732],[1.83277074],[-0.59408796],[10.68351656],[13.17809763],[-0.12462315],[8.89729647],[1.11264934],[-2.60944881],[0.32781075],[-5.31573546],[-4.44285647],[-1.45254414],[-10.98346666],[13.1394586],[1.1109037],[-7.85203573],[2.44440799],[2.61946342],[-3.50856404],[5.98849084],[-4.37624401],[15.75160536],[-2.87379427],[-9.15590269],[0.4712546],[-5.81878102],[1.42910714],[0.16818507],[-0.88768747],[-3.98712837],[-16.33266748],[2.55611735],[2.87941951],[-2.72991567],[-2.79055887],[10.61285338],[7.89920485],[-8.60631249],[16.80589729],[-1.15455816],[-0.04831024],[-1.43626432],[7.36769052],[15.1419557],[3.19663322],[0.],[4.94860537],[7.72227294],[-2.21436789],[7.35067778],[-3.65169654],[0.],[16.7308825],[2.11675398],[1.97817863],[-7.18393954],[-17.04024178],[-4.79211055],[-6.77992787],[-11.95784146],[-11.09457266],[-2.28787018],[-1.22966147],[-10.43078696],[-0.04915164],[-14.29478472],[-2.07073949],[-4.74508812],[-11.82340137],[-4.11651366],[-8.76910752],[0.63097213],[4.78191729],[-3.19320284],[-4.6956153],[-2.30510877],[-2.46737115],[1.44260755],[-6.2649807],[-1.15306006],[-2.69121124],[0.07865016],[-8.01587669],[-0.5323491],[-10.96631692],[-8.70011773],[0.62470491],[2.64259547],[-1.043129],[1.12178827],[-1.02315714],[0.71550781],[11.03704366],[0.32042896],[3.68176924],[-10.7838317],[-0.72970116],[-0.40249941],[1.13423928],[16.73109528],[4.92591795],[-7.32431205],[-10.63088861],[1.00474198],[6.38433912],[3.32496134],[0.45581838],[3.87713047],[-3.32887115],[6.1494297],[-10.27831095],[-0.87369645],[1.77688809],[2.55192316],[-6.71926977],[4.99541487],[-3.46175873],[-2.34036555],[-1.43905847],[8.35217277],[5.40495297],[-3.19005804],[-1.65870606],[-0.85512478],[3.00580554],[-7.58848359],[6.75113544],[-7.99937013],[7.86319274],[-15.65605065],[-8.42763026],[15.95343244],[-4.21203646],[-4.47168015],[4.39597513],[-5.66389376],[5.42914236],[3.2236785],[-3.11073782],[-8.29225467],[-7.60872987],[-1.62259285],[11.90589034],[7.01666577],[3.51910239],[-6.76020139],[4.82664119],[0.17650269],[9.28513003],[-12.94143156],[-6.54745555],[-8.96137314],[-2.98031819],[-3.7774233],[-12.0246522],[-1.83669047],[-5.04043516],[-5.16888781],[-9.95956593],[-1.0869436],[-0.49484911],[-2.88229291],[4.24886363],[0.30182336],[9.08178636],[-8.18405948],[0.90504853],[-9.19805573],[-5.9183427],[-6.79042738],[-7.23489179],[-6.60209824],[-0.3662358],[-4.18811086],[-3.21529064],[1.58341951],[1.84576013],[-3.20946094],[-13.51302441],[-17.32490259],[6.20153697],[6.35655802],[11.75978884],[-2.57061628],[4.46180283],[8.27278152],[5.08725224],[6.64964685],[4.06151831],[-5.0935237],[-3.39927396],[15.27474508],[8.19090941],[6.44733347],[-2.56102182],[-8.66063124],[-9.74179404],[4.84227991],[-6.63513791],[21.13679457],[0.72062297],[1.98116733],[-0.2079519],[1.33519422],[2.76793193],[-1.71143491],[0.69570385],[2.35800813],[-5.85321121],[2.58827302],[22.99701344],[-1.13213119],[0.],[2.10865971],[0.],[4.35842961],[-3.60199023],[-16.14181477],[3.0167866],[2.05210512],[0.49067242],[-4.36928502],[0.48373008],[7.08133666],[-7.30696008],[-6.91696542],[9.63256501],[-4.16161231],[8.02764507],[4.9404455],[-1.0579941],[-11.2149605],[2.3929782],[8.21259286],[-10.00104332],[1.75054243],[-4.04725093],[2.87371164],[-2.67001697],[4.69825237],[-4.40205932],[-6.17685722],[6.37091886],[3.41220079],[4.37876871],[6.39344144],[-4.62999162],[0.17028257],[4.18840157],[1.06442064],[-9.27025216],[2.57372186],[16.49563002],[-1.43145057],[0.02501847],[-7.16836092],[2.76915855],[-17.30952343],[-3.30171226],[-3.55739258],[-9.40097588],[-4.39233078],[6.42768931],[-12.30148014],[-1.94337129],[-2.16104434],[13.11980594],[0.],[4.04190137],[-10.47096227],[10.57672534],[-13.70923877],[-9.3059633],[1.83525845],[9.50834489],[-12.35770004],[1.32985838],[-0.75239036],[-2.18328124],[-9.20858015],[-5.33034277],[-0.56398836],[-3.97658244],[0.],[-1.47036643],[6.65558572],[13.18629374],[2.35652384],[4.96428973],[-7.59815394],[-9.1969319],[8.64634753],[-1.01858682],[7.61639438],[8.27715438],[-4.06996111],[8.21642058],[1.26572204],[0.93404759],[-11.68380048],[8.95239694],[8.90837998],[-4.00581252],[-7.99245409],[-3.26868736],[12.83323625],[1.22402194],[7.35423767],[-5.48935079],[0.01887462],[4.63516061],[3.26523496],[2.53382514],[5.54231135],[-1.85002377],[-6.80987316],[0.46869215],[-4.27899038],[2.0256626],[-1.55991953],[-2.55953442],[3.61770181],[-8.61588448],[-0.27835504],[-5.72677284],[-2.85090896],[-7.79668801],[5.47783473],[-2.56820245],[5.60469346],[-5.33763353],[-4.39488484],[-2.32851125],[-6.88170234],[13.58732407],[-0.14306106],[8.55370917],[1.76725526],[-2.59449641],[9.147611],[0.90763128],[-1.46179994],[11.82414973],[-3.41036248],[-7.12860695],[-1.0567895],[-1.92430294],[-3.09841589],[1.54478156],[1.64488335],[-4.87362792],[8.55132119],[0.23656383],[0.34675007],[11.11029058],[-4.16150062],[-11.01770753],[-5.8596984],[-5.44777602],[-2.79254536],[0.11050999],[-8.64821229],[-3.9080881],[-2.08650457],[-10.17956814],[-1.13693195],[-4.5592902],[6.21311969],[9.1572759],[-5.99042794],[-0.4698501],[5.30768555],[2.5136057],[0.76626988],[-6.61446786],[-5.81650205],[-2.5104572],[-1.82378381],[-15.56953645],[-4.57824796],[-4.9219271],[-4.95284106],[-2.64905971],[1.07409743],[-3.54198212],[-8.06639238],[10.68166246],[24.48115469],[8.73004737],[6.01969372],[3.54702095],[-8.23604284],[-9.39891611],[3.33093027],[-9.4895729],[2.1710269],[1.23101299],[-14.68098043],[0.18530871],[-3.48567437],[1.04076012],[-20.18308971],[3.48495114],[-0.44899716],[-4.36132559],[-5.65983904],[-14.83231077],[9.65919094],[-2.3222913],[-7.53989632],[-2.69901304],[-7.20581577],[-1.26153326],[-0.37560589],[-1.83482821],[9.68234217],[5.10394445],[-2.28674201],[-8.32798911],[-2.98387394],[3.68076447],[-2.06519667],[3.00681263],[-2.87923109],[4.09163085],[5.6193137],[5.40668759],[1.55115149],[2.56306547],[-5.369407],[2.25951901],[0.77719621],[-9.76633252],[7.51815072],[-0.82649661],[2.03868392],[-7.92620282],[-3.59375984],[8.37156201],[3.09962192],[3.97766653],[-5.85393226],[-5.54715451],[-1.75768611],[-4.03689297],[2.08147961],[0.05907953],[-8.44884584],[4.81817977],[-3.03325652],[22.46069763],[-2.47068542],[-4.29511045],[-16.70172395],[13.61081908],[-10.97962889],[1.32595413],[-8.67442004],[-16.14969682],[10.37347017],[-15.5676187],[-20.47590113],[5.14612308],[-6.70123869],[-2.91931471],[-5.9462764],[21.54289853],[-11.89557317],[-10.05992451],[-4.66455316],[-12.60198329],[-1.8908247],[5.86092517],[3.51887804],[-8.27569613],[-8.89844098],[-1.67272445],[11.82324065],[-0.21861941],[4.52145223],[3.05634433],[-3.73785996],[3.12411629],[-7.90656619],[-5.24522334],[5.28717216],[-9.33548176],[-0.5203648],[5.59668372],[3.81666572],[-3.34707858],[16.32085323],[-3.26418027],[1.34720453],[13.6191502],[-2.72744513],[-0.30469323],[0.73570934],[-8.81445187],[7.86493945],[-1.45931446],[-1.21355967],[0.2138943],[2.89731255],[-0.59598222],[0.03289586],[3.07681025],[0.70641374],[-0.71403836],[-0.15988307],[-1.09387989],[2.33912806],[4.72118641],[8.37080393],[-3.7961352],[2.53085828],[-2.30370209],[0.39337998],[-6.46893255],[7.9847559],[2.19929094],[7.34334263],[4.50478064],[-12.08890097],[-2.58352398],[-11.11470352],[-3.3298825],[1.28588755],[19.76037004],[9.23462795],[9.62060119],[3.95829114],[-3.1222819],[-6.11513481],[4.19233284],[-1.60696776],[-12.83130881],[9.78223892],[-4.06612016],[-5.32217736],[-9.73306897],[-6.47478619],[-3.10314279],[-1.22509711],[-4.14127781],[1.24959172],[-1.27372027],[13.77881813],[12.84536264],[-6.83307375],[5.55340014],[-13.17214694],[4.75813905],[-1.839178],[-19.09589942],[-8.05613661],[10.94667364],[-1.31700219],[-2.91286716],[-2.85078893],[-0.24470158],[5.43932681],[5.63515405],[2.95649211],[-11.42645613],[-3.56035969],[0.76395738],[-5.02970392],[-2.69436403],[2.00773721],[12.89380402],[2.09474502],[-1.37602639],[2.77994012],[4.20527292],[-13.92866304],[1.88494723],[-0.14108406],[4.82950869],[8.50308675],[9.77473801],[-1.46092975],[13.72795695],[-12.9399071],[-6.86928167],[9.65521057],[-7.73598354],[-2.32305539],[-5.88502299],[-4.50181579],[3.74284114],[15.71765263],[-3.61202907],[-10.53711213],[-0.06146576],[3.56334769],[7.55716793],[6.10112948],[15.3563653],[1.96213841],[-1.55374834],[-2.44007718],[-6.09933084],[-11.04794337],[-0.45347388],[-12.56901565],[7.15328897],[0.67737568],[15.86117249],[-2.63394336],[12.09916102],[-9.26259834],[3.72456498],[10.48959121],[2.65607613],[-9.06607983],[-5.68835534],[0.],[8.76666451],[-3.54187827],[-1.25443315],[3.52420354],[-0.35756969],[6.40746545],[1.8405202],[4.85423576],[-1.50103191],[-1.89457483],[-2.03249702],[-0.08059789],[7.38807372],[-5.38828634],[9.62163844],[-0.92694479],[-15.04439148],[1.01623204],[-2.55574563],[-2.18921408],[5.23687106],[-5.377372],[0.71786802],[-2.47770065],[2.53523195],[-4.12290221],[3.96609661],[-1.29671907],[-0.21527367],[2.28321946],[-0.18628722],[0.],[-3.48830102],[7.74947534],[-6.02978989],[-0.61535864],[3.84597475],[17.70346673],[1.67000572],[2.90111608],[1.42248851],[-1.09066812],[-1.48246568],[-0.09856053],[18.00771088],[5.37999785],[2.99845814],[-0.28657543],[6.43878217],[-7.34410766],[-9.99485148],[2.05377205],[-2.10061779],[-7.59855661],[18.96907162],[3.44053351],[-4.7227566],[-0.98948985],[3.49497513],[-6.79259042],[-4.64075527],[5.36941215],[4.77980498],[6.48904802],[4.40203211],[-1.56320358],[-0.32925998],[-0.96879612],[9.15771499],[-7.92048833],[2.59078921],[-1.34653291],[2.29935921],[-1.25481559],[0.01610653],[-13.81668512],[2.19030785],[-3.07862852],[4.07949451],[-3.8597478],[0.23888721],[0.69184155],[-5.97804247],[-22.77225509],[5.72091981],[11.83693013],[-4.09188118],[-11.88125503],[8.08728879],[11.54134169],[-7.13576615],[0.42789405],[-13.22595954],[4.80913389],[-4.86768374],[0.],[3.7138636],[4.3320867],[-14.16058484],[-6.92517036],[-0.82174915],[3.49166393],[-0.23015549],[-13.13400553],[-4.40523032],[-1.91201873],[-2.64323562],[-5.79196757],[-0.59364434],[2.26082004],[9.37132629],[3.87306834],[-5.11117943],[-10.24258525],[-7.56876072],[-5.04661318],[-7.10932131],[-4.61233168],[-1.47731467],[-14.32340996],[6.29745394],[-5.05644159],[2.91342658],[1.49708709],[18.09335739],[-2.74407568],[1.46241623],[2.65234541],[5.24199094],[-1.83550931],[-1.65261426],[-4.04578532],[-5.66749633],[-8.23342857],[-2.25246],[0.19802309],[3.47292481],[-1.32438345],[-3.15510696],[-4.10855469],[4.15596805],[11.24207635],[-3.0853031],[3.26209158],[-2.99602721],[5.6662928],[-0.83958948],[-2.31847073],[-3.06220678],[-2.90505611],[-5.07748248],[-1.11784697],[4.34755477],[13.91923297],[3.11825543],[1.63334653],[-0.17510802],[1.73141578],[0.95943517],[-11.72535952],[-3.10351445],[-10.97867339],[2.79828429],[8.35750607],[-0.06958553],[2.64670168],[-1.61100238],[1.04766836],[-5.19269824],[-0.94637604],[-12.81280014],[3.22803933],[2.90436372],[0.54458253],[3.44838679],[-9.91269987],[-3.58790877],[2.04368777],[-4.81202233],[-6.09929715],[3.90494374],[-0.7313961],[-4.18808314],[0.94164735],[2.03821443],[-4.21916654],[-0.89294489],[-8.03197944],[9.95198003],[1.61499458],[-6.43761399],[12.10659468],[6.85814466],[-8.93371934],[-11.67284039],[5.93013223],[1.26838153],[-3.5353049],[-4.53779201],[6.46014244],[2.11322683],[-3.20337005],[1.44062669],[7.22668569],[3.93235464],[-1.77000981],[5.28401206],[-0.77234653],[3.23503028],[0.21506491],[-4.49459782],[-5.08661596],[-1.4799677],[-0.84012181],[-6.01083766],[6.87906931],[-3.23058556],[6.85464634],[8.4282223],[8.27241178],[-1.98955505],[-1.29475912],[-2.09014846],[-4.61460787],[11.4870561],[-4.56034902],[10.4549384],[-1.16253186],[4.82705563],[1.40230859],[-1.43209843],[-6.94271773],[-3.64272765],[-7.28325122],[-8.73598296],[-11.05334564],[5.31595607],[1.46203849],[0.00030669],[1.77019984],[-8.25550825],[1.35744024],[2.83174717],[7.04109362],[-10.16539382],[1.303062],[-4.02818789],[0.],[1.68806239],[2.15785996],[-5.88505603],[-2.22220959],[-3.02950049],[1.99079245],[5.43639343],[-0.33363447],[2.80967773],[-10.5405644],[-4.08439056],[-9.03996122],[3.55422654],[2.15991512],[4.50493196],[7.17024582],[-4.88730819],[3.74814684],[-6.17025889],[-9.44787392],[7.05410592],[-14.1225528],[14.30481326],[2.1007378],[-2.57074028],[0.25846952],[-4.44468448],[-6.31413472],[-3.6762513],[2.97243451],[-5.5446068],[5.76349013],[3.12892985],[-3.50343352],[0.33962447],[6.36533298],[-5.76553773],[-6.84768195],[6.08196284],[1.07003458],[0.],[1.7878688],[11.14167687],[1.51226219],[-1.57593198],[-3.40980912],[-0.17460188],[-11.41554614],[-4.60755133],[8.35506283],[-0.97496589],[-0.98994834],[3.43155877],[2.192484],[4.57323789],[3.02069514],[-7.95301945],[-3.4600113],[-0.22971723],[-7.49560161],[4.29021796],[5.49277883],[-6.07910893],[-2.61529375],[-5.28070773],[-13.88668586],[1.75701985],[5.60599336],[-0.89280304],[-6.54776906],[1.7565395],[-7.23486678],[-9.57932771],[-0.86413221],[-1.60542221],[-10.84878607],[-1.23801554],[-3.31785323],[2.055559],[8.69379878],[3.1794469],[-7.71978346],[0.6642254],[1.0317158],[-1.26335514],[-6.77081694],[7.05445694],[0.63204788],[-0.34018086],[-6.82463265],[-9.27022893],[5.94697822],[5.98368073],[-1.60863523],[5.43684177],[-2.08078168],[2.77272318],[-1.90713251],[7.89412595],[13.8545025],[5.85040689],[-9.0542886],[0.14149076],[-2.52724802],[-2.48799839],[4.61187333],[-3.79624797],[9.24252023],[-5.72583823],[8.82930912],[1.81402294],[2.1363443],[21.76761209],[1.11162973],[-7.60295812],[6.54428126],[4.8200029],[13.76365954],[2.71477861],[5.66407281],[-8.13815284],[-16.16420036],[0.55466573],[-5.70526579],[-7.71653842],[-4.29169233],[8.93338924],[-3.19957252],[0.48064248],[-9.24131938],[11.5385614],[-0.38599502],[7.69062915],[-0.84628511],[9.33324427],[-5.68521061],[-0.26127018],[-1.1671974],[8.53785465],[1.39750051],[-5.5695521],[0.29638689],[5.61035427],[-3.54658458],[1.27038482],[-3.62822282],[-12.22086979],[-0.14231405]
