[6.75594273],[1.59326014],[-2.96682016],[-5.49603685],[3.59045654],[-3.71166076],[-4.89804625],[5.44911073],[13.91334453],[4.45776678],[-0.68071931],[10.92820605],[-0.6497131],[-7.18649418],[-5.1888018],[-6.20963539],[4.26077636],[3.22751615],[-3.90035943],[2.56196759],[2.35273252],[-1.18293065],[-7.97078874],[6.39053428],[18.03168722],[4.37390178],[4.37390178],[2.97469561],[8.92024123],[6.90354601],[1.98233221],[4.89273492],[15.21136816],[-0.29533112],[2.81056048],[10.19057209],[1.44813002],[2.5792834],[10.78248655],[-10.46479062],[2.83906828],[9.01241602],[-4.89231543],[-5.93791666],[-2.86875048],[-14.19493837],[-2.73763332],[-2.22959257],[4.23093153],[11.24245293],[9.13762636],[-1.07306208],[-10.13526423],[1.3593202],[-0.49884461],[9.11701347],[-3.91764461],[-8.94221232],[1.981129],[-7.85658926],[-20.51389144],[-9.75395183],[-2.78656922],[10.26112873],[3.91169113],[-20.49872808],[-13.78635584],[0.78267373],[10.14308832],[-12.9163977],[9.52318554],[18.39112313],[10.00747094],[-0.52062016],[-4.19717469],[0.62022776],[0.20043345],[-0.45988209],[-20.09789113],[-2.79030222],[-13.80792264],[-9.8337023],[19.75047992],[-12.70941376],[-1.56197024],[-9.38453235],[8.24597696],[-0.56133745],[-2.77912923],[-1.78698678],[-5.53908009],[2.95271739],[-2.62575909],[6.69064989],[6.67427787],[-3.4065728],[18.57450323],[1.56751709],[0.55562382],[-6.68124284],[-2.26887921],[-4.00592921],[5.63521752],[4.7692604],[14.95838971],[1.50880064],[6.95765021],[-9.6635802],[0.71460874],[-7.82235665],[-8.05393613],[-6.71338955],[7.81209227],[-12.76177395],[8.60600232],[-13.44210524],[-13.2979914],[-1.18995323],[15.33269046],[-1.4093496],[-0.78003928],[-8.15293957],[-5.45190004],[-12.98870942],[4.42788193],[-0.19976653],[-8.0725208],[-1.80088073],[0.60531529],[-5.43412526],[4.61012205],[5.87670743],[0.94315027],[-5.29970911],[-0.04477573],[-4.73564324],[-4.29261928],[3.67935164],[-2.07121946],[-13.27317878],[-0.20606501],[-4.10186552],[2.20824724],[11.78253761],[-12.054821],[3.86516558],[1.9967628],[0.92564177],[-9.83572931],[-3.3631138],[-2.71358521],[0.94282767],[4.96321833],[-11.52467543],[3.58797208],[-11.37973196],[1.22381498],[14.94458837],[15.05910018],[-0.12436055],[8.77619391],[-0.18840743],[-3.60522836],[-0.27366456],[-9.04030824],[-0.74796387],[-2.16849489],[-10.55293881],[15.14979536],[-8.78495052],[3.65289843],[3.68386873],[-3.67132298],[6.34278981],[-5.03923368],[15.25129113],[-3.9246289],[-10.7970179],[1.746335],[-11.91425149],[1.91712899],[-0.31382146],[-2.35770812],[-4.28076586],[-19.78475733],[3.65522359],[-1.66637865],[-1.70339611],[-0.18823887],[-1.46166662],[-2.93034085],[9.63492757],[10.94531067],[0.],[10.1154253],[-2.61056388],[9.76787761],[-4.29650408],[0.],[16.07906623],[0.489371],[3.76481288],[-9.66151558],[-17.91630994],[1.7543638],[-4.10585736],[-13.07338756],[-3.10534693],[-16.14694258],[-2.30652751],[-17.51151259],[-6.27346142],[-9.08582332],[7.66425204],[-2.06630526],[-4.311636],[-1.88586561],[-2.1964293],[-2.46890979],[-3.09914445],[-0.54496933],[-9.91700812],[-8.75668174],[3.28386291],[-0.69574213],[-0.24240569],[11.98680812],[0.22634992],[4.46371008],[-10.00589999],[-1.04973878],[5.57791792],[19.29933908],[6.06962775],[-9.91127019],[-12.89419509],[-0.03104331],[11.11330715],[-0.24110736],[4.81118395],[-2.22291579],[8.33038076],[-0.67505173],[-4.43808054],[2.81972501],[-5.07623223],[6.97420719],[-6.19011247],[-0.90803298],[7.90529455],[6.09118036],[-5.94058145],[-1.46155243],[-1.78716974],[7.49006795],[5.84312963],[-12.36594527],[7.13305057],[-14.63997184],[-9.64775477],[19.14926807],[-3.57239375],[8.67661782],[-3.35016837],[5.7758009],[4.10544741],[-2.08693701],[-10.12662127],[-6.15001074],[-1.25910892],[7.08773652],[9.58881552],[2.01045984],[3.63901766],[-0.39286602],[7.83769214],[-14.27760106],[-3.60256397],[-11.1095726],[0.96467201],[-8.72463891],[-11.63046572],[-1.1173915],[-0.79262175],[-3.14484127],[3.01647415],[9.54035213],[-4.43314307],[3.38812931],[-10.44020212],[-3.74134222],[-6.18536127],[-3.44858956],[-13.96773126],[0.29248977],[-9.39620658],[-2.21521054],[1.65951894],[1.92989865],[-2.05606559],[-12.58230605],[-13.42847956],[5.32603555],[7.21626757],[11.5328186],[-3.94740479],[1.80579889],[6.98264612],[8.08268175],[-7.35827968],[-3.33286979],[16.70521761],[8.28046116],[-2.65378739],[-10.9026301],[6.96275074],[23.91159117],[0.88829021],[-0.19745652],[1.42150293],[-5.63255728],[26.38592536],[-1.74469641],[1.80920266],[0.],[-5.15399096],[-16.0550698],[2.61852714],[2.64868041],[-5.89747993],[9.84328003],[-6.72521931],[-8.58883761],[16.124278],[-6.49791699],[9.58542621],[5.82203594],[-5.60718114],[-15.34847762],[1.6807448],[7.59363974],[-7.92777208],[-0.4522302],[3.31051265],[-0.78172767],[3.66932981],[-4.44741949],[-5.93308479],[5.48694078],[4.7154913],[3.4164955],[3.33829668],[-0.37847254],[2.16460481],[5.94349343],[-11.77222236],[-2.12996953],[2.26699884],[0.15681632],[4.60172692],[-15.65636766],[-2.86473087],[-9.1667815],[-9.08360492],[7.98236195],[-12.45593275],[-1.51040952],[-1.23062225],[17.72252415],[0.],[8.04314493],[-14.74465667],[-17.9746787],[-8.83931182],[1.78913996],[10.9426968],[-13.16511832],[1.72140171],[-2.76456903],[-1.22263054],[-11.81407103],[-6.05419963],[-2.95096299],[-1.7867907],[-2.99019588],[6.35521012],[17.30483281],[2.11710886],[-8.08831025],[-12.06966647],[10.2693224],[10.62183085],[-1.22440101],[1.74577728],[-12.139004],[7.28394237],[-3.88095686],[-7.92941706],[-4.66977698],[9.11048535],[1.29809136],[8.181796],[-3.23708187],[-0.59984181],[2.17224824],[4.40814947],[2.27694252],[7.80574333],[-3.23828619],[-4.61471327],[2.28342901],[-3.55897432],[0.44414519],[1.78469081],[-6.93051439],[0.06934606],[-11.18604162],[-2.64690653],[-7.13717063],[-3.28113864],[-15.12376307],[4.42094019],[-2.81434712],[-8.49982628],[-1.7174961],[-10.09168294],[-5.31551937],[0.32189668],[-3.21207951],[10.20679355],[0.51137086],[13.73920411],[-7.51600137],[-1.19964092],[1.28821107],[-6.17687882],[8.96544067],[1.31368491],[1.4550249],[14.65117777],[-5.97058576],[-9.80189388],[-7.10147505],[-7.32705343],[-1.35568727],[-8.06651109],[-0.8487994],[0.99876199],[-9.51333944],[-4.41271635],[-4.72772222],[8.20795424],[-8.3085658],[0.8800503],[3.45036956],[3.25989631],[2.7209961],[-9.37471676],[-13.23008728],[-5.59269504],[-2.84007629],[-21.38636608],[-4.62710151],[-3.13526301],[-4.50927272],[-3.14212479],[1.61482155],[-4.42118002],[-8.4861956],[9.9938081],[29.98547637],[9.14308772],[6.46172287],[3.37436289],[-9.41947215],[-8.22536674],[2.85545498],[-6.38125139],[-1.64300099],[1.73088469],[-16.8963128],[-3.11456225],[-2.09884528],[-0.91141571],[4.18769376],[-0.51025388],[-1.15285139],[-5.33494827],[-18.51441403],[-7.71178287],[-6.14160579],[-3.69438931],[-1.58343533],[-2.12759509],[1.58001401],[4.93259587],[-0.21523696],[-4.05633467],[4.19569524],[-4.86873977],[4.18071539],[-3.94017229],[4.06724591],[4.63710739],[10.15500886],[3.07092756],[3.46370175],[-10.33625391],[-5.38879997],[10.25808192],[-0.79354864],[5.44611331],[-2.96570851],[9.09559187],[2.14846493],[1.79547644],[-7.92714323],[-7.33483776],[2.55865698],[-6.81359578],[5.42861878],[-2.991825],[27.59390646],[-1.76178529],[-7.11843482],[-13.23974717],[-15.28535679],[0.19490628],[-8.44888759],[-12.98035801],[12.32723686],[-14.79687141],[-21.17299257],[3.60933115],[-8.26314313],[-7.63087342],[-5.84196219],[22.54170176],[-14.94213773],[-4.17996878],[-16.85863718],[-6.89640854],[6.19590825],[5.10995651],[-9.59556117],[-10.96706379],[10.47331996],[6.86682751],[1.90586615],[-5.48998346],[3.16668695],[-9.22579084],[-5.21428584],[9.62073009],[-11.94932582],[0.22976034],[4.3719449],[3.63295886],[-3.87898586],[18.20621137],[-3.26971605],[-1.46200443],[14.13295244],[-2.66968017],[-2.44050688],[2.81847236],[-9.56671962],[9.2730353],[-0.36267802],[3.16151078],[1.47720551],[5.71391287],[1.65913841],[-0.16079109],[-0.58170858],[1.00588919],[-1.5664624],[1.03084889],[-4.85237262],[0.03143325],[-5.70967874],[5.09059595],[1.85580723],[7.98093585],[4.15642681],[-13.89613205],[-5.37318441],[-13.03973748],[0.77448123],[21.9453225],[11.27224153],[7.99339839],[5.29030603],[-3.03445684],[6.98829709],[-1.58263305],[8.41371464],[-5.54859243],[-10.03834531],[-13.05714193],[-7.89099828],[-3.70307013],[-1.09265242],[-6.01121392],[-0.63720346],[13.79462202],[14.26261784],[-7.26100984],[5.76371816],[-15.9315322],[8.16440223],[-1.471242],[-20.86488714],[-10.39376956],[14.65055369],[-3.36711032],[-4.81764127],[0.9083517],[2.30844993],[3.12534287],[-10.45365198],[-1.84172695],[2.23569856],[-7.4182457],[-1.88351765],[4.10504487],[-0.88538026],[2.04534882],[-14.61918509],[3.23760889],[1.80382611],[10.48660133],[3.6283544],[13.20409267],[-12.10834815],[-5.21208366],[7.98519557],[-10.20910808],[-1.72976032],[-2.87704433],[3.22923767],[16.45002913],[-4.85294061],[-10.37340918],[1.6666961],[3.29457825],[6.25806166],[5.98135217],[16.35950696],[1.42090755],[-11.6411292],[-11.55235903],[0.34131237],[-15.34809534],[2.54382725],[17.90823733],[12.8892473],[-10.93968765],[6.76812103],[15.43276553],[4.35455013],[-6.11206467],[-7.24631917],[0.],[9.6465532],[-5.62291482],[5.04871877],[-4.98315238],[4.40289933],[1.19650349],[5.23190882],[1.25992698],[7.32608233],[-9.98435847],[5.30386799],[5.23728513],[-7.93098172],[0.20840762],[5.62978025],[-8.43993142],[0.19206822],[-2.32234736],[2.31911717],[-2.85427645],[6.85162129],[-1.35138242],[-0.20278617],[2.59113807],[0.],[-3.28581529],[13.40149715],[-5.42875675],[-0.24906568],[4.70113597],[15.62805495],[3.03173419],[7.36988244],[1.60278318],[-1.27522005],[6.63745307],[0.66168721],[19.7629635],[3.45094585],[3.34329884],[0.55486016],[8.78635616],[-11.83237648],[-1.74692843],[-0.76451464],[-9.46023073],[22.08208631],[2.89812616],[-1.69018338],[0.03674878],[-7.3308124],[-2.29473681],[4.46064617],[5.04461803],[-1.83841919],[1.09522225],[9.29185195],[8.20702495],[-2.31977826],[5.06532438],[-1.28567218],[0.61176917],[-16.32546268],[2.84245408],[-3.70712575],[3.10867604],[-5.10533354],[-5.2816194],[2.03789653],[-4.85935135],[-26.722741],[9.18805516],[-1.56027264],[-13.32037525],[9.58375665],[-3.63535211],[-16.40907073],[4.73531227],[-5.17404782],[0.],[7.92044555],[5.31995993],[-16.9321719],[-5.60817561],[-2.24602927],[5.59067207],[-0.22013358],[-14.63122979],[-0.38802885],[1.73882811],[-3.45636633],[-7.78223376],[0.90767033],[2.66122453],[7.78939363],[1.37793919],[-10.69235544],[-13.85719021],[-8.80288174],[-4.48652529],[-5.41091683],[-10.27955236],[2.16515302],[-4.21597697],[3.4363534],[24.49337058],[0.46812576],[2.0661086],[3.01610068],[9.59762847],[-2.09780723],[-5.07454713],[-4.99417998],[-2.21506013],[-2.23946073],[4.14387792],[-0.01577673],[-3.61601682],[5.24520008],[13.92150888],[-3.41628251],[4.29612559],[1.43756766],[1.15678618],[-1.12337343],[-4.32008681],[-0.91363401],[4.76639464],[16.82415222],[0.36147971],[-12.81647783],[-4.89691884],[-10.51514442],[0.52947558],[6.06098383],[-0.0681521],[1.63828979],[-1.33722066],[-1.26867376],[-1.45911449],[-4.85595102],[-13.7549646],[4.92097448],[1.62337687],[3.76615727],[-7.45925409],[-0.91801362],[5.01502367],[-8.53557],[-5.391668],[5.17246293],[-1.37095074],[-4.82104837],[0.60301462],[1.05657499],[-4.85124453],[-6.00990949],[-4.26751444],[14.49949537],[0.96621743],[-9.32622672],[9.63712629],[8.69964752],[-12.17859359],[-14.23970628],[6.60662781],[-3.08827109],[-7.11210732],[7.29462321],[2.01098956],[-4.89530483],[1.69718609],[9.77509592],[5.72957916],[-1.24059992],[2.94131958],[0.83763457],[1.78554038],[5.141495],[-8.06164892],[-5.51554593],[-3.27615229],[1.07836533],[-6.91865336],[11.73444322],[-0.86144042],[8.22359867],[11.81191395],[10.94617272],[0.32489586],[-0.62260518],[-7.29631978],[13.1110444],[-6.53256105],[12.9087934],[-1.11832825],[7.94227744],[5.50466529],[0.98992852],[-14.16057713],[-0.42182893],[-8.22194607],[-14.38906752],[-13.24019426],[3.03773456],[1.48989366],[-0.77904154],[0.72988286],[-9.39900209],[-1.30746368],[6.38701699],[3.16317132],[-3.50727681],[0.],[1.63558323],[2.57628194],[-7.99530352],[-1.24482443],[0.16922576],[2.3383295],[6.25546336],[1.22908816],[0.57208616],[-10.65390658],[-3.40554103],[-10.61465339],[5.55351399],[4.95738685],[-3.46587023],[-1.59059361],[-13.97859066],[3.58552558],[-4.18934695],[0.32543181],[-11.07949211],[-5.93746904],[-2.52693276],[2.79615132],[-6.5250398],[5.06259847],[-0.30749047],[5.73578599],[-6.50433473],[-3.54090457],[11.37434908],[1.93736313],[-0.60253995],[-0.20880948],[-12.38275312],[-6.56703608],[9.27338688],[0.28332829],[0.57397295],[3.2748605],[-2.22829625],[-9.50976784],[-4.35875053],[-0.25528094],[-7.72179278],[5.6722412],[2.82622431],[-5.56842914],[-4.07611289],[-7.24051206],[-13.05108543],[2.02588278],[13.07075507],[-4.02784403],[-11.614022],[-2.11338437],[-9.74574993],[-0.65904147],[-3.9094712],[-13.26148934],[1.321952],[-5.44019872],[5.91971945],[11.26704307],[2.87261254],[2.28246545],[1.01282029],[0.88917521],[-10.38212696],[8.35317736],[-0.65070332],[-0.80511335],[-4.88893027],[-12.05245653],[7.59438788],[5.12892147],[0.25987957],[4.34138424],[1.70021401],[-0.21661666],[-0.96423813],[6.51190856],[14.50584895],[8.94770213],[-12.57073395],[2.64829405],[-2.80610547],[-2.90024712],[5.76618139],[-6.25387159],[9.32521588],[-7.51488994],[3.86312102],[2.22823244],[2.55597475],[26.01338957],[-8.69118831],[9.44912913],[16.67153455],[3.12290037],[5.35816666],[-8.09165722],[-19.13496755],[-3.07339699],[-4.58202432],[-6.3222598],[-4.42363507],[9.09700735],[1.39156269],[-9.71359362],[16.69503307],[-1.68610976],[11.32346304],[-1.71955397],[-7.68574813],[2.38413206],[4.68348073],[-4.09725535],[0.69248651],[1.45849895],[-4.40979537],[-9.17265162],[-0.34819498]
