[-0.66343288],[8.19481231],[2.2873964],[-1.47261303],[-0.40926436],[-2.19784703],[10.6444191],[-1.44522561],[-0.76982025],[-1.28601772],[2.0845561],[1.49000179],[1.96591441],[-0.76433268],[-0.6229035],[2.36202732],[-0.20256026],[1.68379576],[-2.55295932],[-0.89537662],[-0.98381596],[-0.086515],[1.00208902],[0.],[-0.76433268],[-1.54996909],[2.43477855],[2.36981946],[-0.65745271],[0.],[0.37836967],[-0.81243762],[0.1358695],[-0.90895123],[-3.85154355],[-1.97612535],[-1.70433884],[-0.78335522],[-2.47020165],[-2.94132793],[-0.8330092],[-0.44954056],[1.39601859],[2.43477855],[-5.41067463],[-0.56721829],[-1.35044954],[-0.44954056],[0.18574427],[1.8077697],[-0.8954081],[0.53862697],[-1.41770036],[5.50648027],[-0.42518869],[0.],[-0.54722372],[3.95679712],[-0.76982025],[-0.67032319],[3.37481186],[0.],[-0.58095058],[-3.24129438],[5.46454271],[4.8857201],[-1.89835789],[-2.92820156],[-2.71072456],[1.68379576],[0.],[-1.21470647],[-1.02402219],[0.],[-1.76489866],[-3.21882854],[2.57887061],[1.62434061],[-3.21882854],[-0.78311454],[-1.46936945],[-3.04741524],[3.38572944],[2.62858238],[-1.38239124],[0.],[-1.94273135],[2.23266498],[-4.3097561],[0.],[3.78622127],[1.02458038],[-0.31131887],[0.62779938],[-0.97781721],[2.52263672],[0.3493024],[0.24482322],[-0.21046666],[-0.7370139],[3.59052376],[0.61307962],[-2.04830928],[-0.31265934],[-0.97136568],[4.70000665],[0.39763693],[-0.73465471],[1.341793],[0.],[9.62950507],[-0.5122957],[3.66370697],[-0.87813657],[3.77515453],[-0.96798536],[0.],[1.46276704],[-0.35064389],[-2.97210919],[-1.26398082],[-0.38472766],[6.62297278],[-1.40969498],[3.27088542],[0.01415031],[7.12708533],[4.21196464],[4.85383622],[1.41566178],[-0.37949321],[0.],[2.00319671],[1.25162344],[0.61217028],[-0.56483816],[2.16707233],[2.54025474],[2.47717786],[1.05831336],[1.78104461],[2.93167283],[-2.03465822],[-1.20574441],[-2.09129686],[3.8477412],[-0.51736775],[-0.50589661],[-2.15190833],[0.],[1.71085872],[-0.52536254],[0.43543252],[1.71682819],[-0.61086441],[6.1213699],[0.83329507],[0.55553269],[0.86312535],[0.],[-0.80406691],[-0.95629944],[1.72640578],[1.40091614],[1.69932823],[3.96321265],[4.75053719],[0.25035843],[0.51803555],[1.12733553],[0.32832039],[-1.50365108],[5.43214956],[5.07574853],[5.49182903],[0.79120289],[5.42555355],[-0.55654163],[0.],[0.5520331],[1.61291375],[-0.38472766],[1.86692449],[2.69324515],[-1.32959356],[3.78108791],[0.89623589],[2.03443474],[0.4258016],[5.48897917],[0.],[-0.71535467],[-1.17246875],[0.40469914],[-0.65750485],[-0.33199057],[-2.22471228],[0.4258016],[-1.04214748],[1.62434061],[6.78491161],[5.95168343],[-0.90651278],[-7.12685497],[-4.63325819],[0.92928262],[3.64365852],[-2.17507157],[1.7465083],[1.68780869],[-1.06233764],[-0.35722819],[-0.89261398],[-3.76428047],[0.65881915],[-0.56442225],[3.77322571],[-0.37458252],[3.41052248],[0.56873475],[-0.0789214],[-0.59445436],[0.],[-3.76272305],[-1.32463504],[2.21983859],[2.94310313],[2.86519997],[-1.47732911],[-1.00338338],[0.],[2.10879494],[5.80929291],[-1.2551859],[0.87399988],[3.84151433],[1.02971566],[0.],[2.71692036],[2.54144273],[-3.93875283],[-5.37020289],[1.70860937],[0.],[-0.98381596],[1.35368925],[0.28000471],[-2.92403363],[0.94191189],[1.23243399],[-2.53870146],[-1.70433884],[5.1784851],[0.],[2.70820943],[-0.33199057],[1.54731343],[-2.16627408],[1.24730114],[0.2002774],[-0.43205742],[-5.45237675],[9.95098959],[-3.97935892],[-3.47242252],[0.5173425],[-1.53057183],[-1.40026118],[1.35368925],[-1.76749257],[-0.62824342],[-2.94721909],[0.],[-1.25190318],[2.54083423],[-1.47858198],[-0.99354793],[-1.57543144],[-0.72984699],[-2.73618601],[-3.95975895],[-2.28989397],[-0.90915307],[0.5075651],[-1.54496836],[1.0449031],[-0.33199057],[-0.50414925],[-1.25084347],[-0.11940295],[-1.67876885],[1.56221551],[3.99782645],[1.42755663],[0.],[3.14847404],[-1.38968151],[2.97562905],[-1.15462693],[-1.76489866],[0.5393291],[1.92497056],[-8.99271356],[-0.37426337],[-5.85552284],[-1.48226183],[-4.00326829],[1.62434061],[-4.3097561],[-1.69117686],[9.50388021],[-8.91262735],[-1.88817995],[-0.33658925],[0.25078859],[0.],[1.52695632],[0.],[-0.6229035],[0.],[-0.18259067],[2.39445127],[2.27445473],[-0.14204104],[-9.51479938],[2.97562905],[-0.1305907],[3.63154021],[-0.45918869],[0.],[-9.61086284],[-3.82978703],[0.88684577],[-1.83351981],[0.55070287],[-0.91119906],[0.],[-0.72395539],[-4.3684073],[-3.73186796],[-1.40253202],[0.49543921],[0.],[0.],[-0.90651278],[0.],[1.10132423],[0.83179401],[-0.35214205],[-1.12084467],[3.60469399],[-4.04510604],[1.37571221],[-1.75696716],[-0.66993913],[0.],[0.],[0.],[1.0778389],[-0.79104417],[0.27187034],[-1.90743535],[1.37985471],[0.87684475],[-1.6970247],[-0.12834965],[-0.80912804],[2.62083068],[-1.75692504],[2.07880308],[-0.61251876],[0.],[0.99933501],[0.],[-3.10814697],[1.34717976],[1.82020069],[0.],[1.77606713],[12.19460231],[0.82289797],[0.],[-0.77124269],[0.7482363],[1.02971566],[3.69480831],[-2.18735006],[-0.63924752],[-1.1092353],[1.56115773],[-1.93239731],[-1.18598848],[-1.2642224],[-4.16755806],[-0.23449814],[-0.99892042],[4.89814266],[0.05812509],[2.43477855],[0.73745339],[1.65712982],[-0.82613668],[9.62722373],[-3.3574311],[-2.08624042],[-1.06233764],[0.],[-1.83520004],[0.28247776],[-0.30614188],[0.45318435],[-7.50955666],[0.29660057],[-0.37949321],[-0.4337182],[-1.87784849],[-0.71535467],[0.50997571],[1.69994356],[-0.3184198],[11.21046778],[0.39900353],[-4.18255409],[-4.89374602],[-2.06699741],[-0.59427282],[-3.82536941],[0.],[-0.34021733],[-0.42261493],[-1.95596184],[0.95988201],[-0.17915118],[-0.64128985],[-0.95615863],[0.],[-0.59616913],[-13.02858761],[-1.19801186],[2.04273864],[-1.6907585],[-0.89261398],[2.04453362],[-1.7286323],[5.2793673],[2.20238356],[-3.45192406],[0.79985398],[-1.61614917],[-5.14272819],[-0.29366807],[-2.38539592],[-1.76749257],[-0.82606398],[-4.26702508],[0.],[1.3093127],[-2.33006169],[-1.46630247],[2.57045967],[-2.34993657],[3.19457502],[1.40678077],[-6.03141176],[2.5820416],[0.41425588],[-0.18259067],[-0.75492602],[1.40829045],[-0.2417199],[-0.35593452],[-1.19057976],[-0.88072982],[2.69295266],[2.17327002],[4.54485667],[0.],[1.0045256],[-1.37748963],[1.58301351],[-0.71057246],[0.51079763],[0.07616287],[2.39445127],[-0.1305907],[-3.50169645],[-3.09712775],[-3.80939825],[2.88808899],[2.04273864],[9.20575035],[-3.10136527],[3.14847404],[-1.69064004],[-0.33380527],[-0.59364261],[-3.13195378],[-0.42610277],[0.],[-0.34267814],[0.],[-0.39907164],[-1.98336721],[0.75004686],[-2.10385926],[-0.14086682],[0.],[-2.67573716],[-3.31682914],[-0.71528095],[-0.23849282],[-6.50227227],[-1.56046655],[0.],[-1.85953944],[0.82959738],[0.],[1.47495435],[0.50997571],[1.55855572],[5.9798303],[10.19163045],[1.62434061],[-3.20969063],[1.18205232],[0.],[-2.41085579],[-3.68856672],[-0.37997559],[1.22691218],[0.86333777],[-0.31866457],[-0.38427809],[1.11743436],[0.98775129],[-2.39838447],[0.],[0.],[-0.05125127],[0.25829042],[-0.98643769],[-2.01197738],[0.24482322],[-0.76138635],[-0.91500318],[-0.37281143],[0.],[3.12800561],[4.10468405],[-0.8906887],[-0.41658053],[-0.36799259],[7.59694787],[-0.48796497],[1.24157159],[-4.29487183],[-1.60376982],[-2.87426485],[-2.98051107],[-1.67228789],[1.31973832],[0.],[-2.4345791],[0.],[-1.55832084],[4.96022433],[0.],[-2.58720035],[-2.7800421],[-0.47975373],[-3.12447325],[-1.5980839],[-6.9841193],[-0.10965348],[-0.89071319],[0.8032713],[-4.58422593],[-0.78335522],[0.],[0.04751649],[0.59439923],[0.],[-0.42077022],[1.29916758],[0.],[-0.61050448],[0.],[-0.62165933],[0.99877599],[-1.81166369],[0.32171958],[0.],[0.],[-4.11685935],[1.15716856],[0.40469914],[4.86317331],[-1.02355085],[0.67766965],[1.52695632],[1.40829045],[0.15898809],[2.88808899],[0.50997571],[1.12697193],[0.],[-5.78203382],[-3.20534694],[1.55064537],[0.],[-0.52825868],[4.94188298],[-0.17915118],[-2.62817155],[-3.43139821],[2.82089543],[-0.65245403],[-3.17304712],[-0.36676022],[1.22875574],[0.],[-2.09145342],[0.83720855],[-3.51337655],[1.68780869],[8.69015],[-1.01581262],[0.],[1.77417126],[2.00404609],[2.06120877],[7.25779233],[-0.4943623],[-0.54679809],[-2.91656877],[-1.68708573],[-2.23195526],[9.12615538],[3.96296342],[4.75728437],[0.5075651],[-1.00504852],[0.26742542],[-0.68641992],[-0.61949435],[-5.7750751],[-0.53419017],[-0.45129232],[0.],[-0.78311454],[2.35451166],[5.43214956],[-1.39181767],[2.52263672],[3.69386632],[1.60506417],[-0.67658617],[1.23064333],[2.69658651],[0.41852698],[-0.93746177],[0.6760963],[0.6893013],[-1.2426962],[2.59110652],[-1.28795006],[0.31482889],[-0.48047508],[-2.31318381],[0.27275648],[-2.77053992],[-1.29459719],[0.96324298],[-4.05933124],[-0.98961435],[-2.89504397],[1.54537698],[-0.58095058],[5.25202218],[-0.2512629],[2.86932795],[0.83927351],[2.94379784],[-3.48618548],[-1.36995554],[1.22863352],[-3.85657661],[4.87319623],[3.25006579],[1.74396941],[3.91888201],[0.63289425],[1.79320028],[0.49775026],[-6.25312418],[0.46984914],[-3.27419992],[-3.83512874],[-1.77097238],[10.22753071],[0.75976831],[0.88684577],[2.07880308],[-0.58095058],[-1.28132497],[-0.64567645],[0.],[-0.75799144],[-2.20567315],[0.],[1.78019618],[-0.44397104],[-1.88129614],[-4.19505974],[4.36659933],[-0.47994319],[7.55667409],[-3.52979731],[-0.44065095],[2.0891245],[-3.3957226],[-0.23016727],[-0.44444968],[0.],[-1.55053965],[-2.38539592],[0.9606713],[1.35249836],[0.],[-0.82606398],[0.],[-0.55183552],[1.51783606],[1.32302127],[2.34025617],[5.50053594],[6.18269586],[-0.81784916],[-4.0131461],[1.02559012],[0.],[-0.67127805],[1.05831336],[5.67712384],[0.89169312],[-0.39841352],[0.],[-0.10107457],[7.31514762],[6.1213699],[-2.8854265],[4.57839687],[1.35249836],[-2.46298137],[-1.27310704],[1.40069887],[1.22691218],[-1.4789828],[2.69658651],[1.78404049],[1.71085872],[-0.41710541],[0.],[-2.0512538],[0.],[-2.62072719],[0.43287541],[0.49543921],[-0.99771332],[0.],[0.],[0.],[0.],[-0.46019729],[-0.32457026],[-0.7111694],[0.],[0.89052089],[0.26083455],[-1.38968151],[-1.87232952],[-1.47769304],[1.09326182],[1.45990285],[-1.40118729],[0.55556973],[0.],[-4.21083512],[-1.17459175],[-1.45686399],[0.97981665],[4.25302139],[11.24390919],[5.59440005],[2.43477855],[0.31482889],[-1.26974726],[-0.46497079],[1.29956834],[0.2392608],[-1.01581262],[0.65349217],[-0.64128985],[-3.48978088],[0.],[-0.98547252],[-0.98547252],[2.18711355],[2.88808899],[0.],[-0.51427818],[-1.68499486],[2.52407569],[-3.43742954],[-2.88510651],[0.],[-2.14782403],[1.29077605],[-2.41399598],[-0.23449814],[-4.0852885],[1.33579407],[0.27275648],[5.08405883],[-0.55104096],[1.87984369],[-0.71129721],[1.65881197],[-3.18104912],[0.],[-1.8924124],[0.],[-1.4205427],[3.11238946],[-0.69103858],[-0.58529382],[2.16088795],[1.22715963],[0.6204838],[0.],[0.49000394],[1.51422126],[-1.01581262],[-0.943023],[1.51877223],[-0.58561624],[1.61923664],[3.11122619],[-0.8330092],[2.15735828],[1.25208425],[1.55490998],[0.],[-0.19162108],[-2.05141766],[1.49523473],[2.07326496],[-0.64472913],[1.47904149],[-3.80121568],[1.27041711],[-0.35593452],[0.40806092],[0.42899187],[-2.63892497],[-0.12397368],[0.78132087],[-3.12803075],[-3.19072139],[-0.36456299],[-0.41807163],[-0.43810126],[0.4923861],[0.],[0.93656447],[2.2219671],[1.32302127],[0.40910756],[-1.0889499],[1.69994356],[-4.01719098],[4.34288883],[1.29956834],[-0.44065095],[1.1865876],[3.38572944],[2.41023416],[-1.65748472],[0.16305437],[-0.91323855],[0.83720855],[-3.22273938],[-0.19675164],[-2.41085579],[-0.68144241],[7.17882177],[-0.68144241],[-2.3880656],[-0.16139368],[7.39768266],[1.79867005],[-0.20536154],[-1.76749257],[-2.02917188],[-0.12404599],[-0.18259067],[-1.65532445],[-0.52117804],[-0.29998026],[-1.84102853],[-0.3184198],[-5.87471617],[1.10140575],[0.],[-5.60373549],[-3.05513247],[-0.98517455],[-0.23016727],[-1.59959251],[0.08340094],[0.],[-0.50513333],[-3.18776567],[3.3655872],[0.],[2.71061503],[-3.08006183],[-1.58208834],[-3.06787579],[-0.13512143],[-0.42701128],[1.72620263],[0.],[-1.76145965],[-2.20129739],[-1.8924124],[-1.94831864],[-1.74309274],[4.86875023],[0.],[0.],[-6.96461084],[-0.37291408],[1.27041711],[0.],[0.],[-1.44522561],[1.09326182],[3.63156219],[-0.75445417],[-0.49995156],[0.],[-0.77961419],[3.57224857],[2.42774882],[0.68451497],[2.9326368],[1.11906638],[2.07880308],[-0.29904864],[0.26742542],[0.],[-1.37259764],[0.45318435],[2.81615459],[0.],[1.11906638],[1.39952419],[4.10468405],[-1.2563465],[0.],[2.0247838],[0.],[1.6491294],[0.39243938],[-1.79903351],[-2.76381749],[-0.46782984],[-1.49728479],[0.],[-0.29366807],[8.51258054],[0.71976308],[-2.51376256],[-1.47680589],[-0.56546655],[0.],[3.95679712],[0.724841],[-2.00964965],[0.],[0.],[7.61104507],[7.48590811],[1.40829045],[2.81053362],[-0.64413244],[1.81958552],[-0.80095915],[0.76025693],[1.22622449],[-4.3389673],[4.89595278],[7.22256778],[0.88684577],[1.03041942],[1.40069887],[2.03839471],[0.89351222],[0.],[-0.64572373],[0.91911116],[3.86289363],[-0.00482227],[2.63747417],[-0.90768311],[2.07880308],[0.79985398],[-2.43033105],[-0.82700204],[1.03271471],[-1.31815287],[-0.13649953],[-0.44065095],[-4.62961848],[0.99390113],[-3.43742954],[2.66110285],[3.4306517],[0.],[-0.76151931],[-3.03395078],[0.],[0.],[-0.96200065],[-1.26900482],[-0.49885965],[0.],[-0.95629944],[-2.17247146],[2.69658651],[0.],[-0.31131887],[7.59748061],[2.08731872],[0.],[-0.56546655],[-6.60762189],[0.],[0.],[0.],[1.54293476],[1.69733194],[0.],[0.79985398],[1.21808723],[-0.76163061],[3.22338973],[-0.59445436],[-1.0231465],[-1.5115283],[-1.37748963],[0.49391114],[-2.33591092],[-7.93145165],[-3.65796813],[-4.77172093],[3.24374006],[0.3493024],[0.],[3.5446948],[-0.89357014],[0.99877599],[3.13099926],[0.84821287],[-2.55083257],[-2.58893394],[1.15298097],[6.27386651],[-3.43742954],[-1.71401979],[0.87684475],[-0.4513802],[-0.56657825],[-0.22093789],[0.],[0.],[-0.79618427],[-1.1104278],[0.5075651],[3.40847535],[1.56783737],[0.41122751],[1.52084018],[-1.21654283],[1.34286572],[3.84076147],[-1.36987198],[5.50562978],[3.64028858],[0.],[2.7175652],[-1.5115283],[9.10298902],[1.71161408],[-0.31510589],[-1.58701865],[-0.64128985],[1.22875574],[3.10066735],[-9.18896424],[0.],[-2.97089941],[-1.18598848],[1.22077178],[-1.48536075],[-8.35678565],[-2.57013249],[-1.85500149],[-0.34737754],[-0.65600301],[0.],[-0.44444968],[-2.49301172],[-2.20640935],[-5.38360239],[-2.65522021],[-0.86790267],[-1.31767065],[0.82004455],[1.76086548],[-2.95373552],[-6.69215625],[-0.68065768],[-2.82163426],[-1.45502489],[-0.68932667],[-6.10418549],[-6.1279685],[-12.62641172],[-1.47482756],[-0.14940632],[-1.46738741],[1.44776922],[-1.31288556],[-1.9961687],[3.72433924],[-0.63543743],[-3.46728604],[-0.55426471],[-1.2190337],[-1.37818643],[-3.87166027],[-3.47960763],[-2.01673159],[-5.85350032],[-4.77982548],[0.31482889],[-0.31131887],[0.],[3.71661084],[-4.31178075],[-0.84583263],[-1.42690347],[-6.71914746],[-1.36973915],[-1.04374837],[-0.33482803],[4.63357566],[-2.09129686],[-0.11449071],[-0.56721829],[3.04950043],[-0.20536154],[-2.99648331],[1.71085872],[1.61121061],[2.34022595],[-1.61866084],[-0.51572245],[3.07370398],[-8.97419099],[0.],[1.26747467],[-1.79939357],[-0.41807163],[-1.1751929],[0.31482889],[-4.58113973],[0.57212799],[-0.36820433],[-4.16790488],[-1.4205427],[-1.67285547],[-0.33482803],[-1.28827881],[-2.4522417],[-0.62762324],[0.],[-3.0688282],[-5.03026201],[2.63484979],[0.79365559],[-0.90915307],[0.84231092],[2.20238356],[1.62434061],[0.55070287],[-0.23449814],[-2.53965827],[1.58886014],[-2.88411392],[-0.52120795],[-1.62858444],[0.65101327],[0.70980787],[-0.29210475],[1.09326182],[0.31482889],[1.0237485],[0.],[0.49775026],[-1.96050633],[0.],[0.],[-0.3555067],[-0.51736775],[-0.46782984],[-2.1389949],[-0.7370139],[-2.09129686],[0.],[-0.17915118],[-0.57049038],[0.],[-3.87033123],[6.2291578],[1.84952332],[-1.65375947],[-4.66700795],[-3.13988382],[0.96545718],[-3.58867433],[1.27877645],[0.],[0.],[0.06013237],[1.53854526],[-4.02633663],[-0.91608279],[-0.83364009],[0.],[1.37571221],[1.56040295],[2.84483267],[0.87183363],[0.],[0.61333334],[1.73641851],[-3.16982996],[0.],[1.52084018],[-0.01117945],[-5.41076146],[-0.42821583],[-1.54359116],[-0.5183726],[0.69068079],[2.34747673],[1.12963106],[-0.26351008],[-0.98517455],[-1.91974104],[0.71043646],[5.37606506],[0.46806258],[-8.1850816],[-2.99775433],[3.55012019],[4.48884371],[5.05227939],[-5.81292937],[-0.7559422],[-3.26019037],[5.47899548],[-1.56046655],[1.32302127],[-3.555224],[0.],[-3.32515727],[6.97213233],[0.],[0.],[-2.76736104],[3.45987464],[-2.38539592],[-0.89357014],[-1.49323782],[-2.72260465],[-1.6633781],[2.42619158],[0.],[2.72186646],[-0.60659375],[0.],[0.],[0.55070287],[5.09703452],[4.85383622],[-0.18259067],[1.92497056],[1.06441406],[0.],[1.77417126],[0.40469914],[0.],[1.34286572],[0.09482371],[-5.42404409],[0.],[-1.1177972],[-4.4325657],[1.22691218],[0.65489344],[2.60065876],[1.61847243],[-0.58095058],[-0.37291408],[-1.40969498],[-0.47994319],[0.],[9.15357362],[-3.39433573],[-5.54975365],[1.29916758],[0.31482889],[0.91691484],[0.29309053],[1.38356607],[-1.39838932],[2.07484422],[-2.16627408],[-0.72454623],[-2.05141766],[-4.04008679],[0.31691633],[2.40338051],[-1.36576576],[3.09498181],[2.83365068],[9.73923642],[-1.79175985],[-0.22196376],[0.51268022],[-0.33482803],[5.65851537],[0.],[1.39736265],[-2.02635424],[-1.40091475],[-0.91107899],[-0.17251833],[2.52218574],[-0.41936026],[0.41852698],[1.22875574],[3.16394948],[-0.42399861],[2.01514396],[-1.10709087],[1.4106704],[-1.01581262],[1.49523473],[0.87684475],[0.98449005],[-0.98547252],[-0.7062351],[-1.49592173],[1.40069887],[1.98780225],[1.16577262],[0.],[-0.43205742],[2.13002375],[-4.80281761],[0.],[0.],[0.91496887],[-0.33922473],[-0.7213148],[4.95400334],[3.11238946],[0.79360851],[-0.2396045],[7.2223407],[-2.09064965],[-1.48161122],[2.33337333],[2.23266498],[7.11916722],[-0.943023],[-0.56236215],[0.],[0.],[0.84961173],[4.70837822],[11.92026892],[1.70330705],[1.31137832],[-1.2836181],[2.5984537],[-0.54486115],[0.4375486],[0.73910146],[1.63276088],[4.69131568],[-1.3663066],[2.72511705],[-0.79108606],[-0.84234022],[-1.06259212],[-0.31265934],[-0.58095058],[6.27386651],[-0.33199057],[0.56182626],[2.35451166],[-2.20115244],[0.77450067],[-2.32776754],[1.52357619],[-2.10533555],[2.91642202],[-4.06587719],[-0.76981806],[-0.67950378],[1.86213494],[3.20537134],[2.28179386],[-4.13525451],[3.28148538],[2.03687348],[4.12551962],[-4.13726154],[4.7232754],[-5.75173228],[-8.55111365],[-2.02447057],[-0.02084214],[4.58990339],[-0.9340661],[-1.6907585],[6.23240007],[0.62819161],[-1.89384146],[5.96591128],[2.77184938],[-2.16775804],[-2.4893862],[1.89020905],[7.83270141],[-0.92178865],[-1.48556348],[0.01468528],[2.67852368],[-2.23071403],[3.81836011],[2.16286553],[-1.32469901],[-0.69483521],[7.67476408],[0.74216174],[-4.89023552],[1.23169945],[-0.78560665],[-4.85099887],[-0.07199992],[1.01073287],[-2.61030645],[-1.83008126],[1.94043766],[-0.35580986],[13.08925418],[0.13639845],[-0.11893267],[-2.29376119],[1.6988033],[4.77085405],[8.54632281],[-0.73232487],[1.36873288],[3.36800081],[-8.14300601],[-3.62018352],[2.36244981],[3.10828255],[2.51509231],[0.5658653],[-2.59590314],[-8.01479223],[0.],[-2.91503007],[-2.89423573],[-1.23884086],[5.5275025],[-0.66315479],[-3.44498608],[-3.46214825],[-0.22235674],[-2.5103718],[1.4106704],[-0.12175589],[-2.91298645],[-0.12563232],[-1.19101786],[0.69156691],[-10.63992942],[0.52705509],[-3.62131743],[-9.04243574],[1.50906755],[-2.2316292],[3.22529843],[-1.82392867],[3.88539842],[-0.44065095],[1.75308553],[-1.02216826],[0.],[-2.23195526],[-0.76982025],[0.86857213],[2.84578271],[-1.6660458],[1.23243399],[0.62661498],[1.34286572],[0.],[-2.19566101],[-2.0267706],[-2.62072719],[-2.36066721],[0.],[1.40829045],[0.],[1.11170525],[-0.74088403],[-2.34993657],[-2.55741761],[-3.40620585],[-0.15895591],[2.85964449],[-2.19960751],[1.01475496],[1.59027955],[-1.43578113],[-4.01128229],[-0.64399847],[0.49391114],[-1.65697365],[0.],[-0.81773595],[0.],[0.],[-1.66570781],[-1.85953944],[1.930307],[-3.6809598],[-2.15735529],[1.71682819],[3.3936166],[1.22691218],[2.73120384],[0.90637723],[3.5431569],[6.35509239],[0.],[0.],[1.52113455],[0.],[6.81660493],[1.97544641],[2.83050365],[3.36576205],[1.78104461],[-0.70041053],[7.98418471],[-3.37947074],[0.],[-1.01581262],[-2.82817969],[1.37985471],[-0.62762324],[0.],[-2.44102544],[0.83179401],[2.54749595],[1.40069887],[0.],[-0.59427282],[0.65489344],[2.26086369],[0.95443077],[1.29916758],[2.30721154],[2.97562905],[-1.12414683],[0.],[3.13005185],[3.00484945],[-0.97136568],[0.4258016],[1.03177784],[0.],[-2.05141766],[2.24352755],[0.26311126],[3.32923766],[0.40363854],[-1.22419946],[0.],[-0.18259067],[-0.33380527],[0.3493024],[3.83213998],[-2.28767721],[2.7175652],[3.80960312],[4.84147203],[0.96096992],[-1.62170354],[4.38637416],[0.37404151],[1.68780869],[-0.28531991],[0.57956648],[1.02458038],[1.56040295],[-0.35214205],[0.],[1.96414498],[0.],[-0.84793738],[-2.07333909],[-3.1470401],[-4.43349672],[-0.56601396],[0.],[-5.43361998],[-4.80278385],[14.67434115],[3.30093834],[0.],[-0.26133455],[-1.53057183],[1.52113455],[2.48486236],[4.46212897],[-0.18259067],[1.84952332],[2.46515742],[1.70860937],[-1.77996358],[1.40829045],[-1.17523158],[1.34286572],[0.],[-1.78724665],[1.96591441],[-5.12131232],[1.97544641],[-0.37102678],[-0.37159726],[21.20088865],[-4.1685325],[1.4053563],[-0.31131887],[0.],[-2.38066675],[0.],[0.76025693],[1.56783737],[-1.09054586],[0.],[-0.89537662],[0.79985398],[3.84291474],[1.49523473],[-0.44954056],[-1.83351981],[0.],[-2.0944642],[1.20557386],[0.],[-5.95935592],[-1.64895795],[-3.41512412],[-4.88265422],[-1.64807624],[-1.79524877],[2.67738705],[-4.71141843],[4.87253218],[-4.93022262],[9.00729937],[4.25851546],[3.47220554],[-1.28213225],[-1.75631723],[4.88722538],[7.89765071],[3.49853107],[1.86728266],[0.59521139],[-7.71541686],[-3.92989133],[2.70800741],[1.48955373],[1.36502085],[3.01178605],[-6.53152712],[3.41111001],[2.02764653],[0.],[-3.25014912],[-0.0137785],[2.1899315],[-0.42217554],[-4.17894482],[3.02092689],[-0.35685968],[-0.95005198],[0.94539897],[0.24544541],[3.10120014],[-9.86126815],[-0.10517796],[3.3655872],[3.58894474],[6.82135646],[-1.00893942],[3.72069335],[-1.67347177],[4.3202296],[5.89453399],[-2.66031288],[1.81471023],[-0.3579913],[3.3671291],[-3.28051608],[-3.23612368],[0.6389684],[-3.61756704],[0.],[-1.26661667],[-6.38373962],[3.72589402],[0.50877946],[-3.97065706],[-7.50514876],[0.86141947],[-3.54720112],[-3.19818294],[-5.60716734],[4.98806962],[-2.06910776],[-1.78996171],[-1.36312307],[1.54851124],[0.],[4.65826217],[-1.81574774],[-1.08495938],[4.3138684],[-0.91504216],[0.],[-1.58865269],[0.92317334],[0.4865484],[-4.39239623],[1.39430675],[-3.99455432],[1.56648123],[-4.15020012],[-0.96253705],[0.],[-2.8051356],[1.89644607],[-4.64149831],[0.58902761],[1.58229358],[-1.89469078],[-2.07478587],[2.44962732],[1.81168426],[6.28799623],[3.83231955],[3.58728857],[-0.27895053],[1.67698735],[1.55700218],[-4.63890704],[2.88127795],[-0.78778229],[0.97869717],[-8.06176831],[-3.3085243],[-0.80344268],[-3.20159897],[-1.11335106],[-1.5404408],[-0.19752504],[10.28325762],[-0.9620546],[2.60065876],[-1.36808134],[-2.88284996],[4.85604011],[1.43414062],[-2.24391759],[-5.42199438],[-9.19573028],[2.05904765],[1.74009748],[1.12829914],[3.15405805],[-4.712202],[5.92089224],[0.06692234],[0.21783623],[1.14961574],[7.19680194],[0.96324298],[-4.40280608],[-2.42865791],[-2.88510651],[-2.0512538],[0.],[-2.24961345],[-2.05141766],[2.32202442],[8.24126562],[0.28648176],[-2.03162524],[1.94507222],[0.],[0.],[-1.92502431],[-0.68876803],[-1.00893942],[0.47382557],[6.02899164],[8.31153643],[2.23266498],[0.79742185],[-1.02743865],[1.0423396],[-0.58095058],[1.25734661],[3.69123572],[-5.27649365],[0.],[-2.08474801],[2.52407569],[1.49000179],[0.42307432],[-3.8141786],[0.50997571],[0.87684475],[1.41788435],[-1.10466831],[0.99899335],[1.41526408],[1.24441787],[1.24157159],[-2.27110494],[0.24482322],[0.85693281],[4.6829456],[1.13950267],[-1.11917902],[-0.77771016],[0.],[-0.56563757],[1.14399068],[4.74775826],[5.43214956],[-2.92211465],[-2.62313994],[-4.33085575],[-0.90651278],[-1.27587219],[3.21342058],[1.62031313],[-2.54935944],[-1.74309274],[-0.93942997],[1.24441787],[1.22715963],[-0.37949321],[4.26544405],[2.07045596],[7.05271615],[0.40469914],[1.47680125],[1.47680125],[1.96999019],[2.04451252],[-0.42610277],[-0.58095058],[-2.59183734],[-2.14854063],[-4.75526144],[-5.24183447],[1.33771223],[-0.82264611],[-5.70985288],[0.88684577],[0.37682625],[-2.41085579],[-0.11269526],[-1.75309696],[5.26969957],[-1.47758408],[0.11230574],[0.],[-1.02379835],[0.11983782],[-2.13807695],[-0.26433228],[-4.48901104],[1.38356607],[0.86147395],[2.88759028],[-3.27107198],[-1.44522561],[-1.1104278],[-0.18259067],[-0.90651278],[-0.38059648],[-4.18350403],[0.32749844],[-0.62269394],[0.],[0.3493024],[-5.23501968],[-1.33281408],[1.40829045],[-0.4337182],[-2.65803424],[1.97544641],[0.88883251],[-0.41807163],[-1.50119981],[1.2129688],[-5.50541632],[1.69390412],[-0.37949321],[-5.79474021],[-0.78647914],[3.5431569],[0.],[-1.76145965],[0.],[2.354346],[-3.22973812],[3.04134326],[0.74749509],[3.7039853],[-0.41807163],[0.39243938],[-2.58439943],[-1.1104278],[-0.59628244],[-0.53025995],[0.06405654],[-2.31143816],[-0.64472913],[-0.45581176],[1.49523473],[1.59639229],[0.50997571],[2.25380318],[4.37531979],[3.11247134],[0.],[-0.01653792],[2.41294672],[-4.29487183],[4.22380581],[2.30385286],[10.75919674],[2.58107703],[-0.06961282],[0.],[2.27665142],[-2.2439494],[2.82089543],[-5.28075475],[2.70820943],[-0.95712034],[-2.47375638],[2.95759414],[3.95679712],[-0.49232038],[0.45318435],[2.07036942],[0.3097221],[0.41425588],[-1.32656432],[0.90214492],[-5.12475185],[-1.37748963],[-3.24946573],[-3.00968023],[0.51061716],[0.79365559],[-1.74597046],[-1.3698925],[2.27088691],[0.],[-0.34555354],[-0.41658053],[-1.44522561],[-1.75067393],[-1.75067393],[1.29916758],[-4.2413],[0.27354201],[0.97895594],[5.26252383],[-0.7092649],[2.69045401],[0.65091467],[-6.5741285],[-4.13451306],[0.96943831],[-1.00173219],[0.93138806],[-3.55046037],[-1.67666729],[-0.4498695],[0.],[-1.17246875],[-0.71402282],[-2.18880298],[-2.75099198],[2.0169898],[-1.14657959],[0.16733537],[5.29085405],[-0.4698744],[-4.29487183],[-4.72020247],[0.94191189],[13.48294433],[11.98847221],[6.0754642],[-0.29655635],[-0.86982844],[3.36684666],[0.],[-4.34792909],[-1.92347907],[0.41122751],[1.52113455],[-3.25927892],[-0.39766983],[-0.82613668],[-0.09967615],[-0.57880431],[-1.29713997],[-0.64128985],[1.67453176],[-1.57208032],[3.04511362],[0.45355302],[-4.31486096],[-0.80340271],[0.],[0.],[0.],[5.28258235],[-0.45918869],[0.87116179],[-1.47432015],[-2.86344308],[-1.86030793],[0.],[3.50814914],[-3.43144273],[-2.19271963],[-7.43960684],[2.31543532],[-0.51572245],[1.90943075],[2.45255838],[3.99903784],[1.71682819],[-0.59148687],[-1.75696716],[3.47819132],[-1.52729816],[-5.19504374],[-0.31751895],[0.],[-0.90651278],[-1.34622331],[-3.58745123],[-2.18880298],[0.],[0.62661498],[3.79184165],[2.90597981],[2.13414473],[0.],[4.31841112],[-0.49695599],[-1.3928169],[11.76196574],[4.2936687],[0.73155677],[-0.63713514],[1.19327771],[1.43252596],[-1.70556803],[-2.95135318],[0.29008082],[-0.89537662],[0.72616208],[-3.59878614],[-0.34768679],[-0.84878777],[0.88684577],[-0.36820433],[-2.61241831],[-0.38085711],[0.],[-4.24400263],[-1.8924124],[-2.80310761],[-0.82086211],[-0.49716026],[-2.72795889],[-0.52536254],[0.],[0.],[-1.27310704],[-0.78311454],[-1.5115283],[-7.64714315],[-2.33006169],[0.],[3.30093834],[-2.45058147],[-1.02824851],[0.],[2.9326368],[-0.69103858],[-1.35044954],[0.],[-1.31059393],[1.44944664],[2.72324504],[-1.37748963],[3.27438274],[0.19315962],[1.59992248],[-1.57339421],[1.22691218],[0.4258016],[-1.18540135],[-3.38707463],[-1.30005513],[-0.5262547],[-4.33085575],[5.30538081],[-2.15190833],[0.],[-1.76222662],[-0.45918869],[1.30903016],[-1.83159005],[-0.56546655],[-0.4337182],[0.34196814],[0.],[0.],[4.94977673],[-2.59968591],[5.39937008],[-0.33424595],[-1.28795006],[-0.87233312],[1.00527467],[-2.37056727],[0.49391114],[0.],[0.],[-3.17550954],[0.29008082],[0.49543921],[0.94640067],[-0.92632272],[-2.48439684],[0.55640742],[-0.11357818],[-0.33532185],[-0.77010663],[0.99504357],[-3.48978088],[8.62350547],[-1.7370587],[-5.66347812],[-3.40903581],[0.],[2.09309382],[0.],[3.26692921],[-0.52240466],[-0.87143759],[1.61158031],[1.52622765],[0.],[-0.52775396],[0.],[3.11823095],[4.32628534],[-2.92211465],[1.33091407],[0.28247776],[-0.20536154],[1.12697193],[-0.85529158],[-0.85050371],[1.49523473],[5.39606139],[-2.16522671],[-1.53154126],[0.],[-0.6304875],[3.26988674],[-0.44546362],[-1.32221107],[-0.63924752],[-1.37748963],[0.],[3.20354881],[-3.56691968],[-3.32961494],[-0.1305907],[0.42899187],[-2.53666172],[0.41852698],[2.85073559],[1.79913396],[2.22533904],[4.7492253],[0.],[0.],[1.01669476],[1.12697193],[-2.42865791],[-2.70602808],[4.20230437],[1.88198759],[-1.05450984],[0.91912062],[-0.78311454],[1.14519112],[-0.39421089],[1.25278179],[-0.31131887],[-1.68708573],[-1.25523343],[-1.25672679],[0.],[-2.04119436],[1.15131116],[-0.13649953],[2.43137231],[0.79742185],[1.47086102],[-0.69103858],[0.],[3.82641612],[4.7517606],[1.01123058],[-0.57980931],[-0.53028289],[0.],[-0.63774528],[0.40469914],[0.],[-1.42690347],[0.],[2.70820943],[-0.8858962],[-2.52079395],[4.25846026],[1.68379576],[4.98635394],[1.58900724],[2.07880308],[-0.5262547],[0.],[-0.75799144],[-3.24132205],[0.31683466],[3.709448],[8.17937314],[0.],[-0.1305907],[-2.05247831],[-2.73782788],[-0.69960196],[-0.38302514],[-2.38539592],[-0.33979314],[-2.21578454],[0.96324298],[1.37985471],[-0.06796098],[-5.37404284],[0.3043163],[0.43543252],[6.35006854],[-2.80067403],[-1.54359116],[14.25186815],[-0.81784916],[0.8676179],[-2.74185715],[0.],[4.47780165],[-8.14379839],[0.50997571],[-3.47062466],[-6.00447743],[-0.29555475],[2.89436904],[-2.08252676],[-4.74451209],[-0.22335978],[-7.04318926],[2.69567335],[-1.10315241],[-0.5251732],[-1.78849369],[3.50814914],[-0.75799144],[0.],[2.18711355],[1.61308883],[-18.11969178],[-0.93076161],[3.02955199],[0.60711361],[-1.00076443],[-0.72767559],[-10.37957191],[-1.38407248],[2.23266498],[1.19293444],[-0.23510674],[2.23326208],[-3.79097057],[4.57808039],[1.31973832],[1.31973832],[2.32493439],[2.83507107],[2.88808899],[-0.32457026],[1.40069887],[0.77201709],[-1.6767912],[0.],[2.74853356],[-2.33006169],[1.14201217],[-0.34708803],[1.13876408],[-0.61631108],[2.93590983],[-1.40135773],[-0.68876803],[-0.75186824],[-0.74088403],[5.19969581],[-1.8182121],[-3.54326595],[-0.23454601],[0.],[-0.35214205],[-3.72824914],[1.11906638],[-8.07423211],[-0.18259067],[0.61890342],[0.40469914],[-0.68463486],[1.40091614],[0.],[0.],[-2.6980219],[3.21813846],[-2.65830818],[1.73227471],[-4.25115591],[0.],[-0.41807163],[-6.9890301],[0.65489344],[2.05924814],[0.18810763],[-1.28795006],[-4.15816061],[-3.43742954],[0.],[0.],[0.],[0.],[-4.29487183],[1.02169898],[-4.04950315],[6.71905876],[-4.6243572],[8.71426104],[0.38787784],[1.55064537],[1.56999988],[-0.74088403],[-1.46738741],[-1.44522561],[-2.01434825],[2.05073867],[1.97471228],[0.53902959],[0.],[0.56182626],[0.3009704],[-4.95179564],[0.],[0.46806258],[0.94191189],[-2.699795],[2.0891245],[0.],[1.10355605],[0.],[-2.74894596],[0.],[-4.05013643],[-5.33827929],[1.0339736],[-1.40864933],[-2.23452002],[1.59848965],[-1.49323782],[3.6196936],[1.52667275],[0.2743349],[-6.75821807],[-0.89071319],[-0.85529158],[-1.37748963],[-0.09468076],[-0.18259067],[2.09606352],[2.27445473],[3.86590942],[2.57373494],[0.],[-1.45777892],[0.49543921],[2.78026408],[-0.11527821],[-0.90664939],[2.14233809],[0.99390113],[-2.75389341],[7.90238522],[1.00993785],[-2.06657273],[0.90214492],[-0.61008489],[-3.77818158],[2.43477855],[-2.11279351],[-1.96050633],[0.91911116],[-1.14499369],[1.80712605],[6.95155567],[0.40469914],[-0.61050448],[-3.04778762],[-2.26181985],[6.82768224],[1.31137832],[-0.61050448],[0.],[0.],[0.],[1.5453271],[3.80265383],[0.56889142],[-0.59463924],[-1.28114158],[-1.68766729],[2.86530657],[2.07644301],[-7.35871721],[1.29916758],[0.1291896],[0.21372851],[3.85038619],[-3.91291384],[-0.36074361],[0.53383309],[0.12038428],[-1.53831669],[0.],[0.],[0.99877599],[-2.65194534],[1.64809205],[0.],[-1.39181767],[-1.92347907],[0.],[-0.64567645],[0.09467202],[-5.2777187],[0.],[2.50776269],[0.34196814],[1.27123276],[0.],[1.41788435],[-1.40118729],[0.],[0.],[0.],[0.],[4.27271299],[-0.5492674],[1.09326182],[0.],[4.02181466],[-2.8991899],[2.82742879],[0.],[8.22793363],[1.79320028],[0.],[7.81311256],[3.59287178],[2.6558831],[-1.19374437],[-1.38660554],[0.9639282],[-1.18243457],[0.],[-3.01551321],[-1.82682983],[0.],[-0.34708803],[0.],[3.20930505],[0.],[-0.53419017],[0.],[1.46960441],[0.37767994],[0.],[0.3493024],[-2.60471765],[0.],[-0.0806579],[7.71232011],[-0.5122957],[0.91911116],[2.16672778],[2.09606352],[-4.53230387],[0.87451693],[-6.64736825],[-1.80533278],[-1.87774329],[-1.98336721],[0.],[0.],[0.],[0.],[0.],[-4.5389903],[0.31482889],[3.30093834],[-3.72980751],[-1.2022419],[-13.23068667],[1.73369675],[0.35621209],[-1.59366902],[-5.36500573],[2.22533904],[-0.51572245],[-0.67658617],[-1.95596184],[0.],[3.62135456],[-4.56234672],[-2.55762432],[-2.21328776],[-0.64483549],[0.],[-1.81695768],[6.50387007],[-2.58690795],[0.91912062],[2.33757586],[1.62181377],[-1.04285319],[-2.75155096],[8.89669064],[2.10352744],[1.00478691],[-2.02981261],[3.74585133],[0.],[-9.15828695],[-6.56641868],[-3.94695369],[0.34196814],[7.02751175],[-0.76982025],[0.],[3.12925157],[3.80265383],[0.853899],[3.14433184],[-2.71912124],[0.73745339],[-5.09638881],[2.56495973],[1.75308553],[0.],[-1.74266002],[1.21026991],[-0.95615863],[-11.95699647],[-4.16208602],[0.],[1.46812673],[0.],[-0.72569582],[0.7403427],[0.],[-1.52735315],[3.38561565],[4.66799165],[0.41122751],[1.41566178],[2.61959537],[2.07750364],[-0.71057246],[-5.51864594],[2.66309679],[1.56783737],[-0.43475424],[-0.21044786],[-1.10244313],[-0.89435956],[-4.56234672],[-0.29210475],[0.],[-0.79126191],[2.30997903],[2.52263672],[3.9805796],[0.21400154],[-3.19072139],[1.98389894],[-0.29058023],[1.35249836],[11.54708972],[-3.5871445],[-0.78311454],[-0.37291408],[5.80929291],[-4.33287225],[0.34196814],[-0.35214205],[0.],[-0.27895053],[0.20080126],[-0.20577495],[1.9845791],[-1.44503945],[-3.58344727],[-2.84563429],[-0.58286541],[5.81391326],[3.58557025],[3.84291474],[-0.24274476],[4.36432969],[1.49925176],[-1.415765],[0.],[-2.42022057],[-1.44503945],[-0.53028289],[-0.23871872],[3.04134326],[-0.714178],[-6.07115707],[-0.24781261],[2.64745407],[-0.78255251],[-1.49058287],[-3.11302707],[4.35812368],[-0.46019729],[-0.4207259],[-0.64790514],[-0.57747066],[1.70330705],[1.53680558],[1.06918595],[-2.00922805],[0.],[-0.44065095],[-1.04535926],[0.],[-1.21654283],[2.04453362],[-0.55096492],[6.25718266],[7.1085922],[-1.39651117],[0.42267962],[1.24441787],[-0.82606398],[8.95571442],[-0.9367897],[0.51803555],[6.7973575],[0.5075651],[1.15779743],[5.40183021],[0.52255949],[0.89169312],[0.],[-0.87813657],[1.01833178],[0.],[0.],[-0.37291408],[1.17226129],[3.21885593],[-0.18259067],[0.87399988],[0.79811075],[0.94191189],[-1.77996358],[-3.37252464],[-0.4698744],[-1.2190337],[-0.90657206],[0.60032555],[0.],[-0.90138527],[0.],[-0.70041053],[-0.59463924],[2.07644301],[-1.74109475],[-2.15653206],[-3.27547534],[2.43187566],[4.30604189],[-0.18196901],[2.55688904],[0.],[1.27877645],[-1.5616582],[-5.35853062],[-1.48833535],[1.0215318],[-0.45128857],[0.49543921],[0.],[-1.91408339],[2.21136173],[0.],[2.10380269],[-0.68144241],[6.65421092],[-2.92211465],[1.27073171],[-1.36181962],[2.06344189],[2.0845561],[2.05550334],[-0.51572245],[1.65881197],[0.34196814],[1.94419679],[-2.61695416],[1.58782422],[0.50997571],[0.88684577],[-0.26133455],[-0.44444968],[0.],[1.14399068],[-1.75067393],[9.27629442],[1.71475263],[-1.76734135],[-4.16375396],[-3.14445002],[0.],[0.89674489],[-5.02760994],[-1.06099833],[-8.36768611],[-0.34705681],[-0.36624587],[-0.17813853],[1.02458038],[-0.61050448],[0.],[4.55206525],[3.25006579],[-2.58892588],[3.33366177],[-3.46750975],[-1.11917902],[-0.77771016],[2.25144971],[0.],[1.88869738],[-0.93997103],[2.86247884],[0.50799152],[-0.57247408],[-1.25817722],[9.13150991],[-0.25971922],[0.69198122],[-7.93791364],[0.88415907],[4.23374325],[1.5568562],[0.],[1.95606403],[-0.36456299],[-4.41599139],[-2.69991353],[0.],[-5.89178233],[2.02082749],[-2.82265574],[2.15174639],[-0.5262547],[-0.8330092],[-1.80694084],[3.67766918],[10.96281704],[0.],[4.98542854],[1.0449031],[-1.63193068],[0.74676461],[-0.39421089],[-1.81815673],[-1.40969498],[2.66989553],[0.],[0.31482889],[-0.46782984],[-2.76843093],[-0.49232038],[-2.14891071],[-2.84404823],[2.74282042],[-3.94012533],[-1.2190337],[5.4638801],[-2.87704372],[-2.01056408],[0.],[0.],[-1.40864933],[-3.30026405],[1.47086102],[-0.53028289],[0.19350216],[-0.21010122],[3.6419382],[1.95606403],[-1.38838292],[0.],[0.],[1.53665026],[-2.49301172],[1.54191897],[-0.91083604],[0.],[-0.57824643],[0.31482889],[0.24971918],[-3.99832564],[6.51322843],[2.7587608],[2.12077221],[0.],[-1.5980839],[-1.70162883],[1.71085872],[1.66962721],[-2.45058147],[0.47382557],[0.62661498],[3.80254294],[-0.3625722],[2.04273864],[-2.1394357],[-2.70602808],[-0.1305907],[-1.40253202],[3.02444299],[-2.20822053],[-2.8991899],[-0.13512143],[-0.90651278],[2.18711355],[0.],[1.0215318],[1.930307],[3.04950043],[-0.82058913],[3.80087317],[-2.45058147],[4.07953555],[-3.99234024],[-0.98202131],[-2.35180635],[-0.58417077],[-2.05611743],[-2.72047116],[2.43943969],[-0.51572245],[2.54025474],[2.52263672],[-4.46722153],[-1.50365108],[-7.39394806],[0.],[-5.17512345],[4.09352571],[-1.92171331],[0.46207246],[-2.5351424],[-0.49817127],[1.5453271],[-0.06961282],[-0.9265816],[0.],[0.],[0.],[0.],[0.],[-4.09902953],[0.],[0.53605367],[-6.38801931],[-3.64498392],[3.29848596],[-2.14864652],[3.22971017],[-1.30729427],[0.],[-0.3184016],[-0.23510674],[1.40069887],[-4.88702776],[-0.74386778],[1.22691218],[-0.2417199],[-0.95629944],[-0.5492674],[4.29994638],[-0.76433268],[2.48773538],[0.],[-1.69767657],[2.79953878],[-2.70602808],[-0.44065095],[-2.23195526],[-0.79618427],[7.89304868],[0.8676179],[7.40611452],[2.59067824],[-0.09190811],[-0.99771332],[-1.30752353],[5.09100891],[0.50997571],[-0.23449814],[-1.02065513],[1.50573288],[-2.21655848],[0.],[-0.98202131],[-0.98202131],[-1.65273561],[0.96324298],[-5.7165215],[0.],[5.50625224],[1.86081574],[-1.60774467],[-2.0035535],[-0.73388397],[1.45482464],[1.41566178],[6.48306184],[-0.13649953],[-1.63012077],[-0.26133455],[0.],[-0.61529695],[-1.06713685],[-2.98974916],[-3.50185887],[0.],[1.40069887],[-0.23380355],[0.],[0.],[-0.73870259],[0.],[-4.8057592],[1.23405819],[3.30395701],[0.],[-1.78849369],[-0.48796497],[0.],[0.],[-0.28531991],[2.20238356],[-0.66686221],[1.29916758],[-0.92097505],[1.92229256],[-0.18259067],[0.],[3.48831717],[0.],[4.99968721],[-1.9340214],[-0.89357014],[-0.44444968],[0.75004686],[0.59057945],[-3.57930657],[1.69932823],[0.],[1.29916758],[-0.41130656],[7.65980162],[-3.69024103],[-1.96318629],[-0.05356203],[-3.37082793],[-0.19745269],[-1.5115283],[-3.20385342],[-2.4714836],[5.63348185],[0.45081855],[0.34196814],[0.63620827],[1.41566178],[-1.02065513],[-1.49728479],[-0.48311801],[1.73641851],[1.70330705],[1.21762316],[1.70860937],[2.67148426],[1.70330705],[0.],[0.22668329],[1.17364832],[11.76196574],[2.91568267],[-0.59463924],[-1.75067393],[1.48285154],[0.4258016],[-1.60162015],[0.79985398],[-0.44377485],[4.85383622],[1.60263329],[-1.37366451],[0.],[2.9326368],[3.91944961],[0.50997571],[3.23906819],[-0.07836056],[0.],[0.],[0.],[-0.71342966],[-0.66731285],[-0.77946429],[-3.09281647],[-0.53028289],[1.79320028],[-0.03596467],[0.],[2.43112899],[-4.81253209],[3.26202446],[0.3163782],[-1.3866069],[-3.31664356],[5.66354865],[-0.02691614],[-0.43934536],[1.35249836],[-0.58066396],[8.48144476],[4.37531979],[1.69803053],[-1.77533276],[1.2535431],[-1.66892902],[-1.14524285],[1.22875574],[2.94100903],[-2.00922805],[-3.0092555],[1.59289545],[-1.71239097],[0.29008082],[-1.28795006],[-0.58529382],[0.],[3.05811034],[-0.33403583],[-2.04251727],[0.],[0.],[0.61335567],[-1.15457354],[-1.29478185],[-0.63018412],[-2.2596504],[-3.82578512],[-1.15557428],[2.46717351],[2.88593708],[-4.43411368],[-1.75696716],[8.42348949],[1.62434061],[-0.09967615],[-2.05647773],[-1.25672679],[2.57464639],[1.67453176],[-0.26133455],[-0.31510589],[-6.61927321],[-3.59728847],[0.55542527],[1.26345536],[5.83898643],[0.51153087],[-1.63193068],[0.],[2.3959952],[1.5001233],[-1.35044954],[-1.32460536],[-2.63675621],[-0.67278474],[1.14399068],[0.36012652],[1.2535431],[2.55323551],[0.44498036],[3.64795497],[0.47382557],[0.],[-0.4943623],[-1.28352595],[-0.56546655],[-0.23449814],[0.],[0.],[0.],[1.0065252],[-0.64846432],[4.69655602],[-0.58173543],[-2.75714087],[-0.20536154],[4.15565355],[-3.7206232],[-4.14100584],[-1.59786205],[2.93368187],[-0.47021348],[4.65868006],[-1.18820762],[-1.44503945],[2.17327002],[-5.00647287],[-2.88316588],[-1.37259764],[2.95358336],[0.84961173],[-3.12757206],[-2.33231705],[2.3463945],[2.03767575],[0.98775129],[2.12473945],[5.70381842],[-1.33109589],[-0.76433268],[-3.64392685],[-1.33109589],[-0.59445436],[4.08003501],[3.34634842],[-1.85953944],[2.83250621],[-2.17779808],[0.3493024],[-0.60597877],[3.31257015],[-2.08624042],[-1.35044954],[-0.57678103],[0.59057945],[1.9059898],[0.],[-3.87686326],[-2.57865583],[0.3493024],[0.43287541],[-0.61050448],[0.46576011],[-0.38504646],[4.89260041],[0.],[-1.38968151],[1.45624634],[-0.31265934],[0.],[4.40316055],[-1.02379835],[0.],[0.],[-1.68708573],[3.84291474],[0.34196814],[-1.28795006],[3.80265383],[-2.72092527],[1.68379576],[2.12578643],[1.84952332],[3.84291474],[-4.00002584],[-7.97160078],[-0.96147403],[-1.37748963],[1.0045256],[0.65289477],[-1.76734135],[1.46439554],[1.07871611],[-0.95615863],[-3.31093509],[-0.39120288],[-2.49301172],[-0.09367663],[1.24441787],[0.69538717],[-2.01671236],[-0.37997559],[0.],[0.53605367],[0.],[6.10843379],[-5.25673699],[-0.67499399],[-0.96200065],[1.03826155],[-0.67356566],[5.47868597],[-4.15816061],[0.55542527],[-0.36691023],[-4.19041641],[0.],[2.80945904],[1.55855572],[4.68465957],[-1.21654283],[1.03271471],[1.0215318],[-1.80507016],[-1.20187299],[2.07286075],[2.25762465],[0.21911716],[2.30726605],[-0.3625722],[-0.83837064],[2.38511345],[1.5512951],[1.14292656],[-1.76926045],[4.15565355],[0.],[0.],[-2.76381749],[-0.39841352],[0.56889142],[-12.10815314],[-0.12626294],[2.3463945],[1.63318599],[5.33557797],[-0.04117252],[0.83951177],[8.89038944],[-0.99806668],[0.],[1.76899784],[0.42422283],[-0.8330092],[1.93387336],[0.99877599],[0.],[-1.37671954],[-3.12425694],[0.49543921],[0.24482322],[-0.62072158],[2.72511705],[-3.75900864],[1.40678077],[-0.12722565],[-2.54935944],[1.32710961],[-0.27293317],[-2.36984998],[-2.64270503],[-2.02288474],[-3.77364149],[-0.70041053],[1.12697193],[0.],[0.],[-0.91958949],[0.50997571],[-0.37426337],[0.40563855],[1.26747467],[1.7447059],[1.03271471],[3.53683039],[0.],[1.26880968],[0.],[-0.41198188],[-1.87906535],[1.14399068],[-0.56674839],[0.3043163],[-2.72263627],[-1.18834694],[-4.24151405],[-1.40969498],[-1.98132706],[1.53929985],[-1.16687208],[-0.12220895],[-2.34294589],[0.96324298],[0.69538717],[-0.12522143],[-1.04535926],[-2.01056408],[-5.82118917],[-9.50594733],[-4.35039398],[-2.69931443],[5.30590951],[-1.42690347],[0.15576402],[-0.52942682],[-4.11738078],[-3.07819994],[-0.31851678],[1.46439554],[-4.00669516],[-1.32348111],[0.],[-0.33482803],[0.79120289],[1.75308553],[-2.49361041],[-2.8991899],[0.],[0.61379704],[0.88684577],[-1.10064826],[-2.9853483],[-2.50708852],[1.43392704],[1.22691218],[0.50997571],[0.],[3.93837524],[-2.49301172],[-8.31929013],[-0.49885349],[1.37985471],[-1.25190318],[-0.58095058],[-1.05784596],[-0.17175717],[-2.1276048],[-0.91857505],[-1.30729427],[3.9805796],[0.34372984],[0.05325154],[-0.14278171],[-4.65937006],[-4.51511709],[-1.06318949],[2.36202732],[-0.51572245],[1.6491294],[0.],[0.42132651],[1.65656822],[-2.01486476],[-0.4337182],[-1.92234226],[-1.76749257],[-2.0035535],[-1.27703246],[-0.70877427],[-2.70818294],[-0.31131887],[2.53412011],[1.86233086],[0.7549502],[9.55037685],[0.39243938],[1.68379576],[-0.57678103],[1.04802832],[0.],[4.06386222],[-12.17451967],[-0.1305907],[8.42536404],[1.84365148],[0.21406803],[0.65489344],[0.88067231],[-1.31059393],[0.21600659],[0.8676179],[4.55206525],[0.42132651],[4.75634444],[0.],[-2.643168],[0.],[-0.35408732],[-0.49505855],[-12.07771276],[-0.90631465],[-4.30247876],[-2.08604231],[1.03271471],[0.],[0.],[-0.61050448],[0.58026117],[0.],[1.24441787],[0.98894692],[-1.79056585],[0.],[-1.02062773],[0.],[0.],[0.],[0.],[7.00773124],[6.02945236],[1.55855572],[4.86875023],[-1.62858444],[-5.87744971],[-3.27472576],[1.40678077],[-2.90069628],[0.79742185],[-1.56141229],[-3.83731089],[0.50846529],[-0.32457026],[-0.98381596],[4.86875023],[0.],[1.29153186],[1.78688383],[-0.75643717],[0.25307523],[2.03074871],[-0.35219216],[2.20238356],[1.03271471],[-4.37518582],[3.92590365],[0.40469914],[-2.41085579],[4.35350725],[-1.08931537],[-0.45128857],[1.60111167],[-1.08700595],[-0.19745269],[-0.62165933],[2.31543532],[2.52407569],[-1.52111674],[-2.58392042],[0.],[0.],[-0.61050448],[-1.58937031],[0.49391114],[0.],[0.94025464],[2.44912863],[4.03370814],[-0.71556658],[0.01390123],[1.37985471],[-4.37970272],[-5.45566491],[-0.27992093],[0.],[0.],[-0.79605945],[2.52218574],[1.32302127],[0.],[0.],[0.27275648],[0.01789773],[-3.17740653],[-2.30803035],[0.],[-0.20301228],[0.],[1.14399068],[-1.29413677],[-0.57385208],[1.21762316],[-0.37291408],[1.62987639],[1.5001233],[1.12697193],[-1.49058287],[-1.37671954],[1.24157159],[-1.35044954],[-0.18259067],[-0.86847318],[-1.59379529],[3.11287447],[-6.79270877],[0.75004686],[-0.35214205],[2.9326368],[-0.99698166],[0.],[-0.36624587],[-1.90802065],[1.24441787],[0.],[-1.5115283],[2.69295266],[-6.64356749],[-4.3097561],[3.04645826],[1.49523473],[-1.83159005],[-2.37366751],[0.85332437],[-1.33957749],[6.67392711],[2.42572346],[-0.65276364],[-3.02965477],[-1.52793972],[4.1070978],[-0.91083604],[3.37481186],[1.49523473],[0.],[4.03218386],[0.28127198],[0.39649803],[-2.50708852],[2.02748113],[-8.19277477],[-0.42399861],[-1.19809598],[-2.10635958],[4.26359027],[-0.329435],[-1.6414844],[1.34499357],[-1.02337022],[-1.78122103],[7.06254867],[-1.6008178],[0.],[2.34721407],[-0.14167811],[-0.01845575],[-3.72061966],[-3.24129438],[0.73023263],[0.40469914],[1.39688893],[5.12917398],[2.39821399],[-1.41963304],[-2.1394357],[0.84933781],[0.46171462],[-0.67609416],[3.7561829],[2.81589505],[1.90314834],[3.25981031],[-0.3816883],[1.68379576],[-1.47942844],[0.84183112],[-0.64128985],[-1.62278405],[-0.59427282],[-0.50458083],[2.57248416],[-0.81043396],[-0.49740867],[-2.08252676],[-2.50205919],[0.],[0.55542527],[0.7549502],[-2.52471358],[-0.12039025],[1.15198635],[4.82148861],[0.37836084],[-3.68094746],[-1.17459175],[-2.25683435],[2.00011087],[-2.29211297],[2.60389384],[0.],[-1.72808976],[1.25309313],[2.7175652],[-1.63512179],[2.56695009],[0.62207264],[-1.19232585],[1.84586682],[2.2305037],[-0.73131191],[-2.63127308],[-0.44065095],[0.],[3.41121973],[-0.52536254],[-0.58095058],[2.18795033],[-1.46936945],[0.75976831],[0.45007922],[1.96591441],[0.56889142],[-3.9487698],[-1.33502504],[1.26961075],[2.23419094],[1.21808723],[0.80285328],[2.53416773],[0.],[-0.60409511],[0.],[-7.2987207],[-0.82606398],[-2.7419996],[-3.37341339],[0.],[-0.41394228],[-1.02601656],[-2.7544617],[1.31973832],[-4.04486799],[-2.17749785],[0.83179401],[0.],[0.39243938],[-1.54996909],[2.56695009],[1.29956834],[-0.95615863],[-0.17980597],[0.31482889],[-0.943023],[-0.99771332],[0.53862697],[0.],[2.04453362],[1.3860283],[1.55064537],[-0.97645446],[-0.75186824],[0.39087817],[1.93231767],[1.92497056],[1.82779714],[-3.03746311],[1.60111167],[0.41122751],[4.25846026],[1.59687746],[-0.670876],[-0.64399847],[3.47794852],[0.47301007],[-2.04482184],[0.],[-1.83159005],[-4.39999143],[1.3980727],[0.],[1.28400944],[-0.93768178],[0.],[3.69123572],[3.14847404],[-0.14278171],[-3.9783322],[6.50600714],[0.],[-2.33687109],[1.66758937],[-0.13649953],[0.83720855],[-1.31934267],[1.0449031],[-2.92973684],[-0.35551963],[1.40069887],[0.24482322],[0.],[0.],[-0.36501952],[-0.81017476],[1.56648123],[-3.78408541],[1.12727848],[-0.02828856],[2.97549533],[0.49061025],[-0.79375011],[1.94571426],[-0.34708803],[-0.19559756],[1.31975318],[5.1731661],[0.],[-2.16627408],[-3.70806565],[-0.33482803],[-7.76599176],[-1.30515322],[-5.57297257],[-3.31682914],[-1.6231442],[-2.54935944],[-4.42905097],[0.],[-0.87986669],[-3.0847375],[0.15164391],[-4.76865551],[0.83670365],[-4.3684073],[1.24157159],[-0.58095058],[-0.54679809],[-1.39181767],[1.58954474],[-4.87157755],[1.21808723],[-3.01782654],[1.97298828],[2.42536964],[1.53468938],[0.56182626],[-2.1394357],[1.20538013],[-0.59463924],[-0.75799144],[2.69089484],[0.56889142],[-7.28832936],[-1.74629585],[-4.3970602],[-2.86344308],[-1.39703405],[-1.26974726],[-2.18735006],[2.9326368],[5.67670317],[-0.2298974],[-1.9895049],[-1.23863693],[1.55706181],[-0.79618427],[-4.76121761],[5.92762538],[1.50673478],[-0.76433268],[-1.55579482],[-0.99771332],[2.41023416],[-3.53942428],[-5.25736343],[-1.8924124],[-1.92347907],[0.],[-0.8954081],[1.13069546],[-5.58087393],[-6.87587985],[-1.76489866],[-0.64472913],[-2.48607222],[-0.36624587],[1.7915794],[-1.25523343],[-2.68244929],[-2.49313135],[-0.38302514],[0.],[2.64633685],[1.62434061],[-0.74333392],[-2.10148734],[1.41582106],[-2.68971226],[-0.64567645],[1.05831336],[0.74165658],[-0.79104417],[1.05831336],[1.31973832],[0.67636228],[1.27123276],[1.52198917],[1.25674838],[1.35295684],[2.33615386],[1.27123276],[1.67403278],[-6.13396643],[1.47340029],[1.40069887],[3.01612934],[1.27041711],[-1.13993666],[10.08122754],[-1.64717478],[-0.75759222],[-1.44522561],[-2.81586348],[2.0891245],[-2.47020165],[-2.58892588],[-0.14167811],[0.],[1.03271471],[0.96422085],[-0.59002602],[0.39243938],[1.70330705],[0.],[0.87684475],[-0.68527863],[-0.42500875],[0.],[-2.38618212],[-2.58356976],[0.],[0.],[-1.94831864],[-0.1305907],[0.],[0.45318435],[0.],[0.],[0.],[0.24482322],[1.35249836],[0.],[1.12964488],[1.22622449],[-2.55295932],[2.46566872],[0.49391114],[1.61308883],[2.78026408],[0.],[-0.28074754],[-0.36820433],[0.18875516],[-0.1785877],[1.26747467],[1.97544641],[1.53665026],[0.83179401],[-2.59968591],[0.],[0.],[0.4258016],[0.],[6.78565231],[-1.56046655],[2.7175652],[0.],[0.],[-0.56913742],[5.065761],[1.13876408],[0.63620827],[1.24157159],[0.],[5.08226911],[2.9326368],[-1.17246875],[0.41852698],[-3.90212467],[-3.69379844],[-4.93800585],[0.],[-0.63543743],[-0.33482803],[0.51803555],[-0.91107899],[-1.10709087],[-0.64217353],[-1.95621005],[0.],[-0.95843912],[-5.30365132],[-2.61537618],[-3.14777684],[-0.17410068],[-0.91083604],[-3.65239791],[3.53116798],[0.02687132],[0.704524],[0.],[-0.47585522],[5.6295744],[3.71409566],[-2.83765374],[3.10652091],[-1.76460527],[-1.20574441],[0.02005008],[-0.83364009],[-2.70814913],[-0.69069391],[-8.22831832],[0.],[-0.79375011],[-1.24883574],[-7.01019777],[1.13527533],[-1.96050633],[-0.99439628],[6.19629853],[-3.68383175],[-0.90211955],[-2.07837976],[0.],[-0.44444968],[2.02762678],[3.44556881],[1.61847243],[-0.98381596],[-1.63052015],[-0.45128857],[1.19779542],[2.24465157],[-3.07044809],[0.89169312],[-5.28727509],[-6.16296831],[-1.15496386],[1.42014067],[0.56182626],[-5.93705102],[1.40069887],[0.98775129],[-1.99985468],[3.65998141],[-1.71800989],[-3.46604256],[-1.9528721],[0.],[2.24280715],[1.55855572],[-5.01444574],[0.],[8.84844247],[-3.71099678],[0.02313027],[-2.07820731],[0.95347202],[0.11219189],[-2.2925979],[0.],[0.34365713],[1.51974038],[1.28668067],[1.83893605],[-3.49170896],[0.98436773],[-2.6736382],[-4.44919349],[-1.83520004],[3.42408544],[-1.37748963],[1.70876006],[2.72511705],[0.74011778],[2.8556256],[1.1601339],[-2.43560337],[2.94100903],[-5.99682449],[-0.63924752],[-1.26974726],[0.],[0.1163541],[0.8676179],[3.28282193],[-0.46019729],[2.21338062],[8.91357082],[0.79120289],[0.50997571],[1.72620263],[4.41392126],[-0.67609416],[-0.78311454],[-1.54042796],[0.],[-2.05892356],[6.76088925],[-1.49058287],[-1.68708573],[-5.9258384],[-3.19072139],[-2.58396407],[6.7703344],[-0.35641932],[-2.12311075],[3.86015498],[-2.96106108],[6.60910383],[-0.88066603],[-2.07820731],[-0.43112061],[-0.40051891],[-0.33922473],[7.74239197],[1.70788341],[-0.08969998],[-0.64846432],[13.43663689],[3.64982678],[2.06242977],[0.],[-0.58095058],[1.22715963],[-1.21933819],[-2.15228111],[2.14331209],[-5.77551928],[1.12472871],[0.],[-1.64711979],[6.34491009],[13.53568412],[4.02512799],[0.37836967],[-0.9851342],[-0.76163061],[-5.9302347],[-11.90045479],[1.62110182],[-4.47299954],[6.88772655],[2.31543532],[-3.22555163],[-6.34448268],[-5.62047664],[-0.29210475],[1.26747467],[-4.42800886],[0.26784578],[0.],[-0.32457026],[3.76377426],[1.0045256],[1.49751302],[-1.68336376],[-5.45853096],[-0.40047957],[-0.89537662],[0.],[-0.91572093],[-2.62255019],[-2.49782011],[-7.56245285],[10.99384197],[-3.62145367],[0.],[0.],[-0.68065768],[-0.79600985],[7.76126695],[3.10219925],[-0.41066719],[1.78104461],[2.04534398],[-3.35730209],[-1.8924124],[-6.75012635],[-0.13512143],[0.],[-1.78714028],[0.],[-0.58095058],[2.01514396],[-4.76070683],[-1.25817722],[-1.70149429]
